{"type":"single","lottery":"dlt","model":{"type":"dlt-lstm-v1","hiddenDim":24,"numLayers":1,"dropoutInput":0.1,"dropoutHidden":0.2,"dropoutOutput":0.2,"stack":{"type":"stacked-lstm","inputDim":61,"hiddenDim":24,"numLayers":1,"layers":[{"type":"lstm","inputDim":61,"hiddenDim":24,"params":{"W":{"rows":96,"cols":61,"data":[0.11968608945608139,-0.3227821886539459,0.35275164246559143,-0.0014825526159256697,0.05178578570485115,0.10156679153442383,-0.0011262373300269246,0.037939008325338364,-0.2026936262845993,-0.12201738357543945,0.09001509100198746,0.12373881787061691,-0.05777839943766594,-0.01059706974774599,0.27491629123687744,-0.054306454956531525,-0.018461955711245537,-0.042618654668331146,0.1729820817708969,0.07698506861925125,0.19645185768604279,-0.09554225206375122,-0.024519294500350952,0.06415466219186783,-0.07903137803077698,-0.23685671389102936,0.02478700876235962,0.031388819217681885,-0.21738065779209137,0.004562521353363991,0.16469791531562805,-0.00505265686661005,0.02884719893336296,0.028933951631188393,-0.19315989315509796,-0.14776937663555145,-0.24882037937641144,-0.06639530509710312,0.0766998901963234,-0.2384781688451767,0.3057994246482849,-0.020528513938188553,0.16418634355068207,-0.05772429332137108,-0.06725732237100601,-0.019824936985969543,-0.05091714859008789,0.16370852291584015,-0.12930433452129364,-0.14454741775989532,-0.10000649839639664,0.012736868113279343,-0.06912469118833542,0.006900364998728037,0.07854811102151871,-0.051251135766506195,0.2637789249420166,0.13940009474754333,0.028491098433732986,-0.18348832428455353,0.12309971451759338,0.05252302065491676,-0.022210104390978813,-0.06948394328355789,0.06117197498679161,-0.03705742955207825,-0.036869458854198456,-0.06229429692029953,0.0834832489490509,0.18043860793113708,-0.13571114838123322,-0.02563159354031086,0.06002018228173256,0.02522013895213604,-0.06622966378927231,-0.050827767699956894,-0.1239633858203888,-0.11901659518480301,0.02839508093893528,-0.16378740966320038,-0.06523647159337997,0.17927491664886475,0.0526769794523716,-0.1596652716398239,0.03330336511135101,0.21821022033691406,0.14164189994335175,0.1469116061925888,0.07723226398229599,0.09439148008823395,0.08835025131702423,0.06949694454669952,0.023465953767299652,-0.2112717628479004,-0.14283476769924164,0.018602954223752022,-0.054780323058366776,0.17600321769714355,-0.11089913547039032,0.0581580325961113,-0.16601067781448364,-0.13166138529777527,-0.016941498965024948,0.15799230337142944,0.013670722022652626,0.10324006527662277,-0.04726355895400047,-0.019400659948587418,0.18204496800899506,0.19358232617378235,0.16042549908161163,0.09149057418107986,0.16830800473690033,0.06489022821187973,-0.06359187513589859,-0.11682602018117905,0.19185370206832886,0.10221607238054276,-0.03142091631889343,0.15089039504528046,0.15546056628227234,0.0676598846912384,0.10304835438728333,0.06245909258723259,0.008535773493349552,-0.04403955116868019,0.05637051910161972,-0.20045866072177887,-0.057947542518377304,0.023290328681468964,-0.10997004061937332,-0.006387812551110983,0.036237139254808426,0.026571016758680344,-0.05385816469788551,-0.03736947104334831,0.13661734759807587,0.11990568786859512,-0.17257747054100037,-0.13167127966880798,0.0022538392804563046,0.205555260181427,0.13323193788528442,-0.06522177904844284,0.13011746108531952,0.2413717657327652,0.15437199175357819,0.17855490744113922,0.060875795781612396,0.16923950612545013,-0.17596851289272308,0.046921905130147934,0.0129498690366745,-0.026802463456988335,-0.01690712571144104,0.18467386066913605,0.1806732565164566,0.04725390300154686,0.2002110630273819,0.04860357567667961,0.2184968739748001,0.1706702560186386,0.18600031733512878,-0.04946145787835121,0.048012375831604004,-0.1739318072795868,0.10837892442941666,-0.1616182178258896,0.12446700036525726,0.11283337324857712,-0.07298552989959717,0.07784110307693481,0.03611290454864502,0.04730227217078209,0.1933552473783493,0.027524186298251152,0.09143967926502228,-0.1343037337064743,0.20924235880374908,0.23117423057556152,0.05441039055585861,0.10569237172603607,-0.02864553965628147,0.016267266124486923,0.0630430057644844,-0.10578017681837082,-0.08607962727546692,-0.09919416904449463,0.06220202520489693,-0.03816084563732147,0.02786216512322426,-0.11979401856660843,0.06445516645908356,-0.06325333565473557,0.1296929121017456,-0.012462180107831955,0.1268300861120224,0.23105356097221375,0.09602685272693634,0.06002897396683693,0.06200122460722923,-0.12318557500839233,0.19964644312858582,0.011808658018708229,0.11869339644908905,0.13883930444717407,0.24419087171554565,-0.11709415167570114,0.19441868364810944,-0.11686963587999344,-0.08903490751981735,0.0397404320538044,0.13547702133655548,-0.028787678107619286,0.1720077246427536,0.24209636449813843,0.15986573696136475,0.2143530249595642,0.01247359812259674,0.07385429739952087,-0.11596716195344925,0.0710834413766861,-0.07425100356340408,-0.03197726234793663,0.07630565762519836,-0.11570374667644501,0.0268704816699028,0.018681230023503304,-0.10117185115814209,0.2618106007575989,0.1644909679889679,-0.07323335856199265,0.24774070084095,-0.005168741103261709,0.10635033249855042,0.25542372465133667,-0.08354629576206207,0.15091580152511597,-0.09240160882472992,0.14739972352981567,0.18975339829921722,0.030880585312843323,0.17981866002082825,0.15309740602970123,-0.07872458547353745,0.07431133836507797,-0.06752533465623856,-0.09005171805620193,-0.03392350301146507,-0.005531521048396826,-0.18582387268543243,-0.20986269414424896,0.1166677474975586,-0.025818578898906708,0.08229313790798187,-0.07311952114105225,-0.019781766459345818,-0.2771047055721283,-0.1643170714378357,-0.04424550011754036,-0.017662104219198227,-0.18053875863552094,-0.16209718585014343,-0.16313646733760834,-0.13314388692378998,-0.19116131961345673,-0.0016271931817755103,0.11720983684062958,0.036570239812135696,-0.0009759130771271884,-0.1513988971710205,-0.2164648026227951,0.06332793086767197,0.09604300558567047,-0.09763354063034058,-0.0291682630777359,0.1030193492770195,0.0893993005156517,-0.04453560337424278,0.019352804869413376,0.02892071194946766,0.09283076226711273,-0.2203657627105713,-0.17157253623008728,0.11748229712247849,-0.0069024148397147655,-0.12333889305591583,-0.036522265523672104,-0.1279234141111374,-0.15643052756786346,0.05165037885308266,0.05879363417625427,0.09365937858819962,-0.2674902081489563,-0.01412927359342575,-0.19428247213363647,-0.2201358824968338,0.06416469067335129,-0.23094144463539124,-0.10729680955410004,-0.26089584827423096,-0.16011017560958862,0.0642142966389656,-0.18508625030517578,-0.09751839935779572,0.14930859208106995,0.2556769847869873,-0.06845995783805847,0.06788884103298187,-0.020571837201714516,0.006049143150448799,-0.0510779470205307,0.23349739611148834,-0.12618766725063324,0.04574444890022278,0.16270990669727325,0.18263749778270721,-0.10265786945819855,0.09260563552379608,-0.08502263575792313,0.13830159604549408,-0.1531861573457718,-0.05301874503493309,-0.12668487429618835,0.11358249932527542,-0.07248347252607346,0.15139979124069214,0.004117843694984913,0.100655697286129,-0.22780202329158783,0.051977235823869705,0.16674990952014923,0.22155407071113586,0.2593517005443573,-0.1001257374882698,-0.05302567407488823,-0.10309529304504395,0.07682188600301743,-0.13021767139434814,0.18763631582260132,0.21464426815509796,-0.13255281746387482,0.11156981438398361,0.20090046525001526,0.1764673888683319,0.13584105670452118,0.1986209601163864,0.08824760466814041,0.09091313183307648,0.11835049092769623,-0.151289701461792,0.08971797674894333,0.19670389592647552,0.05529966577887535,0.13395458459854126,0.13720418512821198,0.07325013726949692,0.25978925824165344,0.1670146882534027,-0.044749535620212555,0.25117698311805725,0.24480684101581573,0.23176902532577515,0.1397334784269333,-0.06060478836297989,0.25014275312423706,-0.08093033730983734,-0.015329095534980297,-0.07838033139705658,-0.1459808349609375,0.18689915537834167,0.003485637018457055,-0.08979921787977219,0.21223637461662292,0.2129734605550766,0.09593477100133896,0.10243526101112366,-0.009508343413472176,0.06913310289382935,-0.10260280966758728,-0.14212724566459656,-0.13151291012763977,0.09803353250026703,-0.13630281388759613,0.10240188986063004,-0.125198632478714,0.17781230807304382,0.02809995226562023,0.23647040128707886,0.1528417021036148,-0.12542012333869934,0.038173530250787735,-0.11242054402828217,0.2259501814842224,-0.09468352049589157,-0.06382467597723007,0.1895127296447754,-0.03464804217219353,0.13052703440189362,0.09836780279874802,0.0909569039940834,0.22739528119564056,-0.01768135279417038,0.1942272037267685,-0.048170462250709534,-0.06101694330573082,0.09902948886156082,-0.1322467178106308,-0.019881434738636017,-0.0795515850186348,-0.06378477066755295,-0.0035784277133643627,0.0524459145963192,0.13121803104877472,0.11233725398778915,0.04927932471036911,-0.007902589626610279,0.10401356965303421,-0.011104279197752476,-0.028847750276327133,-0.09207361191511154,0.20985783636569977,-0.053214553743600845,0.17308150231838226,0.1885768622159958,0.01577908731997013,0.15172480046749115,0.183628112077713,0.018266212195158005,-0.2191629409790039,-0.24466919898986816,0.2299889326095581,-0.16753339767456055,0.06282352656126022,-0.14052151143550873,0.218617781996727,-0.2137504518032074,-0.2191431075334549,-0.31938910484313965,0.14177283644676208,-0.19702433049678802,0.05254395678639412,-0.2117854803800583,-0.18721559643745422,-0.09589148312807083,-0.24931186437606812,0.016020748764276505,-0.10114520788192749,-0.07613267749547958,-0.05419771745800972,-0.1971394568681717,-0.09867797791957855,-0.021162547171115875,-0.12877698242664337,-0.12001097202301025,-0.1958743929862976,0.11057670414447784,-0.013979090377688408,-0.15356627106666565,-0.00001660768066358287,-0.15338967740535736,0.13832548260688782,-0.12733711302280426,-0.016653530299663544,0.027667541056871414,-0.3036361336708069,-0.2558213472366333,0.09753773361444473,0.06690804660320282,-0.19274602830410004,0.03278901427984238,-0.011378650553524494,-0.11515551060438156,0.01029416173696518,-0.04097361117601395,-0.002430175431072712,-0.12337459623813629,0.0692746639251709,-0.16675403714179993,0.06172538176178932,-0.19103176891803741,0.05251922085881233,0.10936913639307022,-0.1758251190185547,0.062480535358190536,0.02849992923438549,-0.1927400678396225,-0.13899734616279602,-0.1267075538635254,-0.10099712014198303,-0.05968022346496582,-0.061373356729745865,-0.006606231443583965,-0.018932536244392395,-0.07437000423669815,-0.05611114948987961,0.16466392576694489,-0.05459614843130112,-0.018282022327184677,-0.04463636502623558,-0.01502996776252985,0.0861097052693367,-0.06078173220157623,0.19716040790081024,0.0863601416349411,0.1744696944952011,0.05715339258313179,-0.07417355477809906,0.13485074043273926,-0.13546741008758545,-0.1481332778930664,0.10631454735994339,0.1777181327342987,-0.14442403614521027,-0.19165495038032532,-0.12708555161952972,0.10859744250774384,-0.12127614766359329,0.07918893545866013,0.09347870200872421,0.13931290805339813,-0.07239042222499847,0.07911919802427292,0.16381502151489258,0.11879055202007294,-0.14681197702884674,0.16933651268482208,0.14153169095516205,0.10186579078435898,-0.08934293687343597,0.12717826664447784,-0.12129596620798111,0.049141258001327515,0.08862379938364029,-0.02020847052335739,0.13941429555416107,-0.11020567268133163,0.0970485731959343,-0.003802473424002528,0.1311180293560028,0.10489942878484726,-0.12199097871780396,-0.14980438351631165,0.2014983892440796,-0.1516386717557907,-0.09800934791564941,0.02913571149110794,0.04941842332482338,0.0300887580960989,-0.09353958815336227,0.06752031296491623,-0.1819744110107422,-0.07003072649240494,0.09729621559381485,-0.025306805968284607,-0.13274510204792023,0.12532180547714233,-0.08360600471496582,-0.0501977764070034,0.15041740238666534,-0.2328084260225296,-0.045036159455776215,0.09499696642160416,-0.05956738069653511,-0.04385572671890259,-0.05540425330400467,-0.001939855981618166,-0.13588601350784302,-0.04510278254747391,-0.27046528458595276,-0.012178353033959866,-0.2226761132478714,0.0002668558736331761,0.14344021677970886,0.0035045079421252012,0.1817072182893753,-0.0325516052544117,0.1917952001094818,-0.05125962197780609,-0.03529682755470276,-0.04356696829199791,0.028684891760349274,-0.12750427424907684,-0.18174530565738678,-0.1786104291677475,-0.33009636402130127,-0.1927224099636078,0.13403648138046265,-0.0301047395914793,-0.16762001812458038,0.0740123987197876,0.06061232462525368,0.15813283622264862,0.043414123356342316,-0.11043505370616913,-0.28103363513946533,-0.14834554493427277,-0.023900894448161125,0.08036904036998749,-0.006812622770667076,0.12659262120723724,-0.06259524822235107,-0.09121695905923843,-0.09387898445129395,0.04718980938196182,-0.12657617032527924,-0.20691151916980743,-0.1236666589975357,-0.023001324385404587,0.055480167269706726,-0.04646117240190506,0.10355941951274872,0.16612671315670013,-0.16187456250190735,-0.12630623579025269,-0.1920381486415863,0.16659724712371826,0.08111275732517242,0.098026804625988,-0.10532033443450928,0.06336911022663116,0.11690840870141983,-0.17464223504066467,-0.24649785459041595,0.011159969493746758,-0.0012499731965363026,0.12715846300125122,-0.1563722938299179,-0.10872756689786911,0.23074762523174286,-0.06876159459352493,0.12769782543182373,0.14726783335208893,-0.21691535413265228,0.20104452967643738,-0.15987414121627808,-0.13862140476703644,-0.13224123418331146,-0.04721981659531593,-0.008866946212947369,0.08306720852851868,0.18570883572101593,-0.14385591447353363,-0.09955458343029022,0.06954142451286316,-0.044697992503643036,0.1110665425658226,-0.15849843621253967,-0.04756863787770271,0.11371684819459915,0.0214159544557333,0.11353683471679688,0.08240589499473572,-0.1097397729754448,0.09613759815692902,-0.07066351175308228,-0.03853348642587662,0.14020569622516632,0.19167372584342957,-0.056323710829019547,0.14077281951904297,-0.16268597543239594,0.034505341202020645,-0.0867735743522644,0.19295638799667358,0.19099660217761993,0.09247390180826187,-0.11122281849384308,-0.01754765398800373,-0.157138854265213,-0.042037483304739,0.24966838955879211,0.0560155026614666,-0.07055988162755966,-0.011039530858397484,0.03963126987218857,-0.006488148123025894,-0.1137116402387619,-0.07060641795396805,-0.017638929188251495,-0.15145687758922577,-0.04305318742990494,-0.09424567967653275,0.05610208585858345,-0.11778108775615692,-0.08718909323215485,-0.09888965636491776,-0.03255026042461395,-0.04487600177526474,-0.0437290333211422,-0.024669112637639046,-0.13868890702724457,-0.07904192805290222,-0.11588659137487411,0.14670901000499725,0.09850279986858368,0.10755742341279984,-0.092919260263443,-0.010908623225986958,-0.09928160160779953,-0.00736859580501914,0.06669343262910843,-0.08542956411838531,0.07625696808099747,-0.0758899375796318,-0.1977030336856842,-0.06849367916584015,-0.014046995900571346,-0.023109527304768562,-0.21846157312393188,-0.1900278478860855,-0.13154882192611694,0.012338148429989815,-0.19977831840515137,-0.06659272313117981,0.03264794498682022,-0.0828646868467331,-0.1720990389585495,-0.23343971371650696,0.057373348623514175,-0.11439199000597,0.029625484719872475,0.08645616471767426,-0.17197121679782867,0.018460150808095932,-0.09295421093702316,0.10990393906831741,-0.04546087235212326,-0.06955873221158981,0.11468753218650818,0.0805605947971344,0.12718357145786285,0.016722260043025017,-0.10014932602643967,-0.06621066480875015,0.0021057347767055035,-0.08170972019433975,0.051041122525930405,0.12870977818965912,0.07689601927995682,0.2040025144815445,-0.11149357259273529,-0.03240972012281418,0.021480055525898933,0.002199147827923298,-0.06453010439872742,0.18111753463745117,-0.03936663642525673,0.07431994378566742,0.009165395982563496,-0.03902379795908928,0.000836578372400254,0.15005715191364288,-0.10434047877788544,0.07346277683973312,-0.10720565915107727,0.07478706538677216,-0.09659867733716965,-0.13180620968341827,0.009622964076697826,-0.061308689415454865,-0.08842450380325317,-0.126750648021698,0.16380774974822998,-0.12068940699100494,0.029209567233920097,0.21503953635692596,0.06116597354412079,0.08706145733594894,0.2187819629907608,0.1338042914867401,0.14398093521595,-0.005759041756391525,0.1618327796459198,-0.02766576036810875,0.14561575651168823,-0.027212349697947502,-0.10398653149604797,0.053235702216625214,0.13906744122505188,-0.06818529218435287,0.006437394302338362,0.016955461353063583,0.16026154160499573,0.027539823204278946,0.22480978071689606,0.23249340057373047,0.2069450318813324,0.04039449617266655,0.09361030906438828,0.20467239618301392,0.23636969923973083,0.2288130819797516,-0.2664274573326111,-0.16596998274326324,-0.14805862307548523,-0.08438841998577118,0.13129666447639465,0.1909124106168747,-0.11792485415935516,-0.14684852957725525,0.19745077192783356,-0.07165968418121338,-0.0815386027097702,-0.11073607206344604,-0.09956685453653336,0.07921705394983292,0.09335581213235855,0.019342077895998955,0.0257150549441576,-0.21109890937805176,-0.15312081575393677,-0.1383010745048523,-0.10507076233625412,-0.16200748085975647,0.045861586928367615,-0.07877936959266663,-0.13617980480194092,0.050604198127985,-0.019208025187253952,0.0918196439743042,0.041460782289505005,0.21053121984004974,0.018429266288876534,-0.08784900605678558,0.195031076669693,-0.16912780702114105,-0.16585341095924377,-0.16659940779209137,0.009805778041481972,-0.05875564366579056,-0.2568843364715576,0.1284814178943634,-0.14576347172260284,0.08473268896341324,0.1579342633485794,0.1257910281419754,0.10186268389225006,-0.12405761331319809,-0.1373787522315979,-0.07830554991960526,-0.038012441247701645,-0.14028245210647583,0.0709834173321724,0.0020543632563203573,-0.17010466754436493,0.17867198586463928,-0.17621897161006927,-0.037751488387584686,0.054912034422159195,0.1677965223789215,0.08623384684324265,0.053216688334941864,0.03305801376700401,0.03030572272837162,-0.03762908652424812,0.17218932509422302,0.15422916412353516,0.11525608599185944,0.12638764083385468,-0.03926582261919975,0.14262592792510986,0.02309066615998745,-0.13513121008872986,0.10299715399742126,0.208319291472435,0.15810711681842804,0.1212843507528305,-0.011124921962618828,-0.11625951528549194,0.029712699353694916,-0.038592953234910965,0.17934803664684296,-0.11227160692214966,0.06163669005036354,-0.04734976217150688,0.23045136034488678,0.12443623691797256,0.06332361698150635,-0.060955122113227844,0.049561116844415665,0.09593560546636581,0.05081570893526077,0.08908278495073318,0.2015058398246765,-0.13499592244625092,-0.03103914111852646,0.1955491602420807,-0.008954311721026897,-0.013510314747691154,-0.06066723167896271,0.24723505973815918,0.009553384967148304,0.25402772426605225,0.10248512029647827,0.19423766434192657,0.01885903812944889,0.01958734728395939,0.10963687300682068,0.1478249728679657,0.13250809907913208,0.21114973723888397,0.16804203391075134,0.10107593983411789,-0.07620592415332794,0.05100730434060097,0.05221353843808174,0.01185741275548935,-0.08834152668714523,-0.07945222407579422,0.1341385841369629,0.04193587228655815,0.06097394973039627,0.11019409447908401,0.04669599235057831,0.04710690677165985,-0.10840248316526413,-0.03822687640786171,0.017347265034914017,0.06558430194854736,-0.14821787178516388,-0.13518378138542175,-0.044686902314424515,0.07674766331911087,-0.007844717241823673,0.03702317550778389,0.005041785538196564,-0.08632738888263702,0.09945037215948105,0.2266540378332138,-0.15344122052192688,0.13477912545204163,-0.02623969316482544,-0.12758873403072357,0.20889770984649658,0.1763591468334198,0.20173412561416626,-0.1511721909046173,-0.0362982340157032,-0.07868369668722153,0.10532794892787933,0.17178578674793243,0.17778760194778442,-0.043738171458244324,0.01654176227748394,-0.012249350547790527,-0.04043500870466232,0.07813715189695358,-0.14894913136959076,-0.08827134966850281,-0.04235531762242317,0.026628514751791954,0.1713886708021164,0.1095237284898758,0.18169644474983215,-0.07373422384262085,0.04895993694663048,0.042571548372507095,-0.10483292490243912,-0.14359445869922638,-0.050831183791160583,0.11304540932178497,-0.018664468079805374,-0.13271012902259827,0.015400294214487076,0.17638346552848816,-0.02523956447839737,-0.07021869719028473,-0.009985686279833317,-0.052486520260572433,0.16433633863925934,0.020806455984711647,0.23255884647369385,-0.0563681460916996,-0.050905462354421616,0.07410276681184769,0.15559299290180206,0.12723468244075775,0.05900142714381218,0.043056316673755646,0.19723372161388397,0.19381755590438843,-0.022921908646821976,0.10755949467420578,-0.10582555085420609,0.09518036991357803,0.04100876301527023,0.03133799880743027,-0.02287919633090496,-0.14129124581813812,-0.04840792343020439,-0.14537672698497772,-0.0673990324139595,-0.07882534712553024,0.0486706979572773,0.10821846127510071,0.08999785780906677,0.0053316629491746426,0.17001011967658997,-0.06996079534292221,-0.11140681803226471,-0.10529765486717224,-0.06378521770238876,0.01525708008557558,-0.1099524050951004,-0.10259924829006195,-0.16104310750961304,0.02826709859073162,0.027902614325284958,-0.046698566526174545,-0.15567640960216522,0.07815704494714737,-0.0714469701051712,-0.08933045715093613,0.13563929498195648,0.05683888867497444,0.059447724372148514,0.08748354762792587,0.18676818907260895,-0.016484035179018974,0.03802020847797394,0.12633174657821655,-0.057303287088871,0.14736773073673248,0.15424850583076477,0.10579266399145126,-0.07994579523801804,0.035182297229766846,0.1907021552324295,0.02564379572868347,-0.02300787903368473,0.0914977490901947,0.00924746971577406,0.05824647843837738,-0.1485903114080429,0.027031604200601578,0.09541887789964676,-0.07007279247045517,0.21667206287384033,-0.09575074911117554,-0.16044019162654877,0.20889830589294434,0.16204459965229034,0.1893661618232727,-0.1622466892004013,-0.01437104307115078,-0.00033015452208928764,-0.03613882511854172,-0.013093098066747189,0.0783509761095047,-0.148028165102005,-0.16510193049907684,-0.039501555263996124,0.2718829810619354,-0.14671799540519714,0.08176770061254501,0.024681169539690018,0.010657094419002533,0.13986565172672272,0.11983144283294678,-0.12349411845207214,-0.09914208948612213,-0.13000164926052094,0.05767242982983589,0.1650189608335495,0.041880592703819275,-0.11797057837247849,-0.1750384122133255,-0.07117579877376556,0.11664145439863205,0.22596269845962524,0.1313258856534958,0.08817652612924576,-0.04416946694254875,0.0605960451066494,-0.072051502764225,0.13988132774829865,-0.13546134531497955,0.07044920325279236,0.004242203664034605,-0.20436695218086243,0.21139267086982727,0.10117759555578232,-0.1642276793718338,0.04037193953990936,-0.009976997971534729,0.2007160186767578,0.14508232474327087,0.13526329398155212,0.014620386995375156,-0.04811619967222214,0.07116181403398514,0.21502132713794708,0.04383275285363197,0.12136510014533997,0.2004321813583374,-0.14334087073802948,0.12556864321231842,-0.05132381618022919,-0.11353032290935516,-0.19962504506111145,0.10593200474977493,-0.01686280220746994,0.016069475561380386,0.15614314377307892,-0.06591971963644028,0.04322139173746109,0.07601208984851837,0.08783016353845596,-0.13198821246623993,0.22812065482139587,0.013142484240233898,0.16715914011001587,-0.13865454494953156,0.17488040030002594,-0.12376827001571655,0.09857294708490372,0.07939677685499191,-0.16105429828166962,0.09890870004892349,-0.10546348989009857,-0.04538891091942787,-0.11328841745853424,-0.4092988967895508,-0.1871570646762848,0.13988575339317322,-0.16688518226146698,0.2334337681531906,0.28611159324645996,0.04171998053789139,0.21974144876003265,0.2250792533159256,-0.28925129771232605,0.036613643169403076,-0.059476952999830246,-0.3235042989253998,-0.11804822832345963,0.10850212723016739,0.0034898496232926846,0.18875107169151306,-0.0022126741241663694,0.001622135634534061,0.015976976603269577,0.06843887269496918,-0.04430251196026802,-0.054707445204257965,-0.009418286383152008,-0.09523018449544907,0.17066076397895813,0.1641395092010498,0.14817070960998535,0.10989014059305191,0.12281236052513123,0.05119738727807999,0.1310882568359375,0.005539626348763704,-0.07818175852298737,-0.10050338506698608,-0.2238149642944336,0.06429914385080338,-0.04009917750954628,-0.13512471318244934,0.17119695246219635,-0.002729436382651329,0.07575497031211853,-0.07107679545879364,-0.06714587658643723,0.050856344401836395,-0.15585830807685852,0.15492698550224304,-0.050487905740737915,0.12725910544395447,0.09822791814804077,0.0637025460600853,0.2569337785243988,0.030611032620072365,-0.06586536765098572,0.06998220086097717,0.0007464863592758775,0.09061011672019958,0.03144212067127228,-0.08720636367797852,0.11179810017347336,0.2435244619846344,0.04595116898417473,0.15400701761245728,0.17892202734947205,0.1168871745467186,0.012296382337808609,0.18514218926429749,-0.16669532656669617,-0.10749703645706177,0.20071716606616974,-0.056846845895051956,0.14965084195137024,0.05321386083960533,0.006326620001345873,0.08384374529123306,0.09430937469005585,-0.12818260490894318,0.07707594335079193,0.26612645387649536,0.19774246215820312,0.20204974710941315,0.09777825325727463,0.09018769860267639,-0.010635603219270706,0.11221040040254593,0.08103723078966141,0.014679532498121262,-0.1011337861418724,-0.12282580882310867,-0.0686483383178711,-0.05409624055027962,0.11437559127807617,-0.04807295650243759,0.19604556262493134,0.23144574463367462,0.24894356727600098,0.09391710162162781,0.16757486760616302,0.1094149649143219,0.19252777099609375,-0.1551710069179535,-0.05764283984899521,-0.059345122426748276,0.24683959782123566,-0.11147245019674301,-0.0065620713867247105,0.23761866986751556,0.05040824040770531,0.022700544446706772,0.14656440913677216,0.17347055673599243,-0.032029494643211365,-0.016623197123408318,0.017491111531853676,0.0941319540143013,0.09845740348100662,0.05126963555812836,0.1520143449306488,0.16880904138088226,0.022723685950040817,-0.046532899141311646,0.00938756950199604,-0.20496094226837158,-0.10738257318735123,0.041922349482774734,0.18035879731178284,0.16965457797050476,0.2278798371553421,-0.016406552866101265,-0.1427261382341385,0.1691470742225647,0.16767418384552002,0.10251659899950027,-0.13927708566188812,-0.0894392877817154,-0.020469918847084045,0.05655423179268837,0.23938295245170593,-0.08350954204797745,0.005509430076926947,0.07555319368839264,0.18984824419021606,0.06733448058366776,0.22099919617176056,0.029663559049367905,0.08658836781978607,0.10151980817317963,0.16834723949432373,-0.04312596842646599,0.13207247853279114,0.21279282867908478,0.03760131448507309,-0.017575189471244812,0.19867293536663055,0.24428555369377136,-0.0025476431474089622,0.0764881893992424,0.08207709342241287,0.26437678933143616,-0.030897237360477448,0.030800355598330498,0.09499720484018326,-0.14993916451931,0.11290197819471359,-0.12432746589183807,0.04908473417162895,-0.1585301160812378,-0.09426946938037872,0.0069646951742470264,-0.10499254614114761,-0.08773643523454666,0.19750675559043884,0.010810468345880508,0.12406240403652191,-0.10777059197425842,-0.11725480854511261,-0.08632805198431015,0.0017518523382022977,0.1317966729402542,0.1641370952129364,0.13913682103157043,-0.032189659774303436,-0.022912492975592613,-0.09600233286619186,0.1893194615840912,-0.1556464433670044,-0.05468537285923958,-0.05141175910830498,0.01185893639922142,-0.07409607619047165,0.14480817317962646,-0.11153995245695114,0.0019143198151141405,0.023692352697253227,0.24148854613304138,-0.19824667274951935,-0.10972650349140167,0.20711231231689453,-0.011682144366204739,0.03652492165565491,0.1641457974910736,0.17267124354839325,-0.010788936167955399,-0.15086372196674347,-0.11628115177154541,-0.11882827430963516,0.02405395917594433,0.09550853818655014,-0.09188082069158554,0.029107438400387764,0.05549261346459389,0.029714185744524002,0.14439274370670319,-0.13547095656394958,0.20316992700099945,0.01708351820707321,-0.03799673169851303,-0.009769423864781857,0.21675319969654083,0.25980058312416077,0.11606170982122421,0.21168643236160278,-0.0690028965473175,0.10862412303686142,-0.08975917845964432,0.13850253820419312,-0.10030828416347504,0.02604391984641552,0.015305351465940475,0.21312636137008667,0.1697196215391159,-0.03966489061713219,0.24632836878299713,0.1690388321876526,-0.0799902155995369,0.07173365354537964,0.21953052282333374,-0.021967677399516106,0.1783602237701416,0.15113948285579681,0.15133953094482422,0.22959810495376587,-0.06724344938993454,-0.06012484431266785,-0.10772756487131119,-0.01522868499159813,0.0009280387894250453,0.0894039198756218,-0.07171455025672913,0.06870410591363907,0.04671700671315193,0.14710065722465515,0.1067671924829483,0.24171356856822968,0.20130443572998047,-0.05696810781955719,0.20051324367523193,-0.07703449577093124,0.038755398243665695,0.08142456412315369,-0.10554482787847519,0.23427538573741913,0.23840321600437164,0.01641252636909485,0.037225499749183655,0.2208443582057953,0.23608854413032532,-0.08196566253900528,-0.1262885332107544,-0.04735801741480827,0.05359077453613281,0.13757432997226715,0.08245988190174103,0.07664518803358078,-0.004278548527508974,0.1965646743774414,-0.10611432790756226,-0.12498266994953156,-0.06212607026100159,-0.04337312653660774,0.025779208168387413,-0.1884477138519287,0.13939380645751953,0.07411541044712067,-0.25085052847862244,-0.20462565124034882,-0.10001543909311295,-0.22642378509044647,-0.20776598155498505,-0.10778941214084625,-0.11560046672821045,-0.11043144762516022,0.13685737550258636,-0.022705113515257835,0.02030108869075775,0.10132364183664322,-0.014511650428175926,0.26435020565986633,0.011488665826618671,-0.07317967712879181,-0.13016073405742645,0.19707025587558746,-0.17878326773643494,0.18783843517303467,-0.03211861848831177,0.11712398380041122,0.10184682905673981,0.1242201179265976,-0.09245795756578445,-0.04729728773236275,0.0712963193655014,-0.08496898412704468,-0.21013836562633514,-0.22445537149906158,0.01825283281505108,0.08307334780693054,0.16046041250228882,-0.16873638331890106,-0.03734183683991432,-0.022193128243088722,-0.07633351534605026,-0.15240372717380524,-0.049365051090717316,-0.20251768827438354,-0.22037816047668457,-0.03909682109951973,0.14581258594989777,-0.05818065255880356,0.0028825344052165747,0.10692276805639267,-0.09507886320352554,-0.07355325669050217,0.09958135336637497,-0.06629087775945663,0.04187824949622154,0.05830329284071922,0.10439535975456238,-0.0902523398399353,0.0033116601407527924,-0.1116194799542427,0.18933886289596558,0.17174950242042542,0.0237797349691391,0.20582979917526245,0.12583625316619873,-0.09705469757318497,-0.09936966747045517,-0.08702157437801361,-0.05487899109721184,-0.12696956098079681,-0.20752425491809845,-0.20278239250183105,-0.07611764967441559,-0.03918645530939102,0.03640143573284149,0.024812115356326103,0.12993422150611877,-0.131474569439888,-0.08624672144651413,0.11067788302898407,-0.00086541089694947,-0.02630988508462906,-0.10270113497972488,0.03819127753376961,0.19475769996643066,0.12396061420440674,-0.03203412517905235,-0.17609955370426178,-0.039090484380722046,-0.21690058708190918,0.20439282059669495,-0.12574191391468048,-0.05818220227956772,0.022271761670708656,0.2618996798992157,0.03816227987408638,-0.18253685534000397,-0.19114919006824493,-0.020965052768588066,0.25760650634765625,-0.11105121672153473,-0.04880509525537491,0.07707805186510086,0.09637944400310516,-0.128084197640419,0.06687496602535248,0.13472239673137665,0.00970866996794939,-0.12449296563863754,-0.14880958199501038,0.16252143681049347,-0.1449996531009674,0.14718425273895264,0.23419934511184692,0.20127646625041962,0.14810629189014435,-0.1379285454750061,0.1605679988861084,-0.1485467106103897,0.08289384096860886,-0.014940235763788223,0.13944251835346222,0.13225524127483368,-0.1435420960187912,0.1920394003391266,-0.016789676621556282,0.056203123182058334,-0.1223422959446907,0.1120765209197998,0.1865253746509552,0.21057522296905518,-0.05474897101521492,0.021264763548970222,-0.14270122349262238,0.004130418412387371,0.022632697597146034,0.1359928399324417,0.06691323220729828,0.08550345152616501,-0.045939985662698746,-0.04273182898759842,0.18353384733200073,0.03573222830891609,0.07031909376382828,-0.03779033198952675,0.10482601821422577,0.19274353981018066,0.06420909613370895,0.22939766943454742,0.0725802555680275,-0.15030035376548767,0.02032456547021866,-0.16686785221099854,0.05430440604686737,0.07118384540081024,0.10183259099721909,0.11823304742574692,0.16380248963832855,0.06123540550470352,0.05932037532329559,-0.1928429901599884,-0.07915207743644714,-0.16404438018798828,0.04494962841272354,0.09322304278612137,0.11144589632749557,0.019191507250070572,0.18336312472820282,0.10783828794956207,0.12999674677848816,-0.034552592784166336,0.08348099887371063,0.15332110226154327,-0.17447781562805176,-0.15133993327617645,-0.12767167389392853,-0.028046617284417152,-0.18556572496891022,0.02262994460761547,0.11343088746070862,0.14452055096626282,0.20327924191951752,-0.1053999736905098,0.08885692059993744,0.10526715219020844,-0.08257332444190979,0.028213471174240112,0.10328593105077744,-0.14312368631362915,0.03473030775785446,-0.047860223799943924,0.08025682717561722,-0.011285090819001198,0.17802207171916962,0.23396407067775726,0.11491316556930542,0.019813163205981255,-0.01644115336239338,0.1932724416255951,0.11865302920341492,0.0924285426735878,0.11914172023534775,-0.14633236825466156,0.13927307724952698,-0.10241307318210602,0.04579439014196396,-0.08211954683065414,0.19939669966697693,-0.0982399508357048,0.18192438781261444,-0.1442854404449463,0.0112710390239954,0.0323067307472229,0.22576671838760376,0.05634402111172676,0.0916789248585701,0.21625959873199463,-0.07650098949670792,0.15559431910514832,-0.11155055463314056,0.23696470260620117,0.048897311091423035,0.0979861468076706,-0.11676718294620514,0.24292407929897308,-0.09586422890424728,0.22808989882469177,-0.0020527213346213102,-0.015061683021485806,0.20907311141490936,0.07308857142925262,-0.0007266445900313556,0.22406360507011414,-0.046969056129455566,0.1579587459564209,-0.02099105715751648,-0.004641920793801546,0.03810516744852066,-0.08094284683465958,0.04127936437726021,0.0032376833260059357,0.22088289260864258,-0.07001908868551254,0.08423059433698654,0.016113663092255592,0.06185686215758324,0.13846421241760254,0.08701898902654648,-0.0849965438246727,-0.009903386235237122,0.07508541643619537,0.020680436864495277,0.06654202193021774,0.1823490411043167,0.24034656584262848,0.06417464464902878,0.05875132605433464,0.20214878022670746,0.10130970180034637,0.019625220447778702,0.03687112033367157,-0.008543035946786404,0.16170096397399902,0.23844175040721893,-0.0866948589682579,0.023090550675988197,0.09042148292064667,0.05170763283967972,0.056847523897886276,-0.06835662573575974,-0.11135001480579376,0.15346786379814148,0.26519760489463806,0.254620224237442,0.09767384827136993,0.08432226628065109,-0.01066350843757391,0.11911702156066895,-0.049394480884075165,0.1897101253271103,0.07633867114782333,-0.03763199225068092,0.2319181263446808,0.25998446345329285,0.09415078908205032,-0.06033599376678467,0.23014841973781586,-0.11258161067962646,-0.00677068904042244,0.20928652584552765,0.11559147387742996,-0.09869018942117691,0.03450899198651314,0.2100316733121872,-0.01111211720854044,0.013458571396768093,0.12210338562726974,0.11744590103626251,0.1710490733385086,0.2668295204639435,0.06852749735116959,-0.051065754145383835,-0.07502409815788269,0.11277547478675842,0.016942808404564857,0.07966280728578568,-0.038959749042987823,-0.10840340703725815,0.0933443158864975,-0.052949804812669754,-0.2033700942993164,-0.04430530220270157,-0.1721603125333786,0.022045757621526718,-0.19037003815174103,0.004469714127480984,0.09476271271705627,0.10042007267475128,-0.03775090351700783,0.07362871617078781,-0.0064044916070997715,-0.12732559442520142,0.13268859684467316,0.19827036559581757,-0.0007027763058431447,0.09706632047891617,-0.18016573786735535,-0.12035232782363892,0.055385999381542206,0.015800921246409416,0.1224641278386116,0.0027956694830209017,-0.18405228853225708,0.059417642652988434,-0.02843332104384899,-0.24966773390769958,0.035503074526786804,-0.10563042014837265,0.12338559329509735,-0.09453480690717697,-0.06875608116388321,0.1336672604084015,-0.1651739925146103,-0.0027067819610238075,0.06997793912887573,-0.010136361233890057,-0.12579317390918732,-0.04682660847902298,-0.19935990869998932,-0.15878678858280182,-0.15899361670017242,0.14428748190402985,0.0905098095536232,-0.11243918538093567,0.028179187327623367,-0.06889460980892181,-0.22213506698608398,-0.202498197555542,-0.05758749693632126,0.11663712561130524,-0.16226278245449066,0.1546473205089569,-0.15378592908382416,0.1462177336215973,-0.14034409821033478,-0.023430952802300453,0.1356392502784729,0.14761842787265778,0.047985974699258804,-0.09147617220878601,0.15320497751235962,-0.048082899302244186,0.1500742882490158,-0.07563675194978714,0.1225116029381752,0.22806483507156372,0.03832912817597389,0.21867617964744568,0.1053125187754631,-0.0970398560166359,-0.04675154387950897,0.19800741970539093,-0.10980228334665298,0.22712638974189758,-0.10359415411949158,0.20995338261127472,0.24342985451221466,0.0067596435546875,0.17825065553188324,0.11724326759576797,0.06591463834047318,-0.042410675436258316,-0.10154023766517639,0.11343614012002945,0.008997228927910328,-0.07417856156826019,0.23020756244659424,0.18093857169151306,0.04394441470503807,-0.10065664350986481,0.18088644742965698,0.23953619599342346,0.05212013050913811,-0.05788607895374298,0.03316472843289375,0.0815940797328949,0.14596058428287506,0.02247529849410057,0.14344924688339233,-0.12441583722829819,0.21092721819877625,-0.07978889346122742,-0.022833041846752167,-0.10098429769277573,0.017047056928277016,0.1374354511499405,0.09880595654249191,0.08763401955366135,0.16353143751621246,-0.010581937618553638,0.14841942489147186,0.014710171148180962,0.06828907132148743,0.0674375668168068,0.23185434937477112,-0.07609152048826218,0.09069788455963135,0.21552754938602448,0.2186473309993744,0.06653308123350143,0.15465736389160156,0.1984747052192688,0.11524879187345505,-0.006394950672984123,0.16709129512310028,0.2334064543247223,0.21758997440338135,-0.0687495619058609,-0.0502760075032711,-0.10871151089668274,0.17526155710220337,-0.12658284604549408,0.21632982790470123,0.22540989518165588,0.18757717311382294,-0.09614268690347672,0.09971270710229874,-0.09534315019845963,-0.04369353502988815,-0.0801081582903862,0.07160397619009018,-0.0072887674905359745,0.04567011818289757,0.042397912591695786,-0.06397802382707596,0.17054133117198944,0.2034061998128891,0.20481151342391968,-0.09588955342769623,-0.005387559067457914,0.11854206770658493,0.025118203833699226,0.11584866046905518,0.24315594136714935,0.2311583161354065,0.1853618323802948,-0.12258629500865936,0.0765906497836113,0.21846884489059448,0.008303622715175152,0.000436773436376825,0.1875673234462738,-0.06654742360115051,0.17613868415355682,-0.02519582211971283,0.23109611868858337,-0.0483761727809906,0.19797168672084808,-0.09013435244560242,-0.041799481958150864,-0.10056699812412262,0.11387667059898376,0.11050482839345932,-0.09854854643344879,-0.12138137966394424,0.06325902789831161,-0.08828794211149216,0.22881826758384705,0.04226691648364067,-0.013547178357839584,0.04313367232680321,-0.3049910366535187,0.06409748643636703,-0.18663720786571503,-0.0951458066701889,-0.11841343343257904,0.087753526866436,-0.036113154143095016,-0.011638968251645565,-0.2909228503704071,0.08794811367988586,-0.32828664779663086,-0.26106488704681396,-0.038057174533605576,0.09476365894079208,-0.04223179072141647,0.07002194970846176,-0.009792525321245193,-0.10059177130460739,-0.07444388419389725,0.0019653290510177612,0.014150255359709263,0.037862151861190796,-0.0205956120043993,-0.18772846460342407,-0.08065664023160934,-0.19365355372428894,-0.14704476296901703,0.06998715549707413,-0.08844214677810669,0.1059773713350296,-0.23848046362400055,-0.11365413665771484,-0.04318848252296448,0.05286790058016777,0.13442084193229675,0.074043869972229,-0.19066698849201202,0.010563074611127377,-0.28107666969299316,-0.211008682847023,-0.10385872423648834,0.17386172711849213,-0.09484292566776276,-0.1460973620414734,-0.10837972909212112,-0.0787186473608017,0.0010825112694874406,-0.2662065029144287,-0.17790061235427856,0.008968375623226166,-0.056188859045505524,-0.07669294625520706,-0.06479593366384506,0.010351751931011677,-0.1253810077905655,0.08774333447217941,-0.22943493723869324,-0.23565436899662018,-0.11859246343374252,0.04067801311612129,0.08837644010782242,-0.050454676151275635,0.11435555666685104,-0.18636806309223175,-0.050719670951366425,-0.06907115876674652,0.0029877994675189257,0.12128507345914841,0.05586450174450874,0.15125812590122223,-0.20088788866996765,0.18494188785552979,0.17156706750392914,0.07070709019899368,-0.031155314296483994,-0.1748291254043579,0.05248923599720001,-0.14295199513435364,-0.019039593636989594,-0.1866416335105896,-0.16833944618701935,-0.07195961475372314,-0.09471387416124344,-0.13792146742343903,-0.09720811992883682,0.006634705699980259,0.013877077028155327,0.10475339740514755,0.01646326296031475,0.16423283517360687,0.1863408237695694,-0.009260742925107479,-0.13097891211509705,0.027517646551132202,0.1875115931034088,0.10043523460626602,0.13701467216014862,0.06381668895483017,-0.006289242766797543,-0.052621662616729736,-0.06904686987400055,-0.14994247257709503,0.10222134739160538,0.1448012739419937,0.08538638800382614,0.024219632148742676,0.1673760563135147,0.18265050649642944,0.060399651527404785,-0.0224982351064682,0.13230882585048676,0.009746174328029156,-0.07137881219387054,0.13658051192760468,-0.14594049751758575,-0.16413243114948273,0.025156095623970032,-0.1302020251750946,0.00042808341095224023,-0.27089592814445496,-0.04590413719415665,-0.021187396720051765,0.03726634383201599,0.024964800104498863,-0.18584206700325012,-0.1693515032529831,0.15404736995697021,-0.008975205011665821,0.10594577342271805,0.18303067982196808,-0.26992732286453247,0.1848159283399582,-0.19769370555877686,-0.1467256098985672,-0.15401701629161835,-0.1627514809370041,-0.3092631995677948,-0.23695474863052368,0.02234051004052162,-0.2802838385105133,-0.19065497815608978,-0.04552881047129631,0.07339915633201599,-0.1387670636177063,0.023317942395806313,0.17109334468841553,-0.2796102464199066,0.013944204896688461,0.23423314094543457,-0.05916045606136322,-0.13621889054775238,-0.135806605219841,0.006479071453213692,-0.24086983501911163,0.009087096899747849,-0.12403606623411179,-0.2511140704154968,-0.0017700582975521684,-0.04485141858458519,0.1381480097770691,0.051747724413871765,-0.016653940081596375,-0.2338697910308838,-0.10467659682035446,0.0587591677904129,-0.2642890512943268,-0.07974138110876083,-0.23663151264190674,-0.10646836459636688,-0.24515101313591003,-0.05559241771697998,-0.013854244723916054,-0.15071339905261993,-0.1182352751493454,0.013893209397792816,0.0781431794166565,0.0324292927980423,-0.05581236258149147,-0.0905189961194992,-0.05119016766548157,-0.11895757913589478,-0.09526410698890686,-0.003624478355050087,0.08985455334186554,0.14391127228736877,-0.04489273577928543,0.15890538692474365,0.11556261777877808,0.19800414144992828,0.10125254094600677,0.001877194968983531,0.1535956710577011,0.1312432438135147,0.20947599411010742,-0.185334250330925,-0.0007329368381761014,0.1850447803735733,-0.011647272855043411,-0.10362759232521057,0.16503778100013733,-0.05490612983703613,-0.1182573139667511,0.12193305790424347,0.027721650898456573,-0.13932134211063385,0.1740950644016266,0.10175403952598572,0.2352263331413269,-0.05051812529563904,-0.04116752743721008,0.09891146421432495,0.12514302134513855,-0.04844553768634796,0.18376094102859497,0.22388453781604767,0.20931218564510345,-0.11822595447301865,-0.10174776613712311,-0.00042140690493397415,0.06662507355213165,-0.04694298654794693,-0.0036024681758135557,0.05812249332666397,0.018571769818663597,0.08792880922555923,-0.13180455565452576,-0.1853102445602417,0.10051096975803375,-0.048612676560878754,0.08580533415079117,-0.014993592165410519,0.029909973964095116,-0.05975036695599556,0.1405341476202011,0.10201143473386765,0.16581441462039948,0.08328809589147568,-0.07416435331106186,0.1563895344734192,0.17715094983577728,0.09522716701030731,-0.05623755231499672,0.15209467709064484,0.17814067006111145,0.061186783015728,0.10751326382160187,-0.20175416767597198,0.09780124574899673,-0.09934275597333908,-0.1342657506465912,-0.19111914932727814,-0.07388181984424591,-0.15748262405395508,-0.1843179315328598,-0.03971973434090614,-0.18194450438022614,-0.046290427446365356,-0.10054580122232437,-0.08520183712244034,0.11458910256624222,0.014911110512912273,-0.16315267980098724,-0.21976999938488007,-0.2102980762720108,0.006178350653499365,0.11473959684371948,0.029821068048477173,-0.1624789834022522,-0.09435788542032242,0.09376543015241623,-0.08923999220132828,0.020681554451584816,0.03561115637421608,-0.1265942007303238,0.18133887648582458,-0.14180275797843933,-0.005790925119072199,-0.080941341817379,-0.09600358456373215,0.15344840288162231,0.09040729701519012,0.0912347063422203,0.13186824321746826,0.0011201094603165984,0.023507697507739067,-0.22177870571613312,0.04766281321644783,-0.16730768978595734,0.002768185455352068,-0.19895635545253754,0.1361447423696518,-0.005689619574695826,-0.09710496664047241,-0.17099718749523163,-0.003025168552994728,-0.2483292818069458,0.051162056624889374,-0.022607672959566116,-0.13323155045509338,0.1303674727678299,-0.10170473158359528,-0.14752629399299622,-0.005333406385034323,0.22031641006469727,0.21888554096221924,0.22786206007003784,0.14796499907970428,0.20039601624011993,-0.0312483012676239,0.0061754826456308365,0.09441215544939041,0.10668385773897171,-0.1369728147983551,0.15762454271316528,0.10279232263565063,0.15899695456027985,0.005113244988024235,0.030075332149863243,-0.09323621541261673,0.17782166600227356,0.15019188821315765,0.16637668013572693,0.0013942037476226687,0.07891256362199783,-0.13479191064834595,0.2410765290260315,0.13450852036476135,0.23327243328094482,0.032438840717077255,0.20732858777046204,0.1627105474472046,0.2406989336013794,0.08195861428976059,0.200307697057724,-0.10149341076612473,0.13297870755195618,-0.05170833691954613,0.11374574899673462,0.005894417874515057,0.25019246339797974,0.12000124156475067,0.20657499134540558,-0.11771588772535324,0.06845404952764511,-0.08720124512910843,0.08827251195907593,0.04137076437473297,0.0028019556775689125,0.05640687048435211,0.0365007147192955,0.10452064126729965,0.0268547385931015,0.17998135089874268,0.1344328224658966,-0.05335095897316933,0.16628342866897583,0.10041148215532303,0.17810077965259552,0.09330420196056366,-0.026944870129227638,-0.03768007457256317,-0.08862247318029404,-0.05503184348344803,0.04097187519073486,-0.05538332462310791,0.04879932478070259,-0.23186761140823364,0.12306475639343262,-0.025124769657850266,0.04887039214372635,-0.15446573495864868,0.2530820369720459,0.11725927144289017,-0.07444710284471512,-0.132595956325531,-0.04146115854382515,0.0745074450969696,-0.18033377826213837,-0.1695377081632614,0.25116589665412903,-0.1582946479320526,-0.09295057505369186,0.10136151313781738,0.10750611871480942,-0.03944477066397667,-0.0694502741098404,-0.11701759696006775,0.09356799721717834,0.15268652141094208,-0.14990201592445374,0.0700664222240448,0.11544061452150345,-0.19486799836158752,0.009512150660157204,0.24304594099521637,0.010572957806289196,0.1172681525349617,0.1494758576154709,-0.02077561616897583,0.011472748592495918,-0.09471120685338974,0.0874146893620491,0.16565215587615967,-0.10426867008209229,-0.12482692301273346,0.051512982696294785,0.13311731815338135,0.20312003791332245,0.14926452934741974,-0.26824524998664856,-0.06866448372602463,-0.06587535887956619,-0.01811341941356659,0.16073055565357208,-0.06058371067047119,0.1437748223543167,0.1537991762161255,-0.057314664125442505,0.07292497903108597,0.04968668520450592,-0.11828331649303436,0.207096666097641,0.008584133349359035,-0.17963801324367523,-0.08170162886381149,0.18660472333431244,0.18612898886203766,0.08456094563007355,0.01152856182307005,0.06258761882781982,0.16067814826965332,0.05769698694348335,-0.01842023991048336,0.11797858774662018,-0.08760936558246613,-0.08285422623157501,0.02228638343513012,0.10198299586772919,-0.10737691074609756,0.06547815352678299,-0.06138462945818901,0.1437307745218277,-0.04312833398580551,0.2339940220117569,-0.00794330146163702,0.24529272317886353,0.14277717471122742,0.00044442492071539164,0.21783654391765594,0.014556264504790306,0.03938475251197815,0.07946518063545227,0.10478191077709198,0.016133077442646027,-0.11444594711065292,0.007490801624953747,-0.11774086952209473,0.22898799180984497,-0.029166201129555702,0.21963612735271454,-0.024681856855750084,-0.07316088676452637,0.0689612478017807,0.10831049084663391,0.09003688395023346,-0.07126764953136444,-0.048593856394290924,-0.02438068948686123,0.13062317669391632,0.17926375567913055,-0.05385730788111687,0.09139405936002731,0.11125882714986801,0.20659124851226807,0.005983864888548851,0.26375463604927063,0.10034408420324326,-0.03338191658258438,0.25076422095298767,0.23436200618743896,-0.12872134149074554,-0.09020545333623886,0.17394134402275085,0.06070728227496147,0.20277898013591766,0.01837424747645855,0.10430284589529037,0.207142636179924,0.17816516757011414,0.01917584240436554,0.211853489279747,-0.10636406391859055,0.02254573069512844,0.07211104780435562,0.12405199557542801,0.23109515011310577,0.1996542066335678,0.16062259674072266,0.006891944911330938,-0.08492448180913925,0.19885581731796265,-0.08314364403486252,0.04478069767355919,-0.0007764827460050583,-0.06704647839069366,0.025060171261429787,0.22970642149448395,0.022480936720967293,0.04087759926915169,-0.0043479823507368565,0.2364598512649536,0.11493075639009476,-0.08830148726701736,-0.04821504279971123,0.13846123218536377,-0.03285714238882065,0.10359668731689453,-0.10457006096839905,-0.07178478688001633,0.10369060933589935,0.06779947876930237,0.016182132065296173,0.024134548380970955,-0.06221704185009003,-0.12489131838083267,0.1796473115682602,0.08827850967645645,0.14067408442497253,0.056591540575027466,0.16763709485530853,0.1046624630689621,0.07550900429487228,0.009507364593446255,0.042588599026203156,0.15892285108566284,-0.07155678421258926,-0.007010223809629679,0.1635752171278,0.03211984783411026,0.19269831478595734,0.21926818788051605,0.049204785376787186,0.17262737452983856,-0.0035948376171290874,0.07646060734987259,0.048056382685899734,0.05634775385260582,-0.14034388959407806,-0.12674269080162048,-0.012386485934257507,0.017896221950650215,0.14668306708335876,0.16110841929912567,0.026348436251282692,0.03547310456633568,-0.027300672605633736,0.1639280915260315,-0.0813833549618721,0.12034739553928375,-0.0865679681301117,-0.0267911646515131,0.17340987920761108,-0.14712783694267273,-0.12228980660438538,0.19587799906730652,-0.004726467188447714,-0.09361337125301361,-0.03976353257894516,0.0699688121676445,0.13200628757476807,0.10108640044927597,0.20229879021644592,0.09690389782190323,0.12773725390434265,-0.1319417953491211,0.15592554211616516,-0.1356440931558609,-0.12412074953317642,0.13762560486793518,0.0013214851496741176,-0.13865314424037933,-0.013469875790178776,-0.18765701353549957,-0.10709652304649353,0.07805756479501724,0.04887962341308594,0.051379185169935226,0.01784280687570572,0.2278336137533188,-0.08045508712530136,0.07414194196462631,-0.02027219347655773,-0.10413692146539688,-0.10067752748727798,-0.11978348344564438,0.009362345561385155,-0.056568440049886703,-0.15692239999771118,0.10948830097913742,0.16507488489151,-0.07624145597219467,0.14609666168689728,-0.008412249386310577,-0.15071161091327667,-0.010209049098193645,0.05975652113556862,0.2211008220911026,0.0008840496884658933,0.16811728477478027,0.12498709559440613,-0.06956788897514343,-0.02532998099923134,-0.09509484469890594,0.10417362302541733,0.13620461523532867,-0.09474919736385345,0.1440756916999817,0.1172657161951065,0.10440371930599213,0.11606758087873459,0.2022693008184433,0.161204993724823,0.04071251302957535,0.16716524958610535,-0.15188810229301453,-0.0646851509809494,-0.06587457656860352,0.21027712523937225,0.09736014902591705,-0.12875103950500488,0.06232161447405815,0.07377394288778305,0.04562489688396454,0.1509033590555191,-0.10828555375337601,0.04901198297739029,0.06612323224544525,-0.1240432858467102,0.09213567525148392,0.0994434803724289,0.16347350180149078,-0.09783945232629776,0.052476607263088226,0.13617858290672302,-0.008627085946500301,0.03153223544359207,0.20791973173618317,0.19225694239139557,0.11691426485776901,0.008866389282047749,0.06121117249131203,0.017733940854668617,0.01998969539999962,0.09879409521818161,0.04072744771838188,0.18383145332336426,0.00514233997091651,0.048109520226716995,-0.05523673817515373,-0.10078943520784378,-0.14847609400749207,-0.11734986305236816,0.04102175310254097,0.12343288958072662,0.07267404347658157,0.13491061329841614,-0.08230773359537125,-0.0011837685015052557,0.06138483062386513,-0.289360374212265,-0.15386070311069489,0.004552821163088083,0.13405472040176392,0.284873366355896,0.1268833577632904,-0.2888208329677582,0.0915767177939415,-0.04556063562631607,-0.054385457187891006,0.11830617487430573,0.139680877327919,-0.038301948457956314,-0.05894728749990463,0.011582884006202221,0.19502538442611694,-0.1622961163520813,-0.10950466245412827,-0.18960164487361908,0.1487439125776291,0.022617384791374207,-0.11759520322084427,-0.1274271160364151,-0.040431488305330276,-0.17153726518154144,-0.21738764643669128,-0.019435955211520195,-0.205674946308136,-0.11803218722343445,0.15593254566192627,0.1771552413702011,0.027981562539935112,0.2202776074409485,-0.08618064969778061,-0.12420617789030075,0.23740753531455994,-0.10286066681146622,-0.01618877612054348,0.010074878111481667,-0.11323969811201096,0.03827909752726555,0.10317235440015793,0.08758196979761124,0.0705375224351883,-0.12979745864868164,-0.07234233617782593,0.11733471602201462,-0.08929125964641571,-0.06461676955223083,-0.19991818070411682,-0.007674657739698887,0.028476130217313766,-0.1970295011997223,0.1220560073852539,0.013263612054288387,0.09317637234926224,0.1871679723262787,0.15254472196102142,-0.19150833785533905,-0.0467209666967392,0.16158659756183624,-0.07154885679483414,0.15632455050945282,-0.13859343528747559,0.1820942908525467,0.13678567111492157,0.16536478698253632,0.1626325249671936,0.017095869407057762,0.09794323891401291,0.14955291152000427,0.17327550053596497,-0.08870313316583633,0.04780462384223938,-0.11289516091346741,0.2548758089542389,0.16886986792087555,0.09465112537145615,0.14103089272975922,0.020759504288434982,0.14661067724227905,-0.1375475972890854,-0.0017781008500605822,0.14732038974761963,0.07278546690940857,0.19493044912815094,0.08340883255004883,0.007120923139154911,0.07544393092393875,-0.022667700424790382,-0.09050733596086502,-0.11792547255754471,-0.12035346031188965,-0.12694285809993744,0.04190564155578613,0.171199768781662,0.22958987951278687,0.07151105999946594,0.16015322506427765,0.020345643162727356,-0.13043075799942017,-0.09306760877370834,0.007498962804675102,0.19815337657928467,0.20919987559318542,0.09879444539546967,-0.10895585268735886,0.23117658495903015,0.26612764596939087,0.05661553516983986,-0.0252732802182436,0.10865367949008942,0.20005396008491516,-0.04528677091002464,0.039028286933898926,0.01911851018667221,-0.034670062363147736,0.26358121633529663,0.018637895584106445,0.2246129959821701,0.18025115132331848,0.22807109355926514,0.22458884119987488,0.22002439200878143,0.19709496200084686,0.19946543872356415,-0.051940955221652985,0.04575273394584656,0.021019132807850838,0.20404896140098572,0.1816413700580597,0.06310205161571503,0.037266820669174194,-0.11270155012607574,0.13218659162521362,0.0993439182639122,0.19036133587360382,0.12415871024131775,0.19024249911308289,-0.00006805806333431974,0.1784050464630127,-0.05174609646201134,0.2539477050304413,0.22731070220470428,-0.08450689166784286,0.015795886516571045,0.03172183781862259,0.042454011738300323,0.006181247998028994,0.05861394852399826,0.05704871565103531,0.010061121545732021,0.0008960178238339722,0.24161331355571747,-0.13530190289020538,0.1760103404521942,-0.0945919007062912,0.14538469910621643,0.07201144844293594,0.10362913459539413,0.17304003238677979,0.20658570528030396,0.04770762100815773,0.2282470166683197,0.003883525263518095,-0.08294720947742462,0.1838870793581009,0.09831716120243073,0.06582307815551758,0.18532077968120575,0.1333988755941391,-0.05351702496409416,-0.020200783386826515,-0.07628445327281952,-0.09667413681745529,0.0015761360991746187,0.1178412213921547,0.1570572853088379,0.20749863982200623,0.04582299664616585,-0.029803935438394547,0.23338282108306885,0.12395931035280228,-0.08017297834157944,0.0667106956243515,-0.10230626910924911,0.1791069656610489,0.046999674290418625,-0.14820867776870728,-0.0013089111307635903,-0.11230999231338501,-0.012287236750125885,0.19215703010559082,0.10222840309143066,0.11517342925071716,-0.061571281403303146,-0.07623474299907684,0.1697261929512024,-0.16786450147628784,-0.0798034816980362,0.15394411981105804,0.23820436000823975,0.18266506493091583,0.22192591428756714,-0.03217896819114685,-0.13277262449264526,0.15735003352165222,-0.04825480282306671,0.166521817445755,-0.012171647511422634,0.17596420645713806,-0.008813741616904736,-0.08120322227478027,0.07304374873638153,0.03363516181707382,-0.09001640230417252,0.06802941113710403,-0.11820553243160248,0.019863542169332504,0.03608717769384384,0.17965838313102722,0.015301547944545746,-0.07641284912824631,0.15081359446048737,-0.057138215750455856,-0.11369125545024872,0.15857911109924316,-0.15790162980556488,0.1522805094718933,-0.01021651178598404,-0.011980664916336536,0.011463450267910957,-0.021854329854249954,0.12268538773059845,0.22289659082889557,0.09628476202487946,0.2092968225479126,-0.021455781534314156,0.098281130194664,0.23427754640579224,0.07174549251794815,-0.0004494303138926625,0.2242536097764969,0.031258512288331985,-0.10411544144153595,0.14598745107650757,-0.07593338191509247,0.22760158777236938,0.1702219843864441,-0.11765111982822418,0.18951727449893951,-0.1356663554906845,0.15381193161010742,-0.10339879989624023,-0.10817541182041168,0.1108333170413971,0.2324119210243225,0.21428197622299194,0.017086030915379524,0.23354700207710266,-0.11378372460603714,0.19124658405780792,0.06524034589529037,-0.12477877736091614,0.10547428578138351,0.2222207635641098,0.0386236272752285,0.03278183564543724,0.1099037453532219,0.06126178801059723,-0.07755746692419052,-0.07922805100679398,0.07661505788564682,0.19555622339248657,-0.09226199239492416,-0.042840372771024704,-0.12440735846757889,0.2506888210773468,0.25693023204803467,-0.00429624505341053,0.03701354190707207,0.21577665209770203,0.045796994119882584,0.24737073481082916,-0.11452631652355194,-0.10163845866918564,0.2107180804014206,-0.1251516491174698,-0.024884890764951706,0.14447583258152008,0.18691398203372955,0.07298636436462402,0.2519874572753906,0.04752790927886963,-0.011392218992114067,0.24370451271533966,0.024035554379224777,0.04942529276013374,-0.029511915519833565,0.06348627805709839,0.07533761113882065,0.10298393666744232,0.19033540785312653,0.1363820880651474,-0.11873579770326614,-0.2942792475223541,-0.12553676962852478,-0.004528361838310957,-0.1717883199453354,0.025529926642775536,0.07537632435560226,-0.07684941589832306,-0.03489556908607483,-0.006411607842892408,-0.30786949396133423,0.1214117482304573,-0.08881767839193344,-0.07447876036167145,-0.1890110820531845,0.025883369147777557,0.058533068746328354,0.2306128442287445,0.16457368433475494,0.07231418788433075,-0.045492466539144516,-0.01733062043786049,-0.24469739198684692,0.08202134817838669,-0.025606533512473106,-0.06158904731273651,-0.09390541166067123,-0.01544097438454628,-0.19916397333145142,-0.06479860842227936,-0.005027798004448414,0.10030387341976166,0.0582423098385334,0.1218964233994484,0.15921840071678162,-0.03947751969099045,-0.06237364560365677,-0.21092268824577332,0.20709626376628876,0.06828973442316055,-0.0654284879565239,-0.12132647633552551,-0.043192461133003235,-0.1512119323015213,0.015318186022341251,0.1436520367860794,-0.06743422150611877,-0.12718097865581512,0.1716604381799698,-0.06183008849620819,0.14268912374973297,-0.10598146170377731,0.04210646450519562,-0.11034563928842545,0.16520632803440094,-0.12039360404014587,0.11698781698942184,-0.04645025357604027,0.08557431399822235,0.03158435598015785,-0.13386814296245575,0.07132460922002792,0.133882075548172,-0.08490622043609619,0.033464111387729645,0.10000580549240112,0.09793634712696075,0.1404636651277542,0.05099356174468994,0.1108163371682167,-0.11143315583467484,0.05850343778729439,0.05630875378847122,0.0696706548333168,0.25759533047676086,0.017495661973953247,-0.12196128815412521,0.013617057353258133,0.1275269091129303,-0.02942311204969883,-0.0032262534368783236,0.12518733739852905,-0.07764333486557007,-0.0718902200460434,-0.12062640488147736,0.0567745566368103,-0.09077545255422592,-0.060659248381853104,-0.1653013974428177,0.1354183703660965,-0.006845534313470125,0.07182817906141281,0.07428421825170517,0.1299211084842682,0.10231657326221466,0.15902778506278992,0.07093502581119537,0.1834792196750641,-0.09199706465005875,-0.03972695395350456,0.1522301286458969,-0.1220230683684349,0.08710242807865143,-0.06977411359548569,0.16831254959106445,0.18357254564762115,-0.12700407207012177,0.10032669454813004,0.16178710758686066,0.2373053878545761,0.21127092838287354,0.17502287030220032,0.12836280465126038,-0.039378128945827484,0.019372859969735146,-0.004525660537183285,-0.07654731720685959,-0.09055040031671524,0.14029385149478912,-0.14500856399536133,0.11746601015329361,0.2377728670835495,-0.0008610989316366613,0.09856599569320679,0.15436355769634247,-0.060579027980566025,0.1927465796470642,-0.01584973745048046,-0.0166314747184515,0.19855156540870667,-0.034058522433042526,-0.07167601585388184,0.042673271149396896,0.004497581627219915,0.03422771394252777,0.026098795235157013,0.19056597352027893,-0.09718120098114014,-0.12939010560512543,0.1460365653038025,0.04550733417272568,0.009922299534082413,0.04320792481303215,0.17187686264514923,0.04999076575040817,-0.10445903241634369,-0.05945751070976257,0.027186695486307144,-0.07186992466449738,0.004710680805146694,0.07218926399946213,0.0653572529554367,0.08349113911390305,0.03942526504397392,0.16421642899513245,-0.08918905258178711,-0.0317947193980217,0.06699966639280319,0.058529049158096313,-0.13923165202140808,-0.15169914066791534,0.04236789047718048,0.0395185761153698,0.08437347412109375,0.04406188800930977,0.039560467004776,-0.02973840944468975,0.09881474822759628,0.16234444081783295,-0.0772513598203659,-0.09095726162195206,-0.0537201464176178,-0.0863611027598381,0.12524785101413727,0.04505728557705879,0.0509127639234066,-0.11557949334383011,0.22038179636001587,0.21809500455856323,0.024745577946305275,0.07291534543037415,0.15098930895328522,-0.14856423437595367,0.008728944696485996,-0.18137560784816742,-0.057994306087493896,-0.013018547557294369,-0.1706947684288025,0.08261582255363464,-0.15203598141670227,-0.10335884988307953,-0.06869111210107803,0.045001883059740067,-0.20626871287822723,-0.002741167787462473,-0.18245141208171844,-0.2258283942937851,-0.043984413146972656,-0.0513814240694046,-0.19425858557224274,-0.1389932632446289,-0.10296725481748581,-0.22018098831176758,0.11072803288698196,0.029775291681289673,-0.06983112543821335,-0.14563210308551788,-0.034722574055194855,0.11810769140720367,0.06387051939964294,-0.014100076630711555,0.07364790141582489,0.11379644274711609,0.06261415779590607,0.12982138991355896,-0.1811913549900055,-0.027320774272084236,0.09978897124528885,0.09828632324934006,-0.16487248241901398,-0.14702188968658447,-0.19451646506786346,0.09659957885742188,-0.18197493255138397,-0.19903413951396942,-0.06912986189126968,0.016149386763572693,-0.04269314184784889,0.006437352392822504,-0.11987845599651337,-0.015900127589702606,-0.0035163462162017822,0.07457798719406128,-0.04379844292998314,-0.14896857738494873,-0.07963115721940994,-0.0955735519528389,-0.2269478738307953,0.07369600981473923,-0.006778576411306858,-0.15738323330879211,-0.12276154011487961,-0.2467881590127945,0.06418174505233765,-0.16601988673210144,0.09393402189016342,-0.20808370411396027,-0.18324267864227295,0.057374194264411926,0.06195525825023651,-0.20819249749183655,-0.22224543988704681,-0.1347971111536026,0.04361060634255409,-0.0033968749921768904,0.10544342547655106,-0.048475611954927444,-0.23642808198928833,-0.1772364228963852,0.026068437844514847,-0.21872228384017944,-0.08226366341114044,-0.061005834490060806,-0.08966120332479477,0.12570975720882416,-0.09123155474662781,-0.09896978735923767,-0.18404194712638855,-0.23888632655143738,-0.010293987579643726,-0.20012745261192322,-0.1631835401058197,-0.05361778289079666,0.06545614451169968,-0.049109384417533875,-0.016149859875440598,-0.09502268582582474,-0.0008061035769060254,-0.23690050840377808,0.0034714648500084877,-0.06598930060863495,-0.07445031404495239,-0.23943576216697693,-0.2432321012020111,-0.12150721251964569,-0.018269509077072144,-0.01977473683655262,-0.23785871267318726,-0.034554678946733475,-0.05168132111430168,-0.12546567618846893,-0.2048654854297638,-0.2182038426399231,0.03061963990330696,-0.01939523220062256,-0.06851550936698914,-0.11858943104743958,-0.055516600608825684,-0.20742878317832947,0.07442966103553772,-0.18375442922115326,-0.20663926005363464,-0.25022032856941223,-0.07018211483955383,-0.25786837935447693,-0.04238066077232361,-0.21655510365962982,-0.15466754138469696,0.15482069551944733,0.008774313144385815,-0.20447233319282532,0.0544312447309494,0.22350436449050903,-0.032811861485242844,0.12321510165929794,0.1007930189371109,-0.14111948013305664,0.042537230998277664,0.13903851807117462,0.0423753596842289,-0.08360880613327026,-0.0863356962800026,0.1456989049911499,0.13468903303146362,0.027859637513756752,-0.012845877557992935,0.08131112158298492,-0.02324085868895054,-0.044664736837148666,0.1538466364145279,0.16488198935985565,0.20256027579307556,0.011854210868477821,-0.12503401935100555,-0.08823145925998688,-0.11069339513778687,0.02656729146838188,0.057200975716114044,0.1023733913898468,0.18513017892837524,-0.14831705391407013,0.05278855189681053,0.03548848256468773,0.10479318350553513,0.0825033187866211,0.16013048589229584,-0.16875283420085907,0.04586568474769592,0.1824653595685959,0.17550964653491974,-0.18195392191410065,-0.12489067018032074,0.18230606615543365,0.17989711463451385,0.021774254739284515,0.131351500749588,0.05100901797413826,0.17663942277431488,0.09399429708719254,0.04170408099889755,0.07986462861299515,0.1740778088569641,-0.2097095400094986,-0.06276681274175644,-0.05923793464899063,-0.05514772981405258,0.10497324913740158,-0.22285452485084534,0.017734719440340996,-0.24883933365345,0.09917701035737991,0.06302499026060104,-0.09104850143194199,-0.23430892825126648,-0.014163317158818245,-0.16300372779369354,0.02516218088567257,-0.0670749768614769,-0.04079047590494156,-0.22688253223896027,-0.2166377753019333,0.0885726809501648,0.05055921897292137,0.04364741966128349,-0.1221209317445755,-0.027032576501369476,-0.16997884213924408,-0.0034395477268844843,0.021496353670954704,-0.13777630031108856,0.08021438866853714,0.0386318601667881,-0.23473034799098969,-0.21231110394001007,-0.12229233235120773,-0.05954193323850632,-0.2472068816423416,-0.10711517930030823,-0.06556544452905655,0.007319649215787649,-0.11050909012556076,-0.13337218761444092,-0.23063629865646362,0.03325292095541954,-0.15371543169021606,0.10782156139612198,-0.09718053787946701,-0.1875244528055191,-0.24719923734664917,0.031477149575948715,0.12131436914205551,0.00817046221345663,0.06725984811782837,0.03918277844786644,-0.09700249135494232,0.09782245755195618,0.08352174609899521,-0.21529509127140045,-0.08181410282850266,-0.17779789865016937,0.08983700722455978,-0.05000196024775505,-0.23558935523033142,-0.15980981290340424,-0.16763561964035034,-0.22074083983898163,-0.23043866455554962,-0.11700564622879028,-0.052913881838321686,-0.12086332589387894,-0.1533477008342743,0.11617553234100342,-0.179592102766037,-0.030028318986296654,-0.09114010632038116,0.005438446067273617,-0.1975262314081192,-0.2235870361328125,-0.21099328994750977,0.14369583129882812,-0.02562737837433815,-0.18308016657829285,-0.1757127344608307,0.022015152499079704,-0.18681614100933075,0.06562669575214386,-0.13412971794605255,0.13148930668830872,-0.11021368950605392,-0.05051770433783531,0.10635405778884888,-0.13526713848114014,0.005323313642293215,-0.23030690848827362,-0.0878279060125351,-0.22983108460903168,-0.13233056664466858,0.03160388022661209,-0.2229001522064209,0.010265665128827095,-0.059814248234033585,0.04324144497513771,-0.15117782354354858,-0.09787456691265106,0.05267965793609619,-0.035863470286130905,-0.1610967516899109,-0.13080626726150513,-0.042227715253829956,-0.1841767132282257,-0.2385733276605606,0.033761948347091675,-0.20807260274887085,0.0977860689163208,-0.0037511433474719524,0.015773767605423927,0.08496981859207153,-0.04814103618264198,0.005909690633416176,-0.05049600452184677,-0.0834427922964096,-0.12207183986902237,-0.004282851703464985,-0.13877148926258087,-0.11965149641036987,-0.058371588587760925,-0.23348011076450348,-0.1372276246547699,0.04406765103340149,-0.018674485385417938,0.0807967260479927,-0.020361147820949554,-0.03489672765135765,0.1379181146621704,0.02017710730433464,0.10202927887439728,-0.011148303747177124,0.04635929316282272,-0.09747178107500076,-0.14081089198589325,0.1827159821987152,0.000340974802384153,0.20721042156219482,-0.01436785701662302,0.06644638627767563,0.023038875311613083,0.16541101038455963,-0.12285443395376205,0.15551543235778809,0.10135577619075775,0.15879136323928833,0.015314826741814613,0.09874071925878525,0.1932760328054428,-0.0002983692684210837,0.18693199753761292,0.09054231643676758,0.10450674593448639,0.09650369733572006,0.03186750411987305,0.18003524839878082,-0.13681821525096893,0.04254531487822533,-0.048247333616018295,0.060559965670108795,-0.015036492608487606,-0.1376359760761261,-0.01952284947037697,0.04027387872338295,0.20064325630664825,-0.008713907562196255,0.026018450036644936,-0.0455779992043972,0.18105390667915344,0.038917455822229385,-0.07618987560272217,0.09186092019081116,-0.10423644632101059,-0.06859541684389114,0.1635950207710266,0.2235124558210373,-0.11084286123514175,0.2211531549692154,-0.12054814398288727,0.048860494047403336,0.22461368143558502,-0.008657080121338367,0.1551831066608429,0.09767527878284454,-0.002988552674651146,-0.07669258117675781,-0.03013145737349987,0.006454878021031618,-0.06887765973806381,-0.18619216978549957,-0.12816746532917023,0.07201135158538818,0.06467463076114655,0.00042355566984042525,-0.23377110064029694,0.04378889501094818,0.0047415937297046185,-0.08549011498689651,-0.09411343187093735,-0.19619283080101013,0.004530673380941153,-0.1253214031457901,-0.06557095795869827,-0.011613420210778713,-0.015358855947852135,0.04115897789597511,0.03374045714735985,-0.25349095463752747,-0.10852646827697754,-0.07362592220306396,-0.039538417011499405,-0.08994380384683609,-0.2555522918701172,-0.11104276031255722,-0.161448135972023,-0.004544515628367662,0.11585336923599243,0.07537829130887985,0.12131798267364502,0.08059804141521454,-0.10447637736797333,-0.09648755192756653,0.0023234374821186066,-0.10594852268695831,0.08333949744701385,-0.019819850102066994,-0.15455898642539978,0.018332988023757935,-0.215204119682312,-0.06347156316041946,0.0738794356584549,0.03195125237107277,0.02841794304549694,-0.14661109447479248,0.029309773817658424,-0.183563694357872,-0.137534499168396,-0.22218160331249237,-0.1330927461385727,0.08405126631259918,-0.18714341521263123,0.07548724114894867,0.1177726611495018,-0.13608990609645844,-0.053422849625349045,-0.24014295637607574,0.19759847223758698,-0.04341210424900055,0.20664893090724945,0.19543515145778656,0.01044521015137434,-0.14679454267024994,-0.012144128791987896,-0.09941811859607697,0.14366810023784637,0.15669749677181244,-0.06715403497219086,0.17954227328300476,-0.20224925875663757,-0.12369617819786072,0.111097052693367,0.06779904663562775,0.0731799304485321,0.0004886991227976978,0.13381868600845337,-0.0705156922340393,-0.15718787908554077,-0.08051371574401855,-0.13701248168945312,0.2275352030992508,-0.06753815710544586,0.0815783441066742,0.004051893949508667,0.028102431446313858,0.11998144537210464,0.10191496461629868,0.17531812191009521,0.09939325600862503,-0.10989850014448166,-0.04488224908709526,0.1137341782450676,0.13448411226272583,-0.1815648078918457,-0.1366247981786728,-0.10689304769039154,-0.1061587929725647,0.101897232234478,-0.09856612980365753,0.15657059848308563,0.17895859479904175,0.1761341243982315,0.12078576534986496,0.2124606817960739,0.05795493349432945,-0.08817672729492188,-0.10662476718425751,0.09826125204563141,0.18704195320606232,0.14564655721187592,-0.17132186889648438,-0.0031835148110985756,0.16954545676708221,-0.1646876335144043,0.05129951983690262,-0.06372693926095963,0.0627024918794632,0.05814184620976448,0.10954834520816803,-0.12728530168533325,-0.1411745250225067,0.11683763563632965,0.15458285808563232,-0.13310864567756653,0.04898067191243172,0.07075794786214828,0.13997207581996918,0.09554392099380493,0.11748424172401428,0.012398016639053822,0.015210894867777824,0.16261547803878784,-0.09757968038320541,-0.06250672787427902,0.2155287116765976,0.07378315925598145,-0.2109871506690979,-0.07536257803440094,-0.10251105576753616,-0.06751050800085068,-0.04581423103809357,-0.15694019198417664,-0.1432219296693802,0.08003585040569305,-0.18907921016216278,-0.14861539006233215,0.04587341099977493,0.15893518924713135,-0.14485421776771545,-0.026646247133612633,-0.10809523612260818,-0.1636332869529724,-0.115440733730793,0.02991105243563652,-0.02818450517952442,0.1510891169309616,-0.14849191904067993,-0.006310916971415281,-0.06529528647661209,-0.01366457063704729,0.07166659086942673,-0.14074255526065826,-0.21372345089912415,-0.05386359989643097,-0.20032425224781036,0.07264725118875504,-0.24263502657413483,0.01019357331097126,-0.230757474899292,0.09275248646736145,0.08723898231983185,-0.01890326663851738,-0.21645000576972961,-0.13868924975395203,0.051984816789627075,0.00871783122420311,0.09377966076135635,-0.182563915848732,0.20731645822525024,-0.10088644176721573,-0.15677572786808014,-0.03870512917637825,-0.15446731448173523,-0.016652490943670273,0.03937681019306183,0.06601080298423767,0.10088912397623062,-0.025166479870676994,0.02856125310063362,0.09249476343393326,0.16986745595932007,-0.10894934087991714,0.0487053282558918,-0.18528613448143005,-0.13136357069015503,-0.01591019332408905,0.10101057589054108,-0.057074517011642456,0.015592630952596664,0.03898095339536667,-0.014434629119932652,-0.014335337094962597,0.1421613246202469,0.16026896238327026,-0.11282382905483246,0.02121725305914879,-0.09636697173118591,0.12865550816059113,-0.021494174376130104,0.1585369110107422,-0.1940397173166275,0.06391558796167374,0.11141151189804077,-0.015645012259483337,-0.061108071357011795,-0.15954838693141937,-0.1080307811498642,0.027383465319871902,-0.16587859392166138,-0.14169196784496307,0.006446598097681999,0.11474297195672989,0.16329006850719452,0.1200629398226738,0.13296332955360413,-0.05279272422194481,0.13202275335788727,-0.08030889183282852,-0.004826689139008522,0.20211289823055267,0.15180647373199463,-0.1410447210073471,-0.06305181235074997,0.18240447342395782,0.0325314998626709,-0.11273933202028275,0.16851626336574554,0.16652148962020874,0.12897725403308868,-0.11495592445135117,0.16919612884521484,-0.06942031532526016,0.19245624542236328,0.042364850640296936,-0.022307056933641434,0.20608662068843842,0.04059503227472305,0.21239152550697327,0.1332840472459793,0.20743541419506073,-0.04358372837305069,-0.12206074595451355,-0.03962397947907448,-0.04762769117951393,-0.12449132651090622,-0.06492527574300766,-0.034798264503479004,0.1588609367609024,-0.07015468925237656,0.13883399963378906,0.11572165042161942,0.04214569926261902,0.251539945602417,0.20885783433914185,-0.12198275327682495,0.06448379158973694,0.20183657109737396,0.08126554638147354,0.12594683468341827,0.07288911938667297,-0.06435179710388184,-0.1123221293091774,-0.037000350654125214,-0.051271405071020126,-0.1312445104122162,0.13539136946201324,0.12028979510068893,0.2303255796432495,0.15884707868099213,0.20861314237117767,-0.05607399716973305,0.22945871949195862,0.2118155062198639,0.15500588715076447,0.024208616465330124,0.2365986406803131,-0.07039991021156311,0.250998318195343,0.2024034857749939,0.07052724808454514,0.1598273664712906,0.14931270480155945,0.020169120281934738,-0.08890886604785919,0.18663723766803741,0.06851355731487274,0.2285364419221878,-0.041116099804639816,0.2496342658996582,-0.11159319430589676,0.0019287719624117017,0.20360732078552246,-0.03417244553565979,0.03082609921693802,0.019665101543068886,0.20079416036605835,0.15591712296009064,0.19865332543849945,0.2117251306772232,0.10202672332525253,-0.13941006362438202,-0.024080069735646248,0.2174835503101349,0.05570634454488754,0.18832510709762573,0.023403197526931763,-0.007898334413766861,0.05500394478440285,0.00012370022886898369,0.12419403344392776,0.15290218591690063,-0.12254432588815689,0.14140282571315765,-0.1727948933839798,-0.10063587874174118,0.09584729373455048,0.04069632664322853,0.15298400819301605,0.16085213422775269,-0.2116454690694809,0.13445892930030823,0.2179258018732071,-0.02310279943048954,-0.17614518105983734,-0.025597942993044853,-0.06709928810596466,-0.07265035063028336,-0.20496560633182526,0.01923520490527153,-0.13266222178936005,-0.1880180537700653,0.016563866287469864,-0.15613886713981628,0.03353552147746086,0.14995980262756348,-0.006975288037210703,-0.11999814957380295,0.037316739559173584,0.10776250809431076,-0.0764414444565773,0.03683938458561897,-0.08967681229114532,-0.12716352939605713,0.014199420809745789,0.07595847547054291,0.15386155247688293,-0.17095303535461426,-0.11246556043624878,-0.02985873445868492,0.18858987092971802,-0.0693429484963417,-0.12112043797969818,0.005744948051869869,0.07251781970262527,0.1498740315437317,-0.0918474867939949,-0.12982624769210815,-0.009945387952029705,0.10416165739297867,0.16328465938568115,0.015571574680507183,0.16930557787418365,0.12382901459932327,0.22623085975646973,0.2107788771390915,0.2174329161643982,-0.011166387237608433,0.15032780170440674,-0.059302520006895065,0.2396557629108429,0.1920352429151535,0.2352871149778366,-0.10355376452207565,0.0858631581068039,0.12221081554889679,0.03780613839626312,0.17931510508060455,-0.06445349752902985,-0.05129331350326538,-0.04372800141572952,-0.05245281383395195,0.004458986222743988,0.21849024295806885,0.2288554459810257,0.12665899097919464,0.07584309577941895,0.23608288168907166,-0.09390336275100708,0.1566421091556549,0.07578137516975403,0.0692155584692955,-0.06942027062177658,0.023402074351906776,-0.030740616843104362,0.03797416761517525,-0.049961358308792114,0.20358984172344208,0.235540509223938,-0.1355147510766983,-0.09279783070087433,0.20148248970508575,0.23179389536380768,-0.03900178149342537,0.017738675698637962,-0.0571528822183609,0.009386616759002209,0.25048184394836426,0.2083960622549057,0.1129058375954628,-0.08277609199285507,0.12948526442050934,0.16607238352298737,-0.02611672319471836,-0.14611537754535675,-0.06388350576162338,0.0004800330789294094,-0.21286651492118835,0.021694734692573547,0.057508938014507294,0.11130943894386292,0.03170887008309364,-0.17340029776096344,0.026927627623081207,-0.242173433303833,-0.0857110396027565,-0.141335129737854,-0.1380769908428192,-0.15392597019672394,-0.014392681419849396,-0.010221261531114578,0.12909922003746033,0.026199031621217728,-0.1150631457567215,-0.19688594341278076,-0.03512834757566452,-0.060826338827610016,0.09262139350175858,-0.20962801575660706,-0.22549790143966675,-0.11414836347103119,-0.013445676304399967,-0.12103413045406342,0.050644248723983765,-0.13536572456359863,-0.20157848298549652,0.08260977268218994,-0.011096836999058723,-0.22431692481040955,-0.17086099088191986,0.0052228583954274654,-0.13779763877391815,-0.1972798854112625,-0.18265728652477264,-0.044945765286684036,0.00465696444734931,-0.005041987169533968,-0.1468181610107422,-0.19780772924423218,-0.21553544700145721,-0.2605026662349701,-0.07469800859689713,-0.039933942258358,-0.09530209004878998,-0.11839022487401962,0.06485813111066818,-0.03543519601225853,-0.19203609228134155,-0.029574356973171234,0.0256717000156641,0.03176799789071083,-0.10057076066732407,-0.2237168848514557,0.12787744402885437,0.20784015953540802,0.009621654637157917,-0.1184215247631073,-0.012878878973424435,-0.13026544451713562,-0.04237588867545128,-0.03005228377878666,-0.016441114246845245,-0.04652665928006172,-0.060049936175346375,-0.1291675567626953,0.19517771899700165,-0.1619296669960022,-0.16695071756839752,0.1463606208562851,-0.1545647531747818,-0.08185290545225143,-0.08375987410545349,0.024689778685569763,0.08713764697313309,0.16980166733264923,0.01819434203207493,-0.0397811084985733,-0.02866588532924652,-0.11274024844169617,0.08318924903869629,0.11087802797555923,-0.14350099861621857,-0.13409507274627686,-0.018118977546691895,-0.14321397244930267,0.2275153547525406,-0.1379348486661911,0.00009638015035307035,0.10272857546806335,0.03041187860071659,-0.12777608633041382,0.11850934475660324,0.07380972802639008,0.06417946517467499,-0.11538689583539963,0.06142440810799599,-0.14730188250541687,-0.0558457113802433,-0.10553540289402008,0.09431309252977371,0.0998631939291954,0.059266723692417145,0.06112339347600937,0.06667129695415497,0.12419407814741135,0.17267237603664398,0.029244616627693176,-0.14779694378376007,-0.08916973322629929,0.2048443853855133,-0.15715382993221283,0.23234432935714722,0.06255273520946503,0.18453234434127808,-0.0683983564376831,0.14812606573104858,-0.07213851064443588,-0.022224530577659607,-0.15327757596969604,-0.20816342532634735,-0.06596945971250534,-0.05235515162348747,-0.07757450640201569,-0.12069199979305267,-0.1768713742494583,-0.06128416210412979,-0.10652896761894226,0.12582965195178986,-0.11914175748825073,-0.06443999707698822,-0.014615826308727264,0.08711595833301544,-0.03620963171124458,-0.008336990140378475,-0.05026639625430107,0.005585985258221626,-0.23486721515655518,-0.06510394811630249,0.04947340115904808,-0.04623420909047127,0.021213123574852943,0.03649714216589928,-0.009315683506429195,-0.18864186108112335,-0.038942426443099976,-0.08318430930376053,0.03811636194586754,-0.04080668091773987,-0.11613563448190689,-0.12336159497499466,0.16266605257987976,-0.08691972494125366,0.03610037639737129,-0.03957703709602356,-0.09967685490846634,0.05355611816048622,-0.17269685864448547,0.13470003008842468,0.04949650168418884,-0.11733153462409973,0.06402190774679184,0.14686283469200134,-0.13524261116981506,0.010333596728742123,-0.16714631021022797,0.04577083885669708,-0.07398387789726257,0.02194032073020935,-0.11768881976604462,0.03244052454829216,-0.2129621058702469,-0.004777275025844574,0.03986285254359245,-0.21915635466575623,-0.23561637103557587,-0.1466454565525055,-0.0056777228601276875,-0.0197646114975214,0.07978730648756027,-0.06732942163944244,-0.004830972291529179,0.024804282933473587,-0.04131259769201279,0.12406137585639954,0.15272563695907593,-0.07534122467041016,-0.1616619974374771,-0.023097675293684006,-0.04320131614804268,-0.09068892896175385,0.08840101957321167,-0.11295675486326218,-0.0012297380017116666,-0.13643012940883636,-0.09861606359481812,0.13662397861480713,-0.0328458696603775,-0.22097128629684448,-0.11544007807970047,-0.17695963382720947,-0.22887679934501648,0.1946154683828354,-0.10559839010238647,-0.02327653393149376,-0.18817591667175293,-0.09579215943813324,-0.03329208120703697,-0.28231748938560486,-0.2397659420967102,0.0535106435418129,0.00735172163695097,-0.08166680485010147,0.07800403237342834,-0.11378522217273712,-0.08900171518325806,-0.021643120795488358,0.13381725549697876,-0.014935002662241459,-0.24057510495185852,-0.06792911142110825,0.014748269692063332,0.05746076628565788,-0.08177746087312698,-0.07029109448194504,0.05825446546077728,0.0963105857372284,0.056344591081142426,-0.22212590277194977,0.1430680900812149,-0.07065659016370773,0.022625166922807693,-0.1967829167842865,-0.0051107932813465595,-0.10671227425336838,0.08606265485286713,-0.24400624632835388,-0.19529083371162415,0.12452058494091034,-0.00714440643787384,0.1717970222234726,0.1023312360048294,0.02821139432489872,-0.11089105904102325,0.01122979260981083,0.04587159678339958,0.16355636715888977,-0.08209478855133057,-0.1426001340150833,0.027914538979530334,0.10359352827072144,0.189500093460083,0.1374732255935669,0.19206160306930542,0.047584641724824905,0.2389322966337204,0.13709700107574463,0.05359917879104614,-0.09530144929885864,0.23999720811843872,0.15389922261238098,-0.017215324565768242,0.2342517226934433,-0.11803661286830902,0.15757153928279877,0.10995718836784363,0.23156824707984924,0.05530529096722603,0.051921457052230835,-0.12621915340423584,0.0834709033370018,0.13399860262870789,0.1573987454175949,0.07500793784856796,-0.09349437803030014,-0.0748872235417366,0.12098701298236847,0.051484547555446625,-0.04848324507474899,0.1397395133972168,0.033291079103946686,0.09089325368404388,0.17559286952018738,0.20073576271533966,0.06794925779104233,-0.035757046192884445,-0.10542486608028412,-0.03398574888706207,0.08602230995893478,0.24525316059589386,-0.12409919500350952,0.012804233469069004,0.10754981637001038,0.07144016027450562,0.12008138000965118,0.03371700644493103,0.13917893171310425,0.1064017117023468,-0.005510054063051939,-0.06643620133399963,0.12411227077245712,-0.24054794013500214,0.10175607353448868,0.10996675491333008,0.11871273070573807,-0.08417897671461105,-0.25405624508857727,-0.24138562381267548,-0.027434149757027626,0.10240770876407623,-0.08803077042102814,-0.1141553744673729,-0.14490847289562225,-0.1526881903409958,-0.14835558831691742,-0.25434139370918274,-0.06858856976032257,-0.025082547217607498,-0.06818887591362,-0.24317629635334015,-0.200386181473732,-0.17222200334072113,-0.06099403649568558,0.11508668214082718,0.13407273590564728,-0.13383138179779053,0.00012800493277609348,-0.23310060799121857,0.09199023246765137,-0.08410948514938354,-0.24950237572193146,-0.08996555209159851,-0.06813871115446091,-0.21376194059848785,-0.24976177513599396,0.0651325136423111,0.06954541802406311,0.022682810202240944,0.04520917683839798,-0.20772913098335266,-0.04177751764655113,-0.18395781517028809,-0.1344928741455078,-0.058352451771497726,-0.054528385400772095,0.002928149653598666,0.1102304458618164,-0.09682201594114304,-0.020462533459067345,-0.11915210634469986,-0.10115717351436615,-0.20486041903495789,-0.21420207619667053,-0.20707440376281738,-0.063562773168087,-0.08564401417970657,0.0089314766228199,0.08680778741836548,0.08881814032793045,0.09683140367269516,-0.21160447597503662,-0.23448525369167328,0.030762283131480217,-0.13106273114681244,0.0036149972584098577,-0.24474689364433289,-0.18664629757404327,-0.2486332356929779,-0.025951683521270752,-0.11714515089988708,-0.16965191066265106,-0.19028717279434204,-0.06068103387951851,-0.03020484931766987,-0.2450072467327118,-0.11874739825725555,-0.06312922388315201,0.05715557560324669,-0.1645442694425583,-0.2161472737789154,-0.20429444313049316,0.024453407153487206,-0.06355159729719162,0.0733257457613945,0.006560406647622585,-0.18537506461143494,-0.015446110628545284,0.07770675420761108,0.02439441718161106,-0.20837832987308502,0.07019729912281036,0.08486036211252213,-0.1607733517885208,0.11507586389780045,-0.2097339779138565,-0.08891648799180984,-0.0389057882130146,0.08667197823524475,-0.1013355627655983,0.038431502878665924,-0.05175675079226494,0.06935646384954453,-0.19071102142333984,-0.02597694657742977,0.021410899236798286,0.02196555770933628,-0.0661095678806305,-0.24606239795684814,0.04395422339439392,0.02208392508327961,-0.0872621163725853,-0.03258358687162399,0.1269608438014984,-0.05077178776264191,0.11814945936203003,-0.0356755256652832,-0.08968415856361389,-0.10406810790300369,0.00785020086914301,0.0022848560474812984,-0.17947527766227722,-0.022923344746232033,-0.0457962229847908,0.09982461482286453,-0.22867664694786072,0.1083860695362091,-0.18463069200515747,-0.18344266712665558,-0.12276355177164078,-0.09241149574518204,0.0977168008685112,0.09794341772794724,-0.21111097931861877,0.02037758193910122,-0.15255551040172577,-0.08530443161725998,-0.1000920832157135,0.04621822014451027,0.11348807066679001,0.020744113251566887,-0.15457068383693695,-0.2342992126941681,-0.03543851152062416,-0.014086619019508362,-0.21627278625965118,-0.009692883118987083,0.06508287042379379,-0.09690748900175095,0.009392060339450836,-0.12942267954349518,-0.12787002325057983,0.04483926668763161,-0.14367900788784027,0.03370410576462746,-0.15096330642700195,0.0745181292295456,0.013496923260390759,0.10703114420175552,-0.13628247380256653,-0.013586203567683697,0.08949912339448929,-0.20097167789936066,-0.19845831394195557,-0.16225285828113556,-0.06570424139499664,-0.11790649592876434,-0.0006378786056302488,-0.16562090814113617,0.06291543692350388,-0.1483558565378189,-0.192360520362854,0.009385243989527225,-0.06382942199707031,-0.10045922547578812,-0.06747396290302277,-0.07345854490995407,-0.16756571829319,-0.10691811144351959,0.025652332231402397,0.09259635955095291,-0.24243442714214325,0.06856382638216019,0.10185110569000244,-0.012946153990924358,-0.11323224008083344,-0.23826350271701813,0.11266909539699554,0.0736502856016159,-0.10693468153476715,0.06284882873296738,-0.033940382301807404,-0.18426358699798584,-0.11708483844995499,-0.07909409701824188,-0.19836008548736572,-0.178953617811203,-0.23385101556777954,-0.13155744969844818,0.12723733484745026,-0.11088733375072479,-0.1715879589319229,-0.06595461070537567,-0.18851609528064728,-0.04058387875556946,0.05734599754214287,0.08158009499311447,-0.09347879886627197,0.15840944647789001,-0.04720234125852585,-0.21118341386318207,-0.14502276480197906,0.11332289129495621,-0.1797242909669876,0.10478504002094269,0.04694446176290512,0.13563773036003113,0.0418994314968586,-0.2257726788520813,-0.16203142702579498,0.045991405844688416,0.11337851732969284,-0.07398184388875961,-0.1118888407945633,-0.1521657556295395,-0.11245562881231308,-0.11528881639242172,-0.1147560179233551,-0.19870835542678833,0.13612550497055054,0.040231283754110336,0.08441464602947235,0.1402323842048645,0.048735227435827255,0.0007068225531838834,-0.05414745584130287,-0.15693143010139465,0.04267742112278938,0.0019823601469397545,-0.08148723840713501,-0.1553855836391449,-0.008226698264479637,-0.01447327621281147,-0.05445500835776329,0.16458646953105927,-0.09974490851163864,0.14588794112205505,0.1409243643283844,-0.14764150977134705,0.12780775129795074,0.2980405390262604,-0.17517590522766113,0.17472541332244873,0.016348280012607574,0.038919027894735336,0.04878820851445198,0.2807367444038391,-0.2687167525291443,0.31058400869369507,0.01532825455069542,0.24477322399616241,-0.13397806882858276,-0.06980567425489426,-0.05344412103295326,0.07359668612480164,-0.0008170156506821513,-0.06161601096391678,0.026645876467227936,-0.13879446685314178,-0.056280769407749176,-0.4134977161884308,0.004377339966595173,-0.06169431284070015,-0.046889740973711014,0.06900548189878464,0.17901794612407684,-0.16439060866832733,0.19789698719978333,0.029093798249959946,-0.2795884907245636,0.058415789157152176,-0.029371362179517746,0.1404513567686081,-0.31751689314842224,-0.06378859281539917,-0.03727063909173012,0.1604362279176712,-0.40872007608413696,-0.11560473591089249,-0.2633379101753235,0.07196925580501556,-0.006188477389514446,0.0043244436383247375,-0.09024602174758911,0.03863951936364174,-0.0771804228425026,0.10902641713619232,-0.0028698137030005455,-0.13154257833957672,-0.011270876042544842,0.14807771146297455,-0.14668582379817963,-0.007138926535844803,0.15981900691986084,-0.14651688933372498,-0.0701688677072525,-0.13446395099163055,-0.036883119493722916,-0.12506097555160522,-0.32135578989982605,0.040152646601200104,0.12742877006530762,0.020316636189818382,0.008570224978029728,0.25895529985427856,-0.2867235541343689,0.08622190356254578,-0.08342913538217545,0.22888188064098358,-0.016807518899440765,-0.1634775549173355,-0.18497435748577118,-0.2057357132434845,0.08848142623901367,0.011879900470376015,0.04918069764971733,-0.11459942162036896,-0.18853233754634857,-0.05570081248879433,0.15339703857898712,0.008777056820690632,0.09757621586322784,-0.1498263031244278,-0.001602598698809743,0.03824144974350929,-0.047781117260456085,0.1860874891281128,0.004307148512452841,0.019547460600733757,0.07812760025262833,0.16632190346717834,0.10013145953416824,-0.09985093027353287,-0.2218378633260727,-0.15974153578281403,-0.0847124308347702,-0.18095898628234863,-0.12738259136676788,-0.10527119040489197,0.16864310204982758,0.2498624324798584,-0.1796383410692215,0.07810232788324356,0.0029772575944662094,0.08975313603878021,0.0783289223909378,-0.1941511183977127,0.03964536637067795,-0.23008763790130615,0.06770311295986176,0.002163631608709693,-0.1115490049123764,-0.07911497354507446,-0.03854438289999962,0.14456771314144135,0.10950101912021637,0.17436568439006805,-0.03911677747964859,0.09979960322380066,0.061972446739673615,0.0864512249827385,-0.17280149459838867,-0.24444596469402313,-0.01342586800456047,-0.06465593725442886,0.04251815006136894,-0.278102844953537,0.09417543560266495,0.1193275898694992,-0.20348010957241058,0.1757558137178421,0.053947389125823975,-0.018621688708662987,-0.03458826616406441,-0.156340092420578,-0.10408294945955276,0.16903313994407654,0.2543954849243164,0.28087034821510315,0.06620320677757263,-0.007245790679007769,0.02320396900177002,-0.13478049635887146,0.024337798357009888,-0.10458935797214508,-0.19450552761554718,0.2540508806705475,-0.43768808245658875,-0.0280410535633564,0.03079126589000225,-0.1022309958934784,0.18609778583049774,-0.062278784811496735,0.14998936653137207,-0.15108560025691986,0.12921950221061707,0.08687732368707657,0.20751969516277313,-0.08951228857040405,0.11984335631132126,0.20494438707828522,0.0833204835653305,0.09110250324010849,-0.060827307403087616,-0.07195111364126205,-0.05711286887526512,-0.13992026448249817,-0.0807223692536354,-0.07930939644575119,0.10309591889381409,0.09278087317943573,0.020653042942285538,0.10152549296617508,0.04727868363261223,0.10911156237125397,0.18587163090705872,0.3092392385005951,-0.08326520770788193,0.05157613009214401,-0.00439782440662384,-0.0861380323767662,-0.11288224160671234,0.3780767321586609,0.1410524845123291,0.07057450711727142,-0.041202280670404434,-0.05489995330572128,-0.08349534124135971,-0.024131398648023605,0.02734563872218132,-0.045349135994911194,0.10486472398042679,0.1585993468761444,0.18659350275993347,-0.0301715936511755,-0.020757261663675308,0.04972733184695244,-0.025751300156116486,0.0030490520875900984,-0.060221318155527115,0.10407540202140808,0.06572164595127106,-0.1762641817331314,-0.1653425544500351,-0.03508918732404709,0.01912408508360386,-0.10313320904970169,-0.025263525545597076,0.06664877384901047,0.004321830812841654,-0.046452172100543976,-0.003963756375014782,-0.020529743283987045,-0.07068115472793579,-0.1962088942527771,0.19347462058067322,-0.0031887635122984648,0.05273069813847542,0.0601729080080986,0.17250551283359528,0.00918652955442667,-0.0025232015177607536,0.010101753287017345,0.050148095935583115,-0.14049506187438965,-0.1019168272614479,-0.15286143124103546,0.04332153871655464,0.1135420948266983,-0.16671232879161835,0.2397816777229309,0.11043132096529007,0.19792026281356812,-0.058317191898822784,-0.03915759548544884,-0.013915550895035267,-0.027445293962955475,0.1006728932261467,-0.09239866584539413,-0.15500615537166595,-0.06627873331308365,-0.02668675407767296,0.07011659443378448,0.05829234793782234,-0.033143989741802216,0.1613188087940216,-0.10956712812185287,-0.22716040909290314,0.06112750247120857,-0.1418270319700241,0.15546630322933197,-0.03196978569030762,0.08421311527490616,0.14727315306663513,0.08841763436794281,0.06482282280921936,0.16724979877471924,-0.012579268775880337,-0.09819980710744858,0.14004972577095032,-0.10504964739084244,-0.18145273625850677,-0.11456852406263351,-0.02133634127676487,-0.0937429890036583,0.09032467752695084,0.1558734029531479,-0.07334131002426147,0.15173865854740143,-0.18398328125476837,-0.11379067599773407,-0.14469830691814423,-0.11308218538761139,0.14870886504650116,-0.14715516567230225,-0.17584896087646484,-0.10647939145565033,-0.14039836823940277,0.028456654399633408,0.08372393250465393,-0.10616858303546906,0.1549735963344574,0.04884737357497215,-0.06045488268136978,-0.22388380765914917,0.11502397060394287,0.040196776390075684,-0.13448955118656158,-0.11533910781145096,-0.019960351288318634,-0.159600168466568,0.05734775587916374,-0.12966997921466827,0.08287294954061508,-0.03291943296790123,0.06552185863256454,0.08292116969823837,-0.02890171855688095,-0.15683341026306152,0.06935511529445648,0.06986260414123535,0.049359019845724106,-0.018946964293718338,0.09585375338792801,-0.08761696517467499,0.05621198192238808,0.21115444600582123,0.06571611016988754,0.013770750723779202,0.01803561858832836,0.015202422626316547,-0.3108288049697876,-0.0014480560785159469,0.2647799253463745,-0.06377558410167694,-0.027061717584729195,0.14162927865982056,-0.07121559232473373,-0.009547208435833454,0.004338354803621769,-0.09699663519859314,-0.09735488146543503,-0.214164599776268,0.225673645734787,-0.08187484741210938,0.20884831249713898,0.030837079510092735,0.13712915778160095,0.16391772031784058,0.005357755348086357,-0.16577032208442688,0.22474275529384613,0.10595806688070297,-0.004705506842583418,0.10639996081590652,0.0773310661315918,0.2600354552268982,0.031344491988420486,0.03154746815562248,-0.0019229617901146412,0.2487371265888214,-0.12492075562477112,0.0963706374168396,0.11945103108882904,-0.06683829426765442,-0.19517359137535095,0.13620223104953766,-0.19568556547164917,0.09280788153409958,-0.03821144998073578,-0.056534044444561005,0.15792116522789001,-0.02294919081032276,-0.026375234127044678,-0.14811386168003082,-0.028162304311990738,-0.05797581747174263,0.13464976847171783,-0.1539941281080246,0.06080571189522743,0.011339006014168262,0.23859386146068573,-0.23718160390853882,0.06707404553890228,0.04480762034654617,-0.20639415085315704,-0.26760372519493103,-0.23676751554012299,-0.04871058091521263,0.17630262672901154,0.0869494304060936,0.1255815327167511,-0.04035390540957451,-0.031191643327474594,0.0110027389600873,-0.07430735230445862,-0.1655046045780182,-0.14357826113700867,0.21465204656124115,-0.2263738512992859,-0.06429607421159744,0.10010377317667007,0.18953390419483185,0.13427874445915222,0.11777401715517044,0.2526993155479431,0.2967928647994995,0.19875164330005646,-0.02440102957189083,0.1497538834810257,0.00401990907266736,0.09639463573694229,0.08843108266592026,0.14221294224262238,-0.1615765392780304,0.1601548194885254,0.007296125870198011,0.036896832287311554,-0.14780443906784058,0.1726895570755005,0.015899181365966797,0.033151913434267044,-0.09420181065797806,0.27246996760368347,0.09295810014009476,0.1754806637763977,-0.02382591925561428,-0.08468016982078552,0.1923017054796219,-0.1358412504196167,0.05336109176278114,0.14532464742660522,0.04314277321100235,0.030061868950724602,0.04363100975751877,-0.22494518756866455,-0.06208323314785957,0.02286415919661522,-0.028596220538020134,0.0520671084523201,-0.18773962557315826,0.261438250541687,-0.23204882442951202,-0.08656910806894302,0.08544477075338364,-0.10906275361776352,-0.04512292146682739,-0.048213403671979904,-0.0785006433725357,0.0569249652326107,0.11507844179868698,-0.07879950106143951,-0.025008877739310265,-0.11332764476537704,-0.09249413013458252,0.0798342153429985,-0.0757400318980217,-0.10700645297765732,-0.1444265991449356,0.006612700875848532,-0.11216118186712265,0.11787768453359604,-0.21916712820529938,0.023024840280413628,-0.24582169950008392,0.02059577964246273,0.05818302929401398,-0.18513309955596924,-0.10876791924238205,-0.11729714274406433,-0.0639558881521225,-0.0762084499001503,-0.2247367799282074,0.07193134725093842,-0.15283669531345367,-0.057345353066921234,0.08352724462747574,0.06902234256267548,-0.04505205899477005,0.05898214504122734,-0.22028417885303497,-0.07055383175611496,0.08630897104740143,-0.21840746700763702,0.02944345213472843,0.2991079092025757,-0.06500126421451569,