{"type":"single","lottery":"ssq","model":{"type":"ssq-lstm-v2","hiddenDim":24,"numLayers":1,"dropoutInput":0.1,"dropoutHidden":0.2,"dropoutOutput":0.2,"stack":{"type":"stacked-lstm","inputDim":63,"hiddenDim":24,"numLayers":1,"layers":[{"type":"lstm","inputDim":63,"hiddenDim":24,"params":{"W":{"rows":96,"cols":63,"data":[0.09927283227443695,-0.14220839738845825,0.15312528610229492,-0.10935745388269424,-0.19154326617717743,-0.14509084820747375,0.1305607259273529,0.00612453231588006,-0.10076591372489929,0.08345664292573929,-0.11246909201145172,0.004837271757423878,-0.17898906767368317,-0.21910709142684937,-0.12312576174736023,-0.003342093201354146,-0.09668590128421783,0.1302962452173233,-0.03994721546769142,0.027652466669678688,-0.21812665462493896,0.059717219322919846,0.11966104805469513,-0.10618483275175095,-0.14090962707996368,0.15277063846588135,0.025911111384630203,-0.1471981704235077,-0.12466078251600266,-0.2924171984195709,0.06298712641000748,0.10945138335227966,-0.06776294112205505,0.15341703593730927,0.022419696673750877,0.03575074300169945,-0.14164355397224426,-0.054977696388959885,-0.17376655340194702,-0.1596108376979828,-0.08981091529130936,0.06517713516950607,0.05018526315689087,-0.24332726001739502,-0.1682795137166977,0.10367655754089355,0.05553581565618515,0.10988860577344894,0.028812354430556297,0.11190702766180038,-0.1355457752943039,0.022841600701212883,0.09260951727628708,0.0870751291513443,-0.17965799570083618,-0.059206824749708176,-0.24295674264431,-0.17068475484848022,-0.06516629457473755,-0.06982757896184921,0.06098802760243416,-0.03729352355003357,0.0058087194338440895,-0.10240785777568817,0.005697782151401043,0.03275128826498985,-0.0014186694752424955,0.10864938795566559,-0.041786763817071915,0.017776956781744957,-0.10525572299957275,0.15370114147663116,0.12126771360635757,-0.11453676223754883,0.09203843027353287,0.07106944918632507,0.10376617312431335,-0.15843409299850464,-0.1226465031504631,-0.07075538486242294,-0.08644738793373108,-0.04152277857065201,0.14144952595233917,-0.025038953870534897,0.028889596462249756,0.10941612720489502,-0.037922780960798264,-0.1618344634771347,0.14217574894428253,-0.236398845911026,-0.13037243485450745,-0.1342204362154007,0.0517723374068737,-0.01292866189032793,-0.16653402149677277,0.15738408267498016,0.14566141366958618,-0.10035659372806549,0.11655750870704651,-0.1649213582277298,-0.1700681746006012,0.04130171984434128,0.17003339529037476,0.10747010260820389,-0.14443650841712952,-0.18586498498916626,-0.1343195140361786,0.10816694796085358,0.09371533244848251,-0.20430807769298553,0.0946119949221611,0.09394166618585587,-0.19771531224250793,-0.02645702101290226,0.07848245650529861,0.04011449217796326,0.004325665067881346,0.03401315584778786,0.017315732315182686,-0.20734719932079315,-0.008675755932927132,0.11472813040018082,0.05004454776644707,0.13759161531925201,-0.11885220557451248,-0.1287015676498413,0.17219316959381104,0.14872710406780243,-0.0007862643105909228,-0.0752735435962677,0.0774892121553421,-0.0577179379761219,-0.07360263913869858,-0.104591503739357,-0.09796474874019623,-0.1943988800048828,0.031545937061309814,0.14581570029258728,0.07901506870985031,0.058468785136938095,0.0859515517950058,-0.03950732573866844,-0.06993942707777023,-0.2272794097661972,-0.12712422013282776,-0.14521551132202148,0.13885563611984253,0.13200131058692932,0.1006431132555008,0.09646651893854141,0.04834715276956558,0.003265502629801631,-0.17071513831615448,0.17118874192237854,0.12840290367603302,-0.15874288976192474,0.09293161332607269,0.0696466788649559,-0.08544498682022095,-0.21435227990150452,-0.23683328926563263,0.16419707238674164,0.06233295053243637,0.1601341962814331,-0.08483967930078506,-0.06691915541887283,-0.04390646889805794,-0.022928612306714058,0.010762223973870277,0.04379691928625107,0.12240231782197952,0.11572063714265823,0.08095329254865646,0.07611265033483505,0.14958633482456207,-0.037818487733602524,-0.16749092936515808,-0.10593889653682709,-0.05387042462825775,-0.055454447865486145,-0.10116703063249588,-0.05942719057202339,0.09980208426713943,-0.25790414214134216,0.049759749323129654,0.1399817019701004,-0.14506086707115173,0.07442187517881393,-0.24985067546367645,0.019945720210671425,-0.05287164822220802,-0.11133574694395065,-0.08732191473245621,-0.17110665142536163,0.046862922608852386,0.1718742549419403,-0.13809402287006378,0.08944469690322876,-0.10185115039348602,-0.12052073329687119,-0.035246919840574265,-0.11053431779146194,-0.04151890426874161,0.11701646447181702,-0.05679616332054138,-0.08106862753629684,-0.11353745311498642,-0.18346188962459564,0.13704627752304077,-0.07898624986410141,-0.03699741140007973,-0.12843908369541168,0.020876996219158173,-0.16949041187763214,0.07775349169969559,0.1581321656703949,0.04367871209979057,0.1582307517528534,0.165204256772995,0.0835728719830513,0.026711978018283844,-0.029983563348650932,-0.07536245882511139,-0.1868710070848465,0.15118280053138733,0.0721009224653244,0.10949268192052841,-0.17349715530872345,0.15253008902072906,0.11721374094486237,-0.09822873026132584,-0.04912608861923218,-0.04074191674590111,-0.1650656759738922,-0.18489955365657806,0.0742453783750534,-0.07970298081636429,0.16816413402557373,-0.07442077249288559,-0.010162503458559513,-0.06643809378147125,0.05286937206983566,-0.17207956314086914,0.10830260813236237,-0.09024693816900253,-0.0027418197132647038,0.1311183124780655,-0.05536572262644768,-0.06665915250778198,-0.015714585781097412,0.016167042776942253,-0.061367809772491455,-0.18679039180278778,0.0918002650141716,0.13001494109630585,0.013726499862968922,-0.08054105937480927,-0.1108299195766449,-0.12258625030517578,-0.04794864356517792,0.05036972090601921,0.0022611587774008512,0.00005343136581359431,0.12900233268737793,0.011026370339095592,-0.1082976758480072,0.1515553742647171,-0.05909533053636551,-0.029499968513846397,-0.14927127957344055,0.12171220779418945,-0.07127005606889725,0.040236104279756546,-0.04150952398777008,-0.007721188478171825,0.16253714263439178,0.1904941350221634,0.10854388773441315,-0.20180083811283112,-0.021073266863822937,0.1280614286661148,0.13827629387378693,-0.16055704653263092,0.1120264083147049,-0.20445774495601654,-0.18998411297798157,-0.13459627330303192,-0.03597506880760193,-0.19383513927459717,-0.17910811305046082,0.02694748528301716,0.008678628131747246,0.1454971879720688,0.21676762402057648,0.14671838283538818,0.054062820971012115,0.10797635465860367,0.04817068949341774,-0.19018737971782684,0.13431651890277863,0.0005543878069147468,-0.19253680109977722,0.15941257774829865,-0.09403892606496811,-0.13777394592761993,0.1473652720451355,0.08475396782159805,-0.13549846410751343,-0.12178412824869156,0.087187260389328,0.046488188207149506,0.01760541833937168,0.035912517458200455,-0.008594810962677002,0.07178549468517303,-0.023242156952619553,-0.13598944246768951,0.037634074687957764,-0.21921749413013458,-0.1901039332151413,-0.06848035752773285,0.14310063421726227,0.16413430869579315,-0.1677066534757614,-0.048926156014204025,-0.08538350462913513,0.02798665314912796,-0.025245778262615204,0.008544172160327435,0.030001766979694366,0.16998299956321716,0.14497965574264526,0.012061286717653275,-0.0566132590174675,-0.09163075685501099,-0.06231442838907242,0.1403975784778595,0.16432470083236694,-0.17919500172138214,0.028534695506095886,-0.0324641652405262,0.011804717592895031,-0.13324472308158875,-0.14527353644371033,0.00714062200859189,0.08959975838661194,0.07368829101324081,-0.011953392997384071,0.12815269827842712,-0.21479150652885437,-0.03433835878968239,0.12352536618709564,-0.1999296396970749,0.1798829734325409,-0.16925103962421417,-0.018846619874238968,-0.0213149543851614,0.1462879776954651,0.10914824157953262,0.16342045366764069,0.22509655356407166,0.1432761698961258,-0.14130638539791107,-0.09772304445505142,-0.04899038374423981,0.07447563856840134,0.14183156192302704,0.1854640245437622,-0.03443365544080734,0.01494030375033617,0.0320056788623333,-0.0067754448391497135,-0.14114396274089813,-0.01338387094438076,-0.009374220855534077,-0.07041337341070175,-0.18731744587421417,-0.06361290067434311,-0.017947614192962646,-0.1115812361240387,-0.10291008651256561,0.12198619544506073,0.14472746849060059,0.057201508432626724,-0.05051914229989052,0.06674239784479141,-0.14634518325328827,0.04803185537457466,-0.04871445149183273,0.12163688987493515,0.16386854648590088,-0.029139112681150436,0.0071027157828211784,0.1914803385734558,-0.08340652287006378,0.045830272138118744,-0.08939377218484879,0.035711441189050674,-0.14802901446819305,-0.04332909733057022,0.15376929938793182,0.07200741767883301,-0.2110542207956314,-0.045911457389593124,-0.1084280014038086,0.061169225722551346,0.016320282593369484,-0.033478353172540665,0.011316980235278606,0.05360277369618416,0.10534465312957764,-0.005997268483042717,0.05192165821790695,0.17851974070072174,-0.16186098754405975,0.13782106339931488,-0.20130711793899536,-0.046110671013593674,0.0017604093300178647,-0.016160286962985992,0.19743973016738892,-0.0035032923333346844,0.06198146566748619,0.02709317021071911,0.02274039387702942,-0.1307723969221115,-0.1424231082201004,0.1633426547050476,-0.08481179177761078,0.12704801559448242,0.05188107490539551,0.08977462351322174,-0.1812533736228943,0.014290457591414452,-0.056299854069948196,-0.20153911411762238,-0.1232762560248375,0.10068056732416153,0.15980176627635956,0.1781531423330307,-0.0014247311046347022,0.17567291855812073,0.19389604032039642,-0.10691482573747635,0.04156024381518364,-0.17308351397514343,0.012468341737985611,-0.10876189172267914,-0.021436719223856926,0.012429967522621155,0.16314692795276642,-0.19695927202701569,0.0005708315875381231,-0.1965581625699997,-0.0015387034509330988,0.10804624855518341,-0.1352720409631729,0.011317538097500801,-0.11812908202409744,-0.1445060521364212,0.0023024107795208693,0.07011768221855164,-0.05896780267357826,-0.10397851467132568,-0.01835167407989502,0.10672742873430252,-0.0807628259062767,0.11933430284261703,-0.003808646695688367,-0.024002298712730408,-0.17580732703208923,0.17411674559116364,-0.18326252698898315,0.19023041427135468,-0.19501875340938568,-0.16577449440956116,-0.014342417009174824,-0.0744277834892273,0.03127690777182579,-0.12624463438987732,-0.03078550286591053,0.08660292625427246,-0.060869306325912476,-0.095444455742836,0.010443289764225483,0.1619231253862381,0.13844303786754608,-0.028487486764788628,-0.05820499733090401,-0.08234931528568268,-0.1820230484008789,0.07155779004096985,0.0140827726572752,0.031010638922452927,-0.1471165269613266,-0.06503020226955414,-0.053058914840221405,-0.09684441983699799,-0.10435739159584045,0.11940990388393402,0.031147165223956108,0.15932942926883698,-0.11318396031856537,0.011019589379429817,0.0025692463386803865,-0.04910522699356079,-0.23536139726638794,-0.0060515389777719975,-0.0487644262611866,0.12739358842372894,0.010191638022661209,-0.1251579374074936,-0.18209125101566315,0.02705361321568489,0.12825675308704376,0.07364141196012497,-0.018889520317316055,-0.02835211344063282,0.061641253530979156,0.011180716566741467,0.22828038036823273,0.10103633999824524,-0.011537754908204079,-0.09715934097766876,-0.015121341682970524,0.19466717541217804,0.15789394080638885,-0.2880382537841797,-0.19679531455039978,-0.03664568066596985,-0.14926394820213318,0.012922168709337711,-0.17125830054283142,-0.1880778819322586,-0.12657593190670013,0.12607799470424652,-0.1677592396736145,-0.13591991364955902,-0.0027018741238862276,0.014522608369588852,0.11293990910053253,-0.02736630104482174,-0.12189285457134247,-0.06862332671880722,0.048413652926683426,0.12228605896234512,-0.04114856943488121,0.17031890153884888,-0.03834734112024307,0.07949527353048325,0.13076569139957428,-0.02216021530330181,-0.1743624061346054,0.10066118091344833,-0.04336604103446007,0.15576225519180298,0.10824921727180481,0.10781970620155334,0.09078525006771088,-0.09024883061647415,-0.09389566630125046,0.1748237907886505,-0.05765751376748085,-0.06779930740594864,-0.12989947199821472,-0.10773833841085434,-0.16778911650180817,-0.18792946636676788,0.10582280904054642,0.1502792239189148,0.23034211993217468,0.16207659244537354,-0.14015600085258484,-0.032932348549366,0.17407211661338806,-0.17158858478069305,0.1769283264875412,0.19313259422779083,0.13162265717983246,-0.11041539907455444,0.15376216173171997,0.016900233924388885,0.09438371658325195,-0.050652239471673965,0.06613672524690628,-0.21458983421325684,-0.086717389523983,0.1597461700439453,0.14043496549129486,0.09143861383199692,-0.03764887899160385,-0.19573837518692017,-0.16819685697555542,-0.10003241896629333,-0.11959755420684814,0.15097548067569733,0.050631001591682434,-0.08315149694681168,-0.08847098052501678,-0.16388985514640808,0.03619423136115074,-0.15787744522094727,-0.23549477756023407,0.02476421743631363,0.16812564432621002,0.16813193261623383,-0.12799890339374542,0.08679022639989853,-0.16034525632858276,-0.18217074871063232,-0.13492761552333832,0.2275230586528778,0.04163895174860954,-0.11750999093055725,-0.035838741809129715,0.1561829149723053,0.012526403181254864,0.15162956714630127,-0.17154452204704285,-0.09346934407949448,0.02545405924320221,0.04916171357035637,-0.20425964891910553,0.10105825215578079,0.03612653911113739,-0.02973775751888752,0.137618288397789,-0.13559283316135406,0.17293260991573334,0.05898864194750786,-0.08669621497392654,0.019383814185857773,-0.038133230060338974,-0.26155707240104675,-0.10849806666374207,0.019986767321825027,0.00973428227007389,-0.20385847985744476,-0.169103741645813,0.12773026525974274,-0.18926984071731567,-0.09470272809267044,-0.11039172112941742,0.10624958574771881,-0.026505865156650543,-0.2420349419116974,-0.021330583840608597,-0.014533093199133873,0.03229284659028053,-0.017336469143629074,-0.19672875106334686,0.02887473627924919,-0.1482367217540741,0.1232287734746933,-0.19544099271297455,0.11944220215082169,0.038558054715394974,-0.22580915689468384,0.2099975347518921,0.0759965181350708,-0.07464198023080826,-0.08024166524410248,0.15875200927257538,-0.12366864830255508,0.00790006946772337,-0.090339794754982,0.1535373330116272,0.10313288122415543,-0.19278669357299805,0.0525553822517395,-0.1421927511692047,-0.09567134827375412,-0.013998706825077534,0.13007189333438873,0.05267319828271866,-0.19950628280639648,-0.11562065780162811,-0.13896816968917847,0.09890325367450714,0.10075276345014572,-0.011539904400706291,0.11317816376686096,0.12845838069915771,0.21888591349124908,-0.06872933357954025,-0.04184006527066231,0.15876159071922302,-0.2098298817873001,-0.12410023808479309,0.2070617377758026,-0.02659250609576702,0.1625707894563675,-0.060852065682411194,-0.10820767283439636,-0.007660248316824436,-0.03148574382066727,0.05981669947504997,-0.09743047505617142,0.1719052493572235,0.06872262805700302,-0.1931174099445343,-0.03098326176404953,0.13717558979988098,-0.19094166159629822,0.11317726224660873,0.18479330837726593,-0.15092769265174866,-0.04730522632598877,-0.0972389206290245,0.13358187675476074,-0.2040693163871765,0.11890286952257156,0.12861043214797974,-0.032943446189165115,-0.08233838528394699,-0.014951727353036404,0.12769648432731628,0.0394400991499424,-0.15651826560497284,0.08638107776641846,-0.09695418179035187,-0.012136203236877918,-0.10815748572349548,0.11234747618436813,-0.05978681519627571,0.1329643428325653,-0.001877558184787631,-0.23839478194713593,-0.020127233117818832,-0.0695507675409317,0.15140151977539062,-0.024356894195079803,-0.02792453207075596,-0.008290864527225494,-0.05691695958375931,-0.12832395732402802,0.06027117371559143,0.13168476521968842,0.06520277261734009,-0.2617659866809845,-0.041687045246362686,-0.09411592036485672,-0.2773696780204773,-0.22582288086414337,0.06151404604315758,0.08417243510484695,-0.1349315047264099,-0.07552006095647812,-0.22895368933677673,-0.2580457031726837,-0.2262170910835266,0.05336637794971466,-0.12355711311101913,0.012564231641590595,-0.04802747443318367,-0.2645687758922577,-0.16009068489074707,0.11941643059253693,-0.12315013259649277,0.1536148339509964,0.010084777139127254,-0.11587762832641602,-0.02608533576130867,0.026894764974713326,-0.17887714505195618,0.03270689770579338,-0.09460199624300003,0.20511199533939362,-0.0783492773771286,0.008473517373204231,0.19809336960315704,-0.06746388971805573,0.0700434222817421,-0.1392093300819397,-0.17875982820987701,0.04258567467331886,-0.11316684633493423,0.09106846153736115,0.10086256265640259,0.017774326726794243,-0.2029789835214615,-0.2129773199558258,-0.14338912069797516,0.07592855393886566,-0.10026328265666962,0.019429484382271767,-0.19616587460041046,-0.024494221433997154,0.15795601904392242,0.012580485083162785,0.08852725476026535,-0.2079681009054184,-0.003415810177102685,-0.16610682010650635,-0.0023578042164444923,0.06617368012666702,0.0443047396838665,0.2052745521068573,0.17315202951431274,0.007815915159881115,0.15885475277900696,0.12745629251003265,0.004562254995107651,0.044701702892780304,0.008524684235453606,-0.1855466514825821,0.052414670586586,0.07033026963472366,0.08064734935760498,-0.018485095351934433,0.06221732497215271,-0.14729414880275726,-0.05277219042181969,0.0721312165260315,-0.026228196918964386,0.06582789868116379,-0.09723176807165146,0.020109431818127632,0.09942260384559631,0.027839090675115585,-0.02933935634791851,0.0955362468957901,-0.03552577644586563,0.20231793820858002,-0.23082874715328217,-0.046017102897167206,-0.09061837196350098,0.029620671644806862,-0.00386788765899837,-0.03248191624879837,0.16662490367889404,-0.1827382743358612,0.047877129167318344,0.1405939906835556,0.001516043907031417,-0.04530341923236847,0.22383557260036469,-0.10784019529819489,0.05565951392054558,0.1350318193435669,0.16089753806591034,-0.035860683768987656,-0.045530032366514206,0.12077012658119202,0.12896184623241425,-0.16635270416736603,-0.06791073083877563,0.004821043461561203,0.09509944170713425,-0.1260630041360855,0.21110717952251434,0.19807887077331543,0.08680181205272675,0.016998862847685814,0.10772887617349625,0.03896866366267204,0.17511703073978424,-0.07477883994579315,-0.006327933631837368,0.14737319946289062,0.07475072145462036,0.035928454250097275,-0.1572575569152832,-0.18803678452968597,0.00825340487062931,-0.08837169408798218,-0.05694364383816719,-0.17985780537128448,-0.0018383193528279662,-0.1561594009399414,-0.016763458028435707,0.2010386437177658,0.10281018912792206,-0.02453850395977497,-0.048471685498952866,0.012654032558202744,0.027651095762848854,-0.15678583085536957,-0.1046399176120758,0.19511468708515167,-0.09461202472448349,-0.05293787643313408,0.07163830101490021,-0.009867132641375065,0.029856573790311813,-0.17638570070266724,-0.1077246144413948,0.007094536442309618,0.11028960347175598,-0.10082179307937622,0.023709440603852272,0.08599737286567688,-0.09322546422481537,-0.013380552642047405,-0.09287463873624802,0.1477370709180832,-0.2241751104593277,-0.07680126279592514,-0.05244316905736923,0.061311837285757065,-0.1304837167263031,-0.08940697461366653,0.14270226657390594,0.05974390730261803,0.0747096836566925,0.0857369601726532,-0.1352708488702774,0.02830505557358265,0.0010756804840639234,-0.08401791006326675,-0.0865589827299118,-0.1086396872997284,-0.05713432654738426,0.06450358778238297,0.15412628650665283,0.017034249380230904,0.039985835552215576,0.15691864490509033,-0.03966279327869415,-0.08548944443464279,-0.039770375937223434,0.15421715378761292,-0.15487995743751526,0.21535122394561768,-0.19663448631763458,-0.020875845104455948,0.19635064899921417,0.1788697987794876,-0.03518152981996536,-0.05365525558590889,0.18282945454120636,-0.09228380024433136,0.08472161740064621,0.06253009289503098,-0.0069648465141654015,-0.06293553113937378,-0.06923384219408035,0.1935153305530548,0.15794135630130768,0.024976596236228943,0.0183254387229681,0.16138756275177002,0.08277077227830887,-0.1294950693845749,0.03655616566538811,-0.13149847090244293,-0.16748076677322388,-0.13999401032924652,0.1863170862197876,-0.08963943272829056,0.14235660433769226,-0.020405203104019165,-0.22868533432483673,0.02070494182407856,-0.01333788875490427,-0.07869942486286163,0.07311582565307617,0.09148141741752625,-0.015686947852373123,-0.04155605286359787,-0.08663078397512436,-0.16971047222614288,-0.01213342510163784,-0.0016161407111212611,0.11835905909538269,-0.029691245406866074,0.10142665356397629,-0.11262232810258865,-0.1859414428472519,-0.15950682759284973,-0.0853421539068222,0.07896743714809418,-0.05002932995557785,-0.04710444062948227,-0.07705290615558624,0.14583291113376617,0.11356602609157562,-0.04707774147391319,0.03800957277417183,0.09960421919822693,0.02671794220805168,0.07786437124013901,0.07373779267072678,0.018368154764175415,-0.18590666353702545,0.07874947786331177,-0.18050409853458405,-0.016934726387262344,-0.24543486535549164,-0.010657356120646,0.09845912456512451,-0.18709108233451843,-0.11648798733949661,-0.13748227059841156,-0.05492448806762695,0.1082662045955658,-0.21178025007247925,0.0246743094176054,-0.12099409848451614,-0.05545744299888611,0.06221499294042587,-0.11546100676059723,0.05198555439710617,-0.05810936540365219,-0.20021560788154602,-0.08101178705692291,-0.1981440633535385,-0.08817508071660995,-0.10807003825902939,-0.13738970458507538,0.0613689087331295,0.08317232877016068,-0.05509770289063454,-0.018042853102087975,0.02375211752951145,0.05335622653365135,-0.04431808739900589,0.10255500674247742,-0.061225276440382004,-0.16312147676944733,-0.13489210605621338,-0.020678438246250153,0.0397387333214283,-0.06711287796497345,0.14257724583148956,-0.02128075435757637,0.12909485399723053,-0.17082083225250244,0.05412832275032997,-0.1740800440311432,-0.19805806875228882,0.15573588013648987,-0.11266903579235077,-0.17356589436531067,-0.15820786356925964,0.07077108323574066,-0.03298530727624893,-0.016303284093737602,0.14063657820224762,-0.0008452942711301148,-0.13938473165035248,-0.08804327249526978,-0.10292917490005493,-0.12342264503240585,-0.1093173399567604,0.1651897132396698,-0.20842964947223663,0.07326486706733704,-0.116389200091362,-0.1656733602285385,0.12417902797460556,0.08910191059112549,-0.008126245811581612,0.030411789193749428,0.18152062594890594,0.005120722111314535,-0.09682251513004303,-0.018002796918153763,0.020553506910800934,-0.09663917124271393,0.1577150970697403,-0.18826445937156677,0.04932578280568123,-0.18940705060958862,0.04499552771449089,-0.000015826413800823502,0.13644975423812866,-0.10689564794301987,-0.21066485345363617,0.17435723543167114,-0.1705959439277649,-0.015450537204742432,-0.1350366622209549,-0.139968603849411,0.012519626878201962,-0.05084948241710663,0.0790608674287796,0.13225531578063965,0.15179210901260376,-0.14510729908943176,-0.13360826671123505,-0.2135467827320099,-0.060631465166807175,-0.1457005739212036,0.11939322203397751,0.040752112865448,-0.05196572095155716,-0.09848513454198837,0.034719791263341904,0.0986744835972786,-0.06477437168359756,-0.15571846067905426,0.11073356121778488,0.05991237983107567,-0.11094865202903748,-0.07705449312925339,0.03312868997454643,-0.16188763082027435,-0.19316135346889496,-0.14210830628871918,0.024997081607580185,-0.05837438255548477,-0.13064394891262054,-0.17862577736377716,0.041267234832048416,-0.03967776522040367,-0.14315183460712433,-0.02703196182847023,-0.08126108348369598,0.16214971244335175,0.18240021169185638,-0.19598844647407532,-0.06771261245012283,0.07731562852859497,0.1394677758216858,0.16485562920570374,-0.02529258467257023,0.1872698813676834,-0.006942959036678076,-0.15757238864898682,0.16192027926445007,-0.21673551201820374,-0.1335870623588562,-0.12574312090873718,0.046011365950107574,0.1285180300474167,0.14234411716461182,0.10543836653232574,-0.1871384233236313,0.1272244155406952,0.09120599180459976,0.1359625607728958,-0.0445529967546463,-0.09115483611822128,0.07026959955692291,-0.13237419724464417,-0.1574234962463379,-0.07578929513692856,-0.09011809527873993,-0.03456989303231239,0.08031918853521347,0.03729626536369324,0.1455181986093521,-0.036982037127017975,-0.1056441143155098,-0.06749482452869415,0.044857367873191833,-0.04240800440311432,-0.16137048602104187,-0.15463970601558685,-0.09239299595355988,0.16086620092391968,-0.028028035536408424,0.05663544312119484,0.07501831650733948,-0.04083837941288948,0.0667097195982933,0.10724974423646927,-0.20950007438659668,-0.038120489567518234,0.027905818074941635,-0.24757330119609833,-0.11032820492982864,0.006135590840131044,-0.17111018300056458,0.03746414929628372,-0.26123276352882385,-0.044050510972738266,-0.15494301915168762,0.051700182259082794,0.07480346411466599,-0.010991973802447319,-0.1524333506822586,-0.05580376833677292,-0.012911403551697731,-0.10800440609455109,-0.21913771331310272,-0.07156646996736526,-0.024681497365236282,0.13771143555641174,0.07362283021211624,0.13348734378814697,0.037623073905706406,0.0014940097462385893,-0.049427151679992676,0.06809008121490479,-0.10750100761651993,0.10643956810235977,-0.11169244349002838,-0.01863544061779976,-0.17147158086299896,-0.25669142603874207,0.11295990645885468,0.005420167930424213,0.009416976943612099,-0.030214574187994003,-0.22157318890094757,0.12324970960617065,-0.1416340321302414,-0.041957952082157135,0.19084960222244263,-0.08944427967071533,-0.14699506759643555,-0.22701284289360046,-0.07292905449867249,0.13468824326992035,0.12629711627960205,-0.16178466379642487,-0.029672536998987198,0.14641264081001282,-0.14340990781784058,0.0681181326508522,-0.0660732239484787,-0.030931396409869194,-0.050020549446344376,-0.07783468812704086,0.08713234961032867,0.1561516672372818,-0.0523810088634491,0.0807785764336586,-0.02856646664440632,-0.17046694457530975,-0.05242170765995979,-0.09504599124193192,0.050385985523462296,0.18365414440631866,-0.20444966852664948,0.10774187743663788,-0.05253375694155693,-0.03391457721590996,0.14699995517730713,0.11987944692373276,-0.11590628325939178,-0.2280813306570053,0.1057286411523819,-0.17346109449863434,-0.005098860710859299,0.1664435714483261,-0.12639661133289337,-0.16378773748874664,-0.12845180928707123,0.14543230831623077,0.2132480889558792,0.11538170278072357,-0.1471872627735138,-0.2600999176502228,-0.23860733211040497,-0.1014186292886734,-0.08941958844661713,-0.1572529375553131,-0.18749722838401794,0.10997135937213898,0.11553312838077545,-0.2289322018623352,-0.16805021464824677,0.12473404407501221,-0.12294383347034454,-0.22996602952480316,-0.18569286167621613,0.14556506276130676,-0.17324873805046082,-0.17478588223457336,0.19178356230258942,0.09141641110181808,-0.05809823051095009,0.09272688627243042,-0.06725088506937027,0.15841257572174072,-0.06846602261066437,0.013540972955524921,-0.17301461100578308,0.16522139310836792,-0.10034622251987457,-0.004425613675266504,0.08527065813541412,0.05794920027256012,0.15623843669891357,-0.06407533586025238,0.10411609709262848,-0.11943317949771881,0.08305561542510986,-0.17747005820274353,0.08414240926504135,-0.05482817441225052,0.07884685695171356,0.011488781310617924,-0.07192959636449814,-0.16928277909755707,-0.10772380977869034,-0.041606154292821884,0.18651147186756134,0.1111358031630516,-0.10395487397909164,0.1529845893383026,-0.09410765022039413,-0.13298767805099487,0.03825152665376663,-0.10815566033124924,0.04184387996792793,-0.023735353723168373,0.0986136645078659,0.06892924755811691,-0.22179314494132996,-0.05052795261144638,-0.2073075920343399,-0.17853818833827972,-0.16636313498020172,0.18496589362621307,0.1511496603488922,-0.1549275517463684,-0.03479394689202309,-0.04222586378455162,-0.208879753947258,0.10686182975769043,-0.12191462516784668,0.0692586600780487,0.02012036181986332,-0.008491949178278446,0.057204630225896835,0.07478299736976624,0.0356164276599884,-0.004505212418735027,-0.10920597612857819,0.13511796295642853,0.09021519869565964,-0.13200218975543976,0.07668919116258621,0.12389051169157028,0.14189106225967407,-0.1082775816321373,-0.10089830309152603,0.13850337266921997,-0.10550373047590256,0.15706850588321686,-0.18984800577163696,0.06166262924671173,0.027355195954442024,-0.17452698945999146,-0.0943954661488533,-0.17998142540454865,0.07313039153814316,0.053893253207206726,0.08523744344711304,-0.17367327213287354,0.019877443090081215,0.052415329962968826,-0.0322338305413723,0.04960803687572479,-0.05154833197593689,0.09238293021917343,-0.10564462095499039,-0.095582015812397,-0.2475730925798416,0.17145699262619019,-0.11049683392047882,-0.2358657419681549,-0.19727317988872528,0.10529009252786636,-0.17382916808128357,-0.22148951888084412,-0.068076491355896,0.06359925866127014,-0.17511878907680511,0.15505334734916687,0.1384846717119217,0.15236864984035492,0.14625322818756104,-0.16615460813045502,0.0313582569360733,-0.2606396973133087,0.12234820425510406,0.13834646344184875,-0.042926665395498276,0.053545575588941574,0.17255033552646637,-0.09257813543081284,-0.04176674783229828,-0.1575765311717987,0.01484916266053915,-0.003370468271896243,-0.021990912035107613,0.09035889059305191,-0.03812617063522339,0.04224450886249542,0.15673884749412537,-0.2333429902791977,0.004806819837540388,-0.09522011876106262,0.11514860391616821,-0.0733947604894638,-0.08671338111162186,-0.003984304144978523,-0.10243832319974899,0.05967514216899872,0.029445353895425797,-0.0784335732460022,0.10008200258016586,-0.07312346249818802,-0.12680567800998688,-0.04811292886734009,-0.18467099964618683,-0.0008988433401100338,-0.18200606107711792,0.12495098263025284,0.03886592760682106,0.024924948811531067,-0.12393075972795486,-0.1105828508734703,-0.13278277218341827,-0.12350339442491531,-0.19781729578971863,-0.13538441061973572,-0.23106124997138977,0.005460778251290321,-0.030811123549938202,0.015780044719576836,-0.07947918027639389,-0.03881467506289482,-0.1476820856332779,0.15222905576229095,-0.09683628380298615,-0.021574096754193306,0.06701228022575378,0.017835309728980064,-0.028383741155266762,0.21300093829631805,-0.1227431520819664,-0.004815368447452784,-0.13057495653629303,-0.11457005143165588,0.11394505202770233,-0.11548873037099838,-0.09926231950521469,-0.07702168822288513,0.07474219053983688,-0.08132625371217728,-0.00006623860099352896,-0.0014138761907815933,0.06523232161998749,-0.07951434701681137,0.14276781678199768,-0.17102815210819244,-0.17914366722106934,-0.19248369336128235,0.05138276144862175,0.06923960894346237,0.001399763161316514,0.14732950925827026,-0.11126420646905899,-0.16223709285259247,0.14715386927127838,0.22076880931854248,-0.17306354641914368,0.04780421778559685,-0.05451672896742821,-0.011891991831362247,-0.041736699640750885,0.04105283319950104,0.1411781758069992,-0.018806684762239456,0.19312749803066254,-0.20368503034114838,-0.09774017333984375,0.11549745500087738,0.11872797459363937,0.04456302523612976,-0.08369975537061691,-0.05497005209326744,-0.05049874261021614,0.18435174226760864,0.020603269338607788,-0.04667024314403534,0.09892860054969788,0.08901400119066238,-0.12595181167125702,-0.09970960766077042,-0.026222577318549156,0.1970698982477188,-0.13553236424922943,0.1417214423418045,0.026643039658665657,0.12948864698410034,-0.07529793679714203,-0.018006084486842155,0.16969755291938782,0.0547824427485466,0.09294991195201874,0.050919678062200546,-0.003375900909304619,0.11462265998125076,0.09939336031675339,0.028574006631970406,0.11035551875829697,0.13235235214233398,-0.18083684146404266,-0.04977642372250557,-0.08441022038459778,-0.10131771862506866,-0.07786895334720612,-0.16591185331344604,-0.18103282153606415,-0.01709851436316967,-0.16760821640491486,0.15592971444129944,0.08352484554052353,-0.1743445247411728,0.10817422717809677,0.0710146352648735,-0.12890055775642395,0.02369569055736065,-0.12338811904191971,-0.14600041508674622,0.06935741007328033,0.015644945204257965,-0.05785016342997551,0.07106465101242065,0.057990554720163345,-0.1596624255180359,-0.022646937519311905,0.07116410881280899,0.035119377076625824,-0.20773783326148987,0.019047722220420837,0.15820235013961792,0.10996270179748535,0.11359906196594238,-0.17749415338039398,0.05225571244955063,-0.09575086086988449,-0.032874319702386856,0.12713705003261566,-0.003463906468823552,0.14564158022403717,-0.11007958650588989,-0.2380402833223343,-0.23204129934310913,-0.07125471532344818,-0.2548089921474457,-0.012790697626769543,-0.006280391477048397,0.10874002426862717,-0.19346405565738678,-0.08209561556577682,0.023934664204716682,-0.08335673063993454,-0.044108688831329346,-0.007366522680968046,-0.2169092744588852,0.0416153259575367,-0.16367703676223755,0.05899086222052574,-0.18339481949806213,-0.0948171466588974,-0.2001919150352478,0.01857834681868553,-0.09615328162908554,0.05607270821928978,-0.05586032569408417,-0.03874949738383293,-0.14427340030670166,-0.16180983185768127,0.04069271683692932,0.09099186211824417,-0.05854788422584534,0.028904741629958153,0.0012663118541240692,0.13941502571105957,-0.1445874720811844,-0.20997919142246246,-0.20746901631355286,-0.11283108592033386,-0.15210051834583282,0.0696457251906395,0.08129563182592392,-0.18915876746177673,-0.12481167167425156,0.05841362103819847,0.06716014444828033,0.13229548931121826,-0.09572653472423553,0.04613367095589638,-0.17629419267177582,0.009507793001830578,-0.14271023869514465,-0.1461292803287506,-0.19840450584888458,-0.12723921239376068,0.09611999988555908,-0.03210378810763359,-0.010723410174250603,0.013223201967775822,-0.10177555680274963,0.14527152478694916,-0.03516848757863045,-0.07835002988576889,-0.10450611263513565,-0.18370938301086426,-0.14848542213439941,0.13528263568878174,-0.06491640955209732,0.10021200031042099,0.07498855888843536,-0.031731098890304565,-0.19024506211280823,0.13634631037712097,0.08747143298387527,-0.09461154788732529,-0.2409893125295639,-0.0002326435351278633,-0.07927137613296509,-0.2451869547367096,0.04306700453162193,-0.15296491980552673,-0.1259138137102127,0.10993894189596176,-0.16775614023208618,-0.14222760498523712,-0.07824430614709854,-0.07889512926340103,-0.08404438942670822,-0.08092153817415237,0.09701273590326309,0.07777842879295349,-0.18398986756801605,0.028539607301354408,-0.0301503948867321,-0.19782505929470062,-0.23994848132133484,0.0753227174282074,0.12687915563583374,-0.042606741189956665,-0.125401109457016,-0.07314909994602203,-0.21230825781822205,-0.26317256689071655,-0.1806488186120987,-0.13137294352054596,-0.05466281995177269,-0.23051531612873077,0.04780811816453934,-0.003388844896107912,0.09937828779220581,0.1735619455575943,0.05992504209280014,0.17199906706809998,0.047349341213703156,0.0424673929810524,-0.09876898676156998,0.02952730283141136,0.052915219217538834,-0.027476171031594276,-0.07213658839464188,-0.08536436408758163,-0.12424550950527191,-0.05455588549375534,-0.1366075873374939,-0.11441858857870102,-0.004676735494285822,-0.04019610956311226,-0.11596468091011047,-0.15848258137702942,-0.1953200101852417,0.035625144839286804,0.10339030623435974,0.09963417053222656,-0.009882016107439995,-0.04329932481050491,0.05113371089100838,-0.1306229531764984,-0.12658512592315674,-0.16293272376060486,-0.14271968603134155,-0.08855943381786346,0.07682950049638748,-0.0891316682100296,-0.19484668970108032,0.06684186309576035,-0.18263943493366241,0.16807147860527039,-0.07206712663173676,-0.12538079917430878,0.03708237409591675,-0.1166682168841362,0.11563041806221008,-0.096867136657238,-0.17816023528575897,0.17891332507133484,-0.2236877977848053,-0.189408540725708,-0.2333049327135086,0.13462145626544952,-0.12450199574232101,0.03615424036979675,-0.15931159257888794,-0.16595667600631714,0.10231676697731018,-0.17204608023166656,0.1167895570397377,-0.13639679551124573,-0.21326526999473572,0.059988293796777725,-0.1896243840456009,-0.04863951355218887,-0.05725923925638199,-0.0019114697352051735,-0.2120690494775772,-0.027025284245610237,-0.06166410818696022,-0.10177846997976303,0.09320692718029022,-0.22448793053627014,-0.1178416833281517,0.017132902517914772,0.05651000142097473,-0.009146921336650848,-0.17063389718532562,0.13873299956321716,0.004460553172975779,-0.005174614023417234,0.09802941232919693,-0.1254977583885193,-0.13657133281230927,0.0728478655219078,0.03127758949995041,-0.018899792805314064,0.035683706402778625,-0.06763787567615509,0.14918020367622375,-0.11431918293237686,0.17422495782375336,0.13063640892505646,0.0335790254175663,-0.004636884666979313,0.026698429137468338,0.10130539536476135,0.010156979784369469,-0.03285539895296097,0.12000308930873871,0.15857729315757751,-0.1970672756433487,-0.16454076766967773,0.047868017107248306,0.06205447390675545,-0.005060917232185602,0.004118301440030336,-0.11540590226650238,-0.1516343653202057,-0.15081727504730225,0.10081460326910019,-0.025153186172246933,-0.1871538609266281,0.12716013193130493,-0.13411490619182587,-0.1230049729347229,-0.14205332100391388,0.05189656838774681,0.07650911808013916,0.015023579820990562,-0.20991425216197968,0.126916766166687,-0.09795232862234116,-0.09179910272359848,0.16022419929504395,0.0989747866988182,-0.20011332631111145,0.20989085733890533,0.037497926503419876,-0.1373087465763092,0.1747250109910965,-0.09976214170455933,-0.026869002729654312,0.1301804631948471,0.17504209280014038,0.037652842700481415,-0.02793409675359726,-0.06534348428249359,0.1820303350687027,0.14309075474739075,-0.03871819004416466,0.1212705746293068,0.1613972932100296,0.027950240299105644,0.08820419013500214,0.02395309880375862,-0.16003471612930298,0.05022897943854332,0.13082286715507507,0.032748181372880936,-0.16628696024417877,0.09121902287006378,-0.02684895135462284,0.13003875315189362,0.02324792928993702,0.052114762365818024,-0.12954045832157135,-0.06938033550977707,0.09261943399906158,0.12204578518867493,-0.214970663189888,-0.14419490098953247,-0.18504877388477325,0.0527966134250164,0.06228078529238701,0.18431268632411957,-0.11510827392339706,0.19494839012622833,0.15633320808410645,-0.1793927103281021,0.15097524225711823,-0.10263097286224365,-0.24067668616771698,0.0760551393032074,-0.26454347372055054,-0.12170540541410446,0.14919839799404144,0.12449817359447479,-0.1668863743543625,0.1035115197300911,0.09199967980384827,0.10923827439546585,0.1471194624900818,-0.10941865295171738,-0.19196125864982605,0.10476185381412506,-0.07043077796697617,-0.057964153587818146,-0.028794897720217705,0.16036491096019745,0.07803285866975784,0.056237854063510895,0.02127343975007534,0.16924820840358734,0.06290160119533539,-0.12091942876577377,-0.13662424683570862,-0.1259204000234604,-0.1746882200241089,-0.1635851413011551,-0.04326348006725311,-0.08241000026464462,0.001686957897618413,0.002934460062533617,-0.109994076192379,-0.08023657649755478,-0.06306258589029312,-0.0689324140548706,0.11054164916276932,0.16727276146411896,-0.01403579581528902,-0.09229538589715958,0.09263434261083603,0.11025591194629669,0.10738026350736618,0.1565283089876175,-0.1120561733841896,0.03929368406534195,-0.035346731543540955,-0.1797209233045578,0.1387833058834076,0.021657859906554222,-0.10725127905607224,0.17961135506629944,-0.20619741082191467,0.09433456510305405,-0.19909973442554474,0.04985733702778816,0.15054328739643097,-0.16926789283752441,-0.1875249743461609,-0.00032189794001169503,0.21002210676670074,0.10951821506023407,-0.08563076704740524,-0.0683613196015358,-0.09412525594234467,-0.15555495023727417,0.17182882130146027,-0.045271988958120346,0.014951995573937893,-0.033044084906578064,-0.15433016419410706,0.009295515716075897,0.03910652548074722,0.042297638952732086,-0.021479368209838867,-0.17937399446964264,-0.09467878937721252,-0.10153429210186005,0.025390997529029846,0.027530411258339882,0.005663163494318724,0.10914409160614014,0.18151624500751495,-0.08247543126344681,0.06535627692937851,-0.0035323949996382,-0.17315717041492462,0.12587271630764008,-0.191364586353302,0.0019312686054036021,0.104194775223732,-0.24787816405296326,-0.12139991670846939,0.1623522937297821,0.07120407372713089,-0.150512233376503,-0.1369926482439041,-0.19625583291053772,-0.20907199382781982,0.11931775510311127,-0.21617548167705536,-0.04798511043190956,0.03833523020148277,0.055333212018013,0.06828096508979797,-0.07360081374645233,-0.04109279438853264,-0.1008094921708107,0.04304555431008339,-0.10815148800611496,-0.21650657057762146,0.16005034744739532,-0.09034870564937592,0.0064895725809037685,-0.10932829231023788,0.20730121433734894,0.03957173973321915,0.08705199509859085,-0.1709139049053192,-0.024695537984371185,-0.048691682517528534,0.12497711181640625,-0.2358696609735489,-0.1425953209400177,0.09148697555065155,0.01758592762053013,0.06787606328725815,-0.08001942187547684,0.01858983375132084,-0.19098655879497528,0.03946392983198166,-0.03749087080359459,-0.09695448726415634,0.07972252368927002,-0.005793862510472536,0.12329938262701035,-0.056069765239953995,-0.0833292230963707,0.16034524142742157,0.1423480212688446,-0.0697018951177597,0.11873932182788849,-0.06344252824783325,0.16144675016403198,-0.18856889009475708,-0.07862510532140732,-0.08794274181127548,0.07006548345088959,-0.20349694788455963,-0.13885344564914703,-0.08999447524547577,0.11679991334676743,0.09602172672748566,-0.18147698044776917,0.013358540832996368,-0.031288985162973404,0.000040799503040034324,-0.17198742926120758,0.10535954684019089,0.10028184205293655,0.14539922773838043,0.09168024361133575,0.11124277859926224,-0.12704811990261078,-0.021885491907596588,0.08223643153905869,-0.2011616826057434,-0.12410226464271545,0.014871458522975445,0.07324590533971786,-0.08898480981588364,-0.10850512981414795,0.060858242213726044,0.13743998110294342,0.061208005994558334,-0.14578552544116974,0.11020959913730621,0.15221135318279266,-0.002221260452643037,0.06463766098022461,0.15826144814491272,0.16021554172039032,0.07670890539884567,-0.18804997205734253,-0.1307753026485443,0.15882159769535065,-0.18460381031036377,-0.17028272151947021,-0.1264127641916275,-0.15354230999946594,-0.23175375163555145,0.16808688640594482,-0.08507686108350754,0.1423642635345459,-0.18349970877170563,-0.14790579676628113,0.06523352116346359,-0.13688866794109344,-0.022657135501503944,-0.15570078790187836,0.029090221971273422,-0.050946321338415146,0.024151848629117012,0.10681518912315369,-0.15992146730422974,0.06984837353229523,-0.09022834897041321,-0.006177879869937897,0.11143249273300171,0.04250526800751686,-0.15089568495750427,-0.19164326786994934,-0.16787545382976532,0.09033378213644028,0.11398031562566757,0.1483316570520401,-0.07783429324626923,-0.14303378760814667,0.21564781665802002,0.1520940363407135,0.05998186022043228,0.09339801967144012,-0.07986319065093994,0.12213872373104095,0.08197683840990067,-0.04971792548894882,0.01906026154756546,0.03187814727425575,0.08316382020711899,-0.006585077382624149,0.13559117913246155,-0.17521686851978302,-0.12790150940418243,-0.08294544368982315,-0.1319604218006134,0.0926855131983757,-0.12307952344417572,0.0662817433476448,-0.0018855823436751962,-0.05880175530910492,-0.15880310535430908,-0.11323604732751846,-0.10471677035093307,-0.0478336364030838,-0.23086611926555634,-0.010274501517415047,-0.06247811019420624,-0.020861439406871796,-0.054712023586034775,0.20229879021644592,-0.029328595846891403,-0.028526561334729195,-0.06570128351449966,0.16745832562446594,-0.15793080627918243,-0.011482683010399342,-0.16359980404376984,-0.09316582977771759,0.01313346903771162,-0.06453384459018707,-0.1865863800048828,0.1456061154603958,0.03282612934708595,0.10916076600551605,-0.03578346595168114,-0.15840698778629303,0.10711225867271423,0.10888057947158813,-0.023794032633304596,0.008912081830203533,0.07301586121320724,-0.1837688684463501,-0.15264564752578735,-0.0006065976340323687,0.07807616889476776,-0.1801140308380127,0.06662926822900772,-0.1893436163663864,-0.18699659407138824,0.1844911277294159,-0.08238385617733002,0.1017274558544159,0.021981924772262573,0.1025794968008995,-0.018770286813378334,0.09817559272050858,-0.24343794584274292,0.15269631147384644,-0.014656659215688705,0.11511362344026566,0.14785251021385193,0.04790570214390755,-0.22113759815692902,-0.010342158377170563,0.04905140772461891,-0.05450839176774025,-0.15598708391189575,-0.16395367681980133,-0.06991234421730042,-0.14370766282081604,0.11806505918502808,0.11602568626403809,-0.041350219398736954,0.10743971168994904,-0.1834975779056549,-0.1056327149271965,0.19116859138011932,-0.14660859107971191,-0.10149247944355011,0.10310592502355576,-0.04722236841917038,-0.18821826577186584,-0.16623879969120026,0.13664023578166962,0.0796142965555191,-0.18437479436397552,-0.14474457502365112,0.11954012513160706,0.14854615926742554,-0.22453218698501587,-0.18790589272975922,-0.0638369619846344,-0.04078124091029167,0.09272974729537964,-0.21095046401023865,-0.21188142895698547,-0.24806293845176697,-0.1280636340379715,-0.21281008422374725,-0.03620269149541855,-0.09209612756967545,0.08141887933015823,-0.1263624131679535,0.02183437906205654,0.05404586344957352,-0.06486374139785767,-0.028787512332201004,-0.03224050626158714,0.2961616516113281,0.07548993080854416,0.08434277772903442,0.05300765857100487,0.12795208394527435,0.14977425336837769,0.090743288397789,-0.09627091139554977,-0.09231884032487869,0.1652664691209793,-0.08431553840637207,-0.048161860555410385,0.18045519292354584,-0.06876672804355621,-0.053198978304862976,-0.03232619911432266,0.10752679407596588,-0.0858721137046814,-0.21937423944473267,0.16522957384586334,0.06907272338867188,0.050159256905317307,0.06087000295519829,-0.10432317107915878,-0.04432319849729538,0.07131127268075943,-0.16937552392482758,0.17947962880134583,-0.07192175090312958,-0.0325322151184082,0.032494738698005676,0.11521154642105103,-0.14164519309997559,0.08573078364133835,0.00772492028772831,0.05590647831559181,0.16947616636753082,-0.01470206305384636,-0.0287475548684597,-0.05208294466137886,0.08329997956752777,-0.019445760175585747,-0.02589680440723896,-0.012712405063211918,-0.13430291414260864,-0.13258396089076996,-0.10981156677007675,0.11525733768939972,0.14849282801151276,-0.14443270862102509,0.0065686944872140884,0.0193175021559,0.05227496474981308,-0.16436804831027985,0.00651994813233614,-0.03749598190188408,-0.028204072266817093,-0.20893973112106323,0.07385692745447159,-0.10777714103460312,-0.01116965152323246,0.10003241896629333,-0.09273936599493027,-0.17673757672309875,0.058197781443595886,0.09599481523036957,-0.011045467108488083,-0.2097199708223343,0.002782287774607539,-0.01929757371544838,-0.08204585313796997,0.09066250920295715,0.1244720071554184,-0.1406748741865158,-0.22734542191028595,-0.07001516222953796,0.12224933505058289,0.06261543184518814,0.010169122368097305,-0.17279431223869324,-0.12198490649461746,-0.13136489689350128,-0.16199129819869995,-0.2057083696126938,0.03684433922171593,-0.019964301958680153,-0.2777862846851349,-0.19979842007160187,-0.1479683369398117,-0.18576449155807495,-0.1849670708179474,0.06291426718235016,0.0663309171795845,-0.07748203724622726,-0.07940172404050827,-0.17314332723617554,-0.15430545806884766,0.1333230882883072,0.1833551973104477,0.08986204117536545,-0.21181558072566986,-0.13812264800071716,0.15603254735469818,0.025677768513560295,-0.17527537047863007,0.17639656364917755,0.058818139135837555,0.12108545750379562,0.08220980316400528,0.053097713738679886,-0.05890507996082306,-0.010290287435054779,-0.10750378668308258,0.03383571654558182,-0.1326266974210739,0.11227190494537354,-0.1346130073070526,-0.18711157143115997,-0.15130914747714996,-0.1855311542749405,0.12420955300331116,-0.08535169810056686,-0.10362596809864044,0.15234814584255219,0.1715630143880844,-0.17183595895767212,-0.005191200412809849,-0.2082068920135498,0.014642255380749702,0.027754243463277817,-0.12804299592971802,-0.0482015535235405,0.026473039761185646,-0.09369367361068726,0.03581209480762482,0.18878495693206787,-0.04085991159081459,-0.1797262281179428,0.024009229615330696,-0.1570696085691452,-0.1156868115067482,0.14399179816246033,0.03337666019797325,0.018300721421837807,0.06282888352870941,-0.24473786354064941,0.05125667527318001,0.07591752707958221,-0.08348910510540009,0.18243800103664398,-0.010352948680520058,-0.12634506821632385,0.05979396402835846,-0.14598171412944794,0.08708319813013077,-0.2030022293329239,0.009284906089305878,-0.054689209908246994,0.06230134144425392,-0.1258963793516159,0.01705002784729004,0.09692823141813278,-0.1413184255361557,0.09467539191246033,0.12180175632238388,0.10296621173620224,0.05845107138156891,-0.03725437819957733,-0.0986267626285553,0.11332906782627106,-0.20496323704719543,-0.17300091683864594,-0.09989983588457108,-0.10534905642271042,0.09773716330528259,-0.08095118403434753,-0.035486169159412384,0.05988579988479614,0.002915013348683715,-0.17217378318309784,0.1453319787979126,0.11893308162689209,-0.1631358563899994,0.06789799779653549,-0.15277370810508728,0.1788834184408188,-0.06446709483861923,-0.09815817326307297,0.07280105352401733,0.036985933780670166,0.07646630704402924,0.013768866658210754,-0.09006493538618088,-0.052329886704683304,-0.2107875794172287,-0.12917859852313995,-0.03730357065796852,0.11706966161727905,-0.15933535993099213,-0.08946152031421661,-0.11083551496267319,-0.18535548448562622,-0.03610597923398018,-0.03324684500694275,-0.11328919231891632,-0.17495788633823395,-0.18621352314949036,-0.13035468757152557,-0.08594117313623428,0.0891999900341034,-0.13784655928611755,-0.10801032185554504,-0.036940716207027435,-0.15355144441127777,0.17109064757823944,-0.024773767217993736,-0.06298545747995377,0.03645011782646179,0.1362150013446808,0.15784989297389984,0.1401427835226059,0.10468429327011108,-0.09940050542354584,0.18101181089878082,0.160566508769989,-0.06362295150756836,0.11049830168485641,-0.16970646381378174,0.15060651302337646,-0.11130515486001968,0.021778235211968422,0.026342589408159256,-0.0778782069683075,-0.0025869456585496664,0.05863639712333679,0.008465784601867199,-0.13621187210083008,-0.11778976023197174,-0.002758579794317484,0.02232254296541214,0.02235325798392296,-0.013672789558768272,0.10120759159326553,-0.16618922352790833,0.020723450928926468,-0.21557459235191345,-0.18487796187400818,0.01167518924921751,-0.060708776116371155,-0.01161150261759758,-0.14531777799129486,-0.13609537482261658,0.18683569133281708,-0.16230148077011108,-0.19837339222431183,0.09813734889030457,-0.05604715645313263,-0.15356303751468658,-0.048619337379932404,0.04808248206973076,0.16581551730632782,-0.040121011435985565,0.1279538869857788,-0.10309101641178131,-0.08420129120349884,-0.19461840391159058,0.07343767583370209,0.15163353085517883,-0.05745829641819,-0.11575224250555038,-0.04430733621120453,-0.07250308245420456,-0.214193195104599,-0.028870100155472755,0.137718066573143,0.1468750536441803,-0.021966421976685524,-0.05710887163877487,-0.1612306535243988,-0.02827288582921028,-0.11660969257354736,-0.06180216744542122,0.11713603883981705,-0.04800029844045639,0.22588372230529785,0.055855341255664825,0.031381696462631226,-0.1418967992067337,-0.10222509503364563,0.20030932128429413,-0.1370084285736084,-0.20949751138687134,-0.17349766194820404,-0.024945730343461037,-0.014395695179700851,-0.0673457607626915,0.04396248608827591,0.017815401777625084,-0.14215578138828278,-0.13771507143974304,-0.03201594576239586,0.16246606409549713,-0.17884498834609985,0.10530135035514832,0.09592921286821365,-0.14858727157115936,0.02832096256315708,0.09271518886089325,-0.11134462803602219,-0.020829226821660995,-0.21957263350486755,0.0725618302822113,-0.21079926192760468,-0.07262730598449707,0.014021585695445538,-0.08407219499349594,0.0065080551430583,-0.030908670276403427,0.1077982634305954,0.06765705347061157,-0.0056103793904185295,-0.1403409242630005,-0.06011960282921791,0.18294978141784668,0.09195803105831146,0.1002155989408493,-0.07187169790267944,0.10018357634544373,-0.14502876996994019,-0.025457138195633888,-0.16523154079914093,0.05903136730194092,0.050021227449178696,-0.12140976637601852,-0.15116706490516663,-0.048058025538921356,-0.0424860417842865,-0.2358597368001938,0.06049627065658569,0.10302123427391052,-0.19974304735660553,0.024069568142294884,-0.12570565938949585,0.055030837655067444,-0.12725985050201416,0.0664302334189415,0.16415607929229736,0.10232555121183395,0.03884662687778473,0.13012133538722992,0.030869659036397934,0.16257581114768982,-0.16223183274269104,-0.12108802795410156,0.0915180966258049,-0.15484705567359924,-0.21717073023319244,-0.1620761752128601,-0.15672887861728668,0.033029716461896896,0.09532500058412552,-0.037552252411842346,-0.02563914656639099,-0.112810879945755,-0.2328750193119049,0.004629501141607761,-0.17723175883293152,0.020997874438762665,-0.13521797955036163,-0.18356585502624512,-0.1427565962076187,-0.13506752252578735,-0.20620319247245789,-0.10678128898143768,-0.1125284880399704,0.15806275606155396,-0.07249709963798523,0.10813453048467636,-0.13698123395442963,0.07345100492238998,-0.017226308584213257,-0.06386590749025345,-0.14547637104988098,-0.1373344361782074,0.0032242380548268557,0.04935960844159126,-0.13141512870788574,-0.015169350430369377,-0.003147726645693183,0.12468227744102478,0.01923552341759205,0.05549126863479614,0.1522514671087265,-0.06037008762359619,-0.15559251606464386,0.1348455399274826,-0.00946518499404192,-0.14618806540966034,-0.12875248491764069,-0.017131153494119644,-0.008383101783692837,-0.15039551258087158,-0.06987108290195465,0.11472497135400772,0.18930953741073608,0.2342572659254074,0.15670761466026306,-0.06628452986478806,0.06453285366296768,-0.15228107571601868,0.06828601658344269,-0.027665168046951294,0.08774851262569427,0.2190769612789154,0.17741645872592926,-0.22886556386947632,-0.012024801224470139,-0.1687985211610794,0.22966164350509644,-0.018111253157258034,-0.03442641720175743,0.022252462804317474,-0.1268042027950287,0.1540519744157791,0.09936738759279251,0.1116722971200943,0.022404896095395088,-0.14496473968029022,0.1925906538963318,-0.19375371932983398,-0.13768327236175537,0.17880713939666748,0.016049260273575783,-0.1113320142030716,0.01024504005908966,0.01157897524535656,-0.061232637614011765,-0.2563944458961487,-0.17001201212406158,-0.0885024443268776,-0.010503193363547325,-0.03592415526509285,-0.09467370063066483,0.10701709240674973,0.02398909069597721,-0.19270852208137512,-0.04898276925086975,0.0783948078751564,-0.0460662879049778,0.0032039189245551825,0.10030103474855423,0.20971225202083588,-0.12544408440589905,-0.04065670445561409,-0.17232421040534973,-0.00950495433062315,0.03896918147802353,-0.09612473845481873,-0.18699829280376434,0.1823931783437729,0.14113672077655792,-0.1733061522245407,-0.2073783427476883,-0.12851814925670624,-0.14199627935886383,-0.1785552203655243,0.08745938539505005,-0.13217954337596893,0.1464412808418274,0.015391544438898563,0.0855080783367157,0.14380639791488647,0.008051474578678608,-0.13920162618160248,0.22419020533561707,0.16113489866256714,0.011198748834431171,0.04657679423689842,-0.06268623471260071,-0.09688113629817963,-0.06265249103307724,-0.01146537996828556,-0.17128069698810577,0.13483722507953644,0.05225270986557007,-0.2035343497991562,0.09984733909368515,0.14917510747909546,0.04722274839878082,0.1460431069135666,-0.05802207440137863,0.0009067550417967141,-0.17643068730831146,0.11486614495515823,-0.10847077518701553,-0.1520557999610901,-0.09937532991170883,0.10421589761972427,-0.25275859236717224,-0.08000810444355011,0.06820148974657059,0.10523087531328201,-0.022654114291071892,0.0955510213971138,0.047528259456157684,-0.11443246901035309,0.09051785618066788,-0.12027917057275772,-0.019185645505785942,0.1347752809524536,0.03614893555641174,-0.014967896975576878,0.0014446272980421782,0.0037285634316504,-0.032132890075445175,-0.15038391947746277,-0.10981524735689163,-0.1930689811706543,0.1140618547797203,-0.011674999259412289,-0.04220316931605339,-0.14221890270709991,-0.2850930094718933,-0.08251624554395676,0.10481282323598862,0.08259192109107971,-0.20677649974822998,-0.03423772752285004,0.05729655176401138,0.13212189078330994,-0.2395579218864441,-0.07685323804616928,0.08247505128383636,-0.05836325138807297,-0.0029906071722507477,0.1421838253736496,-0.08019184321165085,0.12622085213661194,-0.07099614292383194,-0.12169190496206284,-0.06785087287425995,-0.14355166256427765,-0.15815873444080353,-0.1555544137954712,0.008655887097120285,0.016203707084059715,-0.09335461258888245,-0.179050013422966,-0.18490242958068848,0.03388192877173424,-0.15545381605625153,-0.06370870023965836,-0.013994707725942135,-0.2059037685394287,-0.15892137587070465,-0.19593723118305206,-0.21629124879837036,-0.03366684913635254,-0.23253534734249115,-0.22083353996276855,-0.07154854387044907,0.12986066937446594,-0.1569516360759735,0.13164764642715454,-0.04630439355969429,-0.06112713739275932,-0.22209542989730835,0.0719904825091362,-0.16900894045829773,-0.11957249045372009,-0.10420218110084534,-0.024398986250162125,-0.18148697912693024,-0.23842929303646088,-0.07671107351779938,0.11417930573225021,-0.17011277377605438,0.11639820784330368,0.18054121732711792,-0.15706594288349152,-0.03055100329220295,-0.12155266851186752,0.06311291456222534,-0.1270587295293808,-0.1870298832654953,-0.2712903618812561,-0.2519201934337616,0.0363522544503212,-0.26018431782722473,0.04729737713932991,-0.029764464125037193,-0.16588035225868225,-0.14630946516990662,0.09949978440999985,0.11362866312265396,-0.18708252906799316,-0.11829861998558044,0.03913108631968498,0.06077021732926369,-0.11260703951120377,0.14720170199871063,-0.2111029177904129,-0.08391853421926498,-0.15091484785079956,0.06077554076910019,0.12048866599798203,-0.1383005827665329,-0.18653522431850433,0.020329665392637253,-0.17567312717437744,-0.15968888998031616,0.10970944166183472,-0.2235749214887619,0.1391511708498001,0.021129880100488663,-0.17728401720523834,0.08959053456783295,-0.20171920955181122,0.02391192689538002,-0.1919923722743988,0.030659610405564308,0.01677907072007656,-0.15920497477054596,0.14799350500106812,0.08218957483768463,-0.1809745877981186,-0.0807068720459938,-0.21292941272258759,-0.09908578544855118,-0.03770551458001137,0.14253509044647217,0.18311357498168945,0.13390210270881653,0.03969237580895424,-0.17769965529441833,0.15269418060779572,-0.18939700722694397,0.1136365458369255,0.15888869762420654,-0.1889609694480896,-0.17077668011188507,0.08921933174133301,0.0137100238353014,-0.12248485535383224,0.17892469465732574,-0.1725376695394516,0.04959676414728165,-0.07557880878448486,0.12649068236351013,0.0662909746170044,-0.005292107351124287,0.14852368831634521,-0.038904085755348206,0.06306243687868118,-0.19939690828323364,0.15651686489582062,-0.2365853488445282,0.08815789967775345,-0.05064959079027176,0.04473981633782387,-0.18988850712776184,0.08496968448162079,0.010748342610895634,-0.12321905791759491,0.07266972959041595,0.06813165545463562,-0.04328611120581627,0.1742248237133026,0.1374247521162033,0.16406753659248352,-0.013428553938865662,-0.002672392874956131,0.09517702460289001,-0.016951994970440865,-0.2143893837928772,0.08771520107984543,0.042615313082933426,-0.11419681459665298,-0.06281928718090057,0.18168224394321442,0.1417103409767151,-0.07346529513597488,0.13551625609397888,-0.09149765223264694,-0.03701719269156456,-0.18183143436908722,-0.16221939027309418,0.10761390626430511,-0.005592389963567257,-0.11079906672239304,0.053092505782842636,0.10685847699642181,-0.07183895260095596,-0.1588398516178131,0.09649056941270828,-0.0461258627474308,-0.08441565185785294,0.0939503014087677,-0.10877885669469833,0.06160162389278412,-0.15858125686645508,0.06525841355323792,0.09614071995019913,0.12320778518915176,-0.07797468453645706,0.015046149492263794,-0.17026418447494507,-0.22142493724822998,0.054220911115407944,0.040286507457494736,-0.06751380860805511,-0.1004127562046051,-0.1139826774597168,-0.001733717741444707,0.08049049973487854,-0.07380872219800949,-0.18779677152633667,-0.15192811191082,-0.22958143055438995,0.05061487853527069,0.0031720842234790325,0.061296168714761734,-0.10417249798774719,-0.12630175054073334,-0.0858907401561737,-0.13115772604942322,0.09750889986753464,0.011747430078685284,-0.0995473861694336,0.2799864709377289,-0.1371864527463913,-0.0972272977232933,-0.004743800964206457,0.12387125194072723,-0.03362540155649185,0.1392524689435959,0.03888878598809242,-0.07513915002346039,0.13445338606834412,-0.1783490926027298,-0.034046050161123276,-0.2234288603067398,-0.16862265765666962,0.004686251282691956,-0.04747273400425911,-0.18714703619480133,-0.052713289856910706,-0.06403108686208725,0.03327286243438721,-0.07182139903306961,-0.10320748388767242,-0.02315090410411358,-0.15592722594738007,-0.07400640100240707,0.01885516569018364,-0.16324183344841003,0.13102857768535614,-0.0397573858499527,-0.14191903173923492,-0.07802567631006241,-0.17422522604465485,-0.19472448527812958,-0.14771591126918793,-0.174362912774086,-0.22959904372692108,-0.19869665801525116,-0.18751588463783264,-0.2350974678993225,0.04094645380973816,-0.06883353739976883,0.0799521654844284,0.10254016518592834,-0.010841941460967064,-0.019608724862337112,0.06796380877494812,-0.19379837810993195,-0.16587664186954498,-0.10833960771560669,0.11224239319562912,-0.17776961624622345,-0.06367430090904236,-0.0726890042424202,0.0962100550532341,0.04463810846209526,-0.2127990573644638,-0.006436658091843128,-0.18915389478206635,-0.0024295845068991184,-0.03707272186875343,0.0004793344414792955,-0.05225788429379463,-0.075421042740345,0.03607198968529701,-0.09379172325134277,0.06640767306089401,-0.11748652905225754,0.06787234544754028,0.14112108945846558,-0.15801502764225006,-0.19584842026233673,-0.06582378596067429,0.15073208510875702,-0.064866803586483,-0.032331012189388275,-0.04803062975406647,-0.09207417070865631,-0.03189362213015556,-0.016397960484027863,-0.20820702612400055,0.06103513017296791,-0.07913225144147873,-0.09683739393949509,-0.16989822685718536,0.09678345918655396,0.003332327352836728,0.030411727726459503,0.025821326300501823,0.003503747982904315,-0.1670551896095276,0.06881250441074371,-0.023333942517638206,0.004425280261784792,-0.1679259091615677,-0.0350223109126091,0.12064819037914276,-0.1926308423280716,0.0628819614648819,-0.21733532845973969,-0.02802402153611183,0.10444236546754837,-0.07238250970840454,0.12398217618465424,0.07078946381807327,-0.11968684196472168,-0.024060886353254318,0.07551299780607224,-0.024118734523653984,0.04661399498581886,-0.05238431692123413,-0.0834980383515358,0.03276566416025162,-0.12919630110263824,-0.1965053230524063,-0.13500076532363892,-0.10474279522895813,0.012617391534149647,-0.02694479003548622,-0.042828526347875595,0.07963304221630096,0.08963178098201752,0.15080974996089935,0.12718743085861206,-0.029249494895339012,0.05710684880614281,-0.12736769020557404,-0.06792958080768585,-0.106190986931324,-0.002691947389394045,-0.07731914520263672,0.11383812874555588,0.08181703835725784,0.030797528102993965,-0.018206601962447166,0.13318230211734772,0.018944375216960907,-0.13860121369361877,-0.21006757020950317,-0.18265224993228912,0.09838073700666428,-0.16271255910396576,0.14085310697555542,-0.18156515061855316,-0.09943970292806625,0.024593427777290344,-0.13358835875988007,0.1356433480978012,-0.13179823756217957,-0.12468886375427246,0.06674957275390625,-0.03932332247495651,-0.1723080277442932,-0.00282375980168581,0.12197860330343246,-0.1264117807149887,-0.21446861326694489,-0.04270017147064209,-0.1261739581823349,0.0022634114138782024,0.050178784877061844,-0.0946241170167923,-0.21999318897724152,-0.14010627567768097,0.14455601572990417,0.1583475023508072,-0.048211902379989624,0.14422908425331116,0.18400000035762787,-0.11243235319852829,0.000014460208149102982,-0.14908525347709656,0.05751156434416771,0.12120551615953445,0.03927228972315788,0.1634415090084076,-0.13894376158714294,0.15479661524295807,0.07535924762487411,0.11633139103651047,0.14356201887130737,0.1883922815322876,0.08992564678192139,0.1495930254459381,-0.026427512988448143,-0.07536353170871735,-0.11193882673978806,-0.14371520280838013,-0.04395509511232376,0.167975053191185,-0.002476598136126995,-0.015901990234851837,0.0008091894560493529,0.01985684223473072,0.12428855895996094,0.006471247877925634,0.12679509818553925,0.12153532356023788,0.1769913285970688,-0.18539589643478394,0.16499264538288116,-0.08976228535175323,-0.2052079737186432,0.16030529141426086,-0.17977137863636017,-0.11195620149374008,-0.031476859003305435,-0.0017961460398510098,-0.026979979127645493,-0.16944672167301178,-0.007815764285624027,0.04623577743768692,0.08779186755418777,0.1358894556760788,0.1144646555185318,-0.007738959044218063,-0.0817503109574318,-0.19801244139671326,-0.045394331216812134,-0.026697995141148567,0.07240776717662811,-0.021733099594712257,0.012261622585356236,0.14906534552574158,0.0009580295300111175,-0.023265035822987556,0.17175161838531494,0.23170152306556702,0.11705343425273895,-0.08766812831163406,0.005082794465124607,-0.09561489522457123,0.031367361545562744,-0.1101977527141571,0.017250457778573036,-0.10651812702417374,0.15698879957199097,0.1005525290966034,-0.16983674466609955,-0.15673229098320007,0.014168708585202694,0.016392620280385017,0.1048753410577774,-0.11182486265897751,-0.03425943851470947,-0.19295720756053925,-0.12942133843898773,0.02393009327352047,-0.054119959473609924,0.06132454425096512,-0.1806398630142212,0.06895381957292557,0.1689503937959671,-0.07662738859653473,0.012506416067481041,-0.04273788630962372,-0.07086804509162903,-0.10987807810306549,-0.05920657888054848,-0.16490067541599274,0.0013548005372285843,-0.08051959425210953,-0.07349143177270889,-0.01749594137072563,0.14754799008369446,-0.025282584130764008,-0.02756430394947529,-0.07331593334674835,0.016873711720108986,-0.08660805970430374,0.05720556527376175,-0.1754724085330963,-0.07887102663516998,0.07155681401491165,-0.029209278523921967,-0.1057826355099678,-0.08657320588827133,0.1376398354768753,-0.17889030277729034,-0.1892247349023819,-0.09281567484140396,0.05279547721147537,-0.03954309597611427,0.07285482436418533,-0.11563432216644287,-0.23402643203735352,0.09151773899793625,-0.055439043790102005,0.07129434496164322,-0.06802594661712646,0.0714636892080307,0.024174967780709267,-0.08905307203531265,0.14358144998550415,0.049063581973314285,0.06448724120855331,0.13346019387245178,0.09337568283081055,-0.11303714662790298,-0.18316315114498138,0.06620334833860397,-0.05263539403676987,-0.20367777347564697,0.1948135495185852,-0.1318354606628418,-0.12348097562789917,-0.08428987115621567,-0.019479550421237946,0.033919233828783035,-0.10600463300943375,0.057238779962062836,0.04082777351140976,0.13178926706314087,-0.059150196611881256,0.06954745948314667,-0.07313352823257446,0.17164935171604156,0.11924838274717331,0.09566903114318848,-0.17456205189228058,-0.10532844811677933,-0.10172294825315475,0.026281241327524185,-0.0323098860681057,-0.1449865847826004,-0.012776917777955532,-0.08172594010829926,-0.18442575633525848,-0.1831752061843872,0.15220092236995697,0.20677168667316437,-0.09639689326286316,0.12889471650123596,-0.0010619668755680323,0.02077365666627884,-0.013626735657453537,-0.031038673594594002,-0.20153361558914185,0.23254907131195068,0.0938863530755043,0.026991480961441994,0.13810551166534424,-0.10146086663007736,-0.06574998050928116,-0.08211014419794083,-0.18378479778766632,-0.11683405190706253,0.05179901421070099,0.1515241414308548,-0.022837869822978973,-0.16670314967632294,0.04968057945370674,-0.10629310458898544,-0.17598609626293182,0.0106192072853446,0.12857456505298615,-0.10249771922826767,0.021322833374142647,-0.022926120087504387,0.11554129421710968,-0.020203473046422005,0.06923811137676239,-0.09151522815227509,-0.08944001793861389,-0.09735900908708572,-0.023800941184163094,0.0114143630489707,-0.22068586945533752,0.08370621502399445,0.06198408082127571,-0.05751124769449234,0.10171632468700409,-0.01334766298532486,0.010638151317834854,0.2234722226858139,0.1419823169708252,0.022444140166044235,0.06919827312231064,0.1090640127658844,-0.023406047374010086,-0.13865365087985992,0.18695946037769318,0.012756477110087872,0.1206095889210701,0.0797698050737381,0.13286122679710388,-0.0580885149538517,0.1302109658718109,-0.1125236377120018,0.11323589086532593,-0.13940228521823883,0.07965954393148422,0.06871432065963745,0.1161307767033577,0.16791507601737976,0.10083121061325073,0.09484510123729706,0.06690488755702972,0.13704143464565277,0.10270271450281143,0.020520120859146118,-0.10478942841291428,0.1678779572248459,-0.11548381298780441,-0.058880764991045,-0.15446892380714417,0.09381724148988724,-0.08195522427558899,0.06344801932573318,0.004120091442018747,0.20815736055374146,-0.0993647649884224,0.07871413975954056,0.03312579169869423,-0.17934057116508484,-0.17522960901260376,0.006042047869414091,-0.06893441826105118,-0.08655226975679398,0.06097406521439552,0.035717908293008804,-0.04626000300049782,-0.19341909885406494,0.13576194643974304,-0.13113941252231598,0.10778000950813293,-0.09729073196649551,-0.0560392327606678,-0.16495753824710846,0.04788074269890785,0.09598132967948914,-0.021955011412501335,-0.050886381417512894,0.19822490215301514,-0.11986477673053741,0.01711302436888218,-0.021556558087468147,-0.12727896869182587,0.07579653710126877,-0.04258885234594345,0.17974907159805298,-0.18802621960639954,-0.04723232612013817,0.12219148129224777,0.012013327330350876,-0.07494606077671051,0.001926757744513452,0.139157235622406,0.03340858966112137,-0.18750372529029846,0.17498832941055298,0.009739773347973824,-0.013086603954434395,-0.16867856681346893,-0.1746213287115097,0.12069825083017349,-0.15369440615177155,-0.10650544613599777,-0.059278927743434906,-0.14267444610595703,0.12888836860656738,-0.02783074416220188,0.05377071350812912,0.13424068689346313,-0.21698610484600067,0.10274191200733185,0.12879036366939545,0.09966025501489639,0.13517005741596222,-0.09025371074676514,-0.010105936788022518,-0.20367680490016937,-0.11791005730628967,-0.1304321140050888,-0.15448550879955292,-0.03460090979933739,0.17338959872722626,-0.2372989058494568,-0.09239495545625687,0.09157834947109222,-0.20461170375347137,0.04698904603719711,0.11932048946619034,0.010721449740231037,-0.007530550006777048,-0.04471974819898605,-0.2000807225704193,-0.21001097559928894,0.10944406688213348,-0.10109852999448776,-0.23483142256736755,0.0380282886326313,-0.15440525114536285,-0.23735161125659943,-0.07770971208810806,0.02529926784336567,-0.19842307269573212,0.10209563374519348,-0.15020781755447388,-0.15264809131622314,0.02210531197488308,0.15215280652046204,-0.0805201455950737,0.027779171243309975,-0.027865910902619362,0.1457788348197937,0.21355348825454712,0.0648525059223175,-0.16974438726902008,-0.007839580997824669,-0.06396183371543884,0.047207050025463104,-0.011714267544448376,0.1136505976319313,-0.1646663397550583,0.12715427577495575,-0.1535985916852951,0.07198423147201538,0.07054390758275986,-0.08958536386489868,0.15362387895584106,-0.15266886353492737,-0.14206935465335846,0.023177918046712875,0.11158251017332077,-0.03430812060832977,0.2175964117050171,0.03505327180027962,-0.11302320659160614,0.14256204664707184,0.17429432272911072,-0.07978051155805588,-0.11085949093103409,-0.1030801460146904,0.049507174640893936,0.11672306060791016,0.21179617941379547,-0.014246828854084015,0.15201683342456818,0.07098324596881866,0.008959854021668434,-0.06146563962101936,-0.09418080747127533,0.001059618080034852,0.03632373362779617,0.10264360904693604,-0.054123446345329285,-0.20387375354766846,0.15582028031349182,0.0836169496178627,-0.043590247631073,0.22112861275672913,0.18814849853515625,-0.1403803825378418,-0.11967067420482635,-0.16155067086219788,0.02343732677400112,-0.06906303763389587,0.07890588045120239,0.12989388406276703,-0.03240044042468071,0.14482691884040833,-0.011591531336307526,0.0315522775053978,-0.07951291650533676,0.023700689896941185,-0.1596192717552185,0.02483224868774414,0.22693155705928802,-0.1084153950214386,-0.13872066140174866,-0.19240684807300568,-0.017839306965470314,0.19666479527950287,0.08812601119279861,0.04833531752228737,-0.1498023420572281,0.11688216775655746,0.08421046286821365,0.17599980533123016,-0.12249869853258133,-0.08937038481235504,-0.13155147433280945,0.01918806880712509,0.14381639659404755,-0.13941237330436707,-0.16530293226242065,-0.1388850212097168,-0.18461067974567413,-0.0565449595451355,-0.0044975304044783115,-0.14848703145980835,-0.1178746297955513,-0.21667982637882233,0.1297941654920578,0.0014465738786384463,-0.18907229602336884,0.004857400897890329,0.08472111076116562,-0.23064211010932922,0.16313399374485016,-0.017360346391797066,-0.17083705961704254,-0.0465400405228138,-0.1611810028553009,0.010020541958510876,-0.04262145608663559,-0.05167853459715843,-0.16747573018074036,0.06642661243677139,0.1526012420654297,-0.10862591862678528,0.1411975920200348,-0.07570633292198181,0.02624819427728653,0.04387902468442917,-0.13973446190357208,-0.0530746728181839,-0.16500726342201233,-0.1396709382534027,-0.22093307971954346,0.18300284445285797,0.18539761006832123,-0.07397731393575668,-0.0696435272693634,-0.11339303851127625,0.020627591758966446,0.06777746975421906,-0.2131793349981308,-0.09302489459514618,0.1124863475561142,0.17070434987545013,-0.2651045024394989,0.14110729098320007,0.03672485798597336,0.13299712538719177,-0.05528794601559639,0.08228176832199097,0.12959600985050201,0.1683645248413086,0.09024326503276825,-0.07566705346107483,-0.09876547753810883,-0.018628910183906555,0.034019604325294495,0.025185508653521538,-0.14996512234210968,0.02919880859553814,0.06556900590658188,0.08047379553318024,0.09598233550786972,-0.19226503372192383,-0.2012825459241867,0.08549012243747711,0.04826197028160095,0.03236275538802147,-0.06153625249862671,0.06130770221352577,-0.0111695546656847,0.10882188379764557,0.17301519215106964,0.20710058510303497,-0.1549200415611267,0.13363172113895416,-0.1618635058403015,-0.05270838737487793,-0.10487215220928192,-0.038323964923620224,0.12214898318052292,-0.07050692290067673,0.06338784098625183,0.19465024769306183,-0.07506566494703293,0.12056484073400497,0.12682771682739258,0.20598332583904266,-0.0632745623588562,-0.07383712381124496,-0.22814348340034485,-0.03931385278701782,0.005365996155887842,-0.1582213193178177,0.18547965586185455,-0.036522846668958664,0.13865028321743011,-0.10626247525215149,0.1089717373251915,0.012091570533812046,0.11660727113485336,0.010656211525201797,0.06789819151163101,-0.12568768858909607,0.1896904706954956,-0.08036070317029953,0.0003565402585081756,0.06822235882282257,-0.1872604787349701,-0.031231116503477097,0.08279287815093994,-0.14058463275432587,0.04407183825969696,-0.033665888011455536,-0.12536193430423737,-0.19563139975070953,-0.0395297035574913,-0.08959902077913284,0.03174763172864914,0.10882660001516342,-0.07418576627969742,-0.15467526018619537,-0.0791499987244606,0.03674948588013649,-0.1823001354932785,-0.13567014038562775,0.15749770402908325,-0.05626296624541283,-0.08875101059675217,0.11884181946516037,-0.1369648575782776,0.13584288954734802,-0.04844169318675995,-0.14058339595794678,-0.019964560866355896,0.10090356320142746,0.10196626931428909,0.013602467253804207,-0.16753540933132172,0.09011244773864746,-0.14670248329639435,0.07926562428474426,-0.14233645796775818,0.09714668989181519,-0.1444118171930313,-0.08200633525848389,0.09655959159135818,-0.046316128224134445,-0.1649853140115738,0.1198631227016449,0.17350389063358307,0.18733547627925873,-0.034836750477552414,-0.08770668506622314,-0.008363081142306328,0.08275812119245529,-0.1275683045387268,0.07561001181602478,0.1503622680902481,0.0029441157821565866,-0.0067908368073403835,-0.11566565930843353,-0.10291757434606552,0.19584989547729492,-0.13542906939983368,-0.19061148166656494,-0.04002777114510536,0.06699377298355103,0.17916232347488403,-0.2008098065853119,0.1095297709107399,0.01839256100356579,0.18863172829151154,-0.09644275903701782,0.000009666457117418759,-0.06648454815149307,0.1224261000752449,-0.1972484439611435,0.0020458109211176634,-0.19113269448280334,0.16115176677703857,-0.06308422982692719,-0.1743699163198471,0.13907252252101898,-0.007925246842205524,0.03612339869141579,-0.06571714580059052,-0.17578430473804474,-0.025833960622549057,0.05212721228599548,-0.18565642833709717,-0.0364239439368248,-0.13058164715766907,0.097450852394104,0.13082201778888702,-0.09393495321273804,-0.0018089220393449068,-0.08806846290826797,-0.1675231158733368,0.07441810518503189,-0.037753697484731674,-0.09651094675064087,0.030456725507974625,-0.15078593790531158,-0.20212070643901825,-0.049585405737161636,-0.10735815763473511,-0.10519829392433167,0.14147767424583435,0.13142135739326477,-0.017419103533029556,0.22577105462551117,0.03452645614743233,-0.04119490459561348,-0.0439118817448616,-0.14251568913459778,0.06970412284135818,0.06894601136445999,0.20603333413600922,0.17346510291099548,-0.06862936913967133,-0.08405997604131699,0.14917464554309845,-0.09617118537425995,0.12677718698978424,0.023113979026675224,-0.0005021062679588795,0.18656179308891296,-0.00045441710972227156,0.0027216284070163965,0.15059591829776764,-0.11395139992237091,-0.01617339812219143,0.24636898934841156,0.03021339327096939,-0.11213312298059464,-0.07393475621938705,-0.0648002177476883,0.05367997661232948,-0.01810765080153942,-0.005041992291808128,0.010240927338600159,0.11218076199293137,0.09058956801891327,0.032639119774103165,0.18162532150745392,0.11793354153633118,0.09887666255235672,-0.11752971261739731,-0.1267888844013214,-0.06642227619886398,-0.13710322976112366,0.10215441137552261,0.07837380468845367,0.07376815378665924,0.02294638566672802,-0.19207309186458588,0.09325256198644638,0.11579620838165283,-0.09843508899211884,0.01291782408952713,-0.12265460193157196,-0.05918745696544647,-0.03712478280067444,-0.1760728359222412,-0.10793015360832214,-0.006303303875029087,0.07511111348867416,-0.053188882768154144,0.01168153528124094,0.022925904020667076,-0.16155384480953217,-0.1767105907201767,0.13686798512935638,0.0017132324865087867,0.18023681640625,0.09077587723731995,-0.004318854305893183,0.1558218151330948,-0.0013350502122193575,0.007562040816992521,-0.17384208738803864,0.06496834754943848,0.023661360144615173,0.08151189237833023,-0.1334916651248932,-0.11765804141759872,0.07223816215991974,0.13173994421958923,0.02529580518603325,0.1766035407781601,0.01912795379757881,0.010789466090500355,0.18721096217632294,-0.05430557206273079,0.03970683366060257,0.06538673490285873,-0.12486269325017929,0.004770340863615274,0.22726687788963318,0.1578076183795929,-0.23000900447368622,0.025985270738601685,-0.13526293635368347,-0.09366977959871292,-0.2018919140100479,0.026431884616613388,0.04400625824928284,-0.08825775980949402,-0.14663197100162506,0.1100812703371048,0.0754622370004654,-0.01785000041127205,0.16818684339523315,0.03358050063252449,0.023286163806915283,-0.178577721118927,0.1880473792552948,0.1127544716000557,0.11794557422399521,0.13783949613571167,-0.07729704678058624,0.10922321677207947,-0.09581071883440018,-0.17005737125873566,-0.01823550835251808,0.09253759682178497,-0.11475688219070435,0.15054814517498016,0.105397067964077,0.024913381785154343,-0.08162450045347214,-0.15514186024665833,0.11162177473306656,0.09345711022615433,-0.1087089478969574,-0.17155514657497406,-0.09533475339412689,-0.061411064118146896,0.08230838924646378,0.18558929860591888,0.2294727861881256,0.0004883768269792199,0.0284882765263319,0.038381751626729965,-0.1929071992635727,0.0828310027718544,-0.054365165531635284,-0.14066006243228912,-0.024808235466480255,0.053989194333553314,-0.04821082577109337,-0.19295619428157806,-0.04385725408792496,0.00720784068107605,0.08058048784732819,-0.01429115328937769,0.15068408846855164,0.0033865959849208593,-0.01183503121137619,-0.10225454717874527,-0.09113053232431412,0.07466097921133041,-0.16940529644489288,0.19373828172683716,-0.046131305396556854,-0.12388259917497635,0.013312355615198612,0.16470740735530853,0.011231524869799614,-0.1708214282989502,-0.18421809375286102,-0.18934625387191772,-0.13564583659172058,-0.1020428016781807,0.0657179206609726,0.020440541207790375,0.14112435281276703,-0.08341919630765915,0.06833840906620026,-0.05659918487071991,0.04639839008450508,-0.07537981122732162,0.042853668332099915,-0.1926545798778534,-0.2610551714897156,0.1472335308790207,0.1317845731973648,0.15698294341564178,-0.16471710801124573,-0.12096638977527618,0.11750581115484238,-0.07988535612821579,-0.12031862884759903,0.09391625225543976,0.08507877588272095,0.12566031515598297,-0.064104363322258,0.012439705431461334,0.17120333015918732,-0.032992418855428696,0.00476137874647975,0.05333526432514191,-0.00484423665329814,-0.18206831812858582,0.1781156063079834,0.016502341255545616,0.11878243088722229,0.04738457128405571,-0.13056805729866028,-0.016557611525058746,-0.19127804040908813,0.07634016126394272,-0.053623128682374954,0.11189549416303635,0.22999371588230133,0.1402534544467926,-0.189507856965065,-0.1467631757259369,-0.06875105202198029,-0.0671619102358818,0.1716664731502533,-0.06497001647949219,-0.15026818215847015,-0.1673256903886795,0.18762065470218658,0.12769894301891327,0.0989442840218544,-0.16460512578487396,0.03153710067272186,-0.16113966703414917,-0.0181119441986084,0.1708323359489441,0.050213105976581573,-0.024751512333750725,0.11496111750602722,0.13642822206020355,-0.044545069336891174,-0.03161292150616646,-0.031827304512262344,-0.005328590050339699,-0.0029597708489745855,-0.003310500644147396,-0.050134167075157166,0.01832233928143978,-0.034604743123054504,0.16913846135139465,-0.1801498532295227,-0.2386993169784546,-0.17204786837100983,0.10284942388534546,-0.21215376257896423,0.06648683547973633,-0.07401087135076523,0.1844959259033203,0.03573181480169296,0.11309482902288437,0.054715901613235474,-0.06843531131744385,0.1142929270863533,0.06891120970249176,0.06843135505914688,-0.19481129944324493,0.07277979701757431,-0.016687266528606415,0.09227366000413895,0.1631963849067688,0.05641881376504898,-0.2248678356409073,0.11122780293226242,-0.14516182243824005,0.014822840690612793,0.14077581465244293,0.015965942293405533,0.1420855075120926,0.09445592761039734,-0.06777861714363098,0.09994187206029892,0.0019362929742783308,0.03504575788974762,-0.22945237159729004,0.1601363718509674,0.018303338438272476,0.14773963391780853,0.2198217213153839,0.008916442282497883,-0.05420362204313278,-0.19553643465042114,0.11096353083848953,0.12925530970096588,-0.13956406712532043,-0.18672871589660645,-0.007940190844237804,-0.20794329047203064,-0.1592940390110016,-0.13202525675296783,-0.029363101348280907,-0.0021621903870254755,0.092277891933918,-0.09547287225723267,0.012488926760852337,0.15241771936416626,-0.029856709763407707,0.1576782464981079,0.1007937341928482,-0.027889054268598557,0.05846068635582924,0.16329409182071686,-0.1451680064201355,0.11432293802499771,-0.037787605077028275,0.0339803509414196,0.08134870231151581,0.15363489091396332,0.14908643066883087,0.1280890554189682,-0.07095623016357422,0.11442819237709045,-0.025620615109801292,0.029553396627306938,-0.04827851802110672,0.09409486502408981,0.18051591515541077,0.1342213898897171,0.045854706317186356,0.014871630817651749,0.0909361019730568,-0.008216485381126404,0.05116226524114609,-0.0977775901556015,0.2090461403131485,0.07324717938899994,0.004050079733133316,0.061675719916820526,0.15775123238563538,-0.1583121120929718,-0.09107210487127304,0.14466553926467896,0.1142357587814331,0.10559558868408203,-0.2148718237876892,0.06991959363222122,-0.08029749244451523,-0.21904738247394562,0.064264215528965,0.13692022860050201,0.17417074739933014,-0.03790994733572006,0.0018092574318870902,-0.10130494087934494,-0.09791262447834015,0.03457852080464363,0.10800188779830933,-0.1474432498216629,-0.17416958510875702,0.01502775214612484,-0.14222851395606995,0.022653358057141304,-0.11772402375936508,0.15128083527088165,-0.1335010975599289,0.09576129168272018,-0.11455950140953064,-0.0958809107542038,0.02588643692433834,-0.027238920331001282,-0.03503153845667839,-0.018159471452236176,0.03637361899018288,-0.04123967885971069,0.08258071541786194,-0.1947813779115677,-0.15992088615894318,-0.2075282484292984,-0.14618347585201263,-0.15598443150520325,-0.02743467129766941,-0.052041202783584595,0.06721487641334534,0.044807471334934235,-0.03717586770653725,0.16213425993919373,-0.07896237075328827,-0.17755530774593353,0.01545621082186699,0.1408611685037613,-0.03419659286737442,0.10493570566177368,0.07030123472213745,-0.026313241571187973,-0.025377998128533363,0.13274088501930237,-0.044868338853120804,0.1486974060535431,0.0726064145565033,-0.083347849547863,0.014592159539461136,0.040858425199985504,-0.03231997787952423,-0.035712312906980515,-0.03135112300515175,0.10482993721961975,-0.027649058029055595,0.22394710779190063,0.09245205670595169,0.18748430907726288,-0.09227549284696579,-0.18693551421165466,-0.22801971435546875,-0.023939162492752075,0.19817394018173218,0.10552296787500381,-0.012944093905389309,0.055438246577978134,-0.09371000528335571,-0.17620207369327545,0.046079494059085846,-0.08421949297189713,0.19831088185310364,0.12820571660995483,0.12465548515319824,0.20262910425662994,0.07075204700231552,0.1608790159225464,0.13800077140331268,0.19370372593402863,-0.10053269565105438,0.1990211009979248,0.014866056852042675,0.04110005497932434,-0.07517495006322861,-0.05713535472750664,0.11886589229106903,0.03566129878163338,-0.0731113851070404,-0.14778126776218414,0.15927262604236603,0.0917370468378067,-0.0947035402059555,-0.145010307431221,-0.19832435250282288,0.050329748541116714,0.04487156122922897,-0.1167210191488266,-0.007865475490689278,-0.12220072746276855,0.01321850810199976,0.2055838257074356,-0.21340824663639069,0.14095859229564667,0.17080658674240112,-0.10646422952413559,0.07293925434350967,-0.19235678017139435,0.06087702885270119,0.12213950604200363,-0.01857920177280903,-0.07426705211400986,0.07435417920351028,-0.1481657326221466,-0.09795702993869781,-0.029900318011641502,0.10962934792041779,0.07097028195858002,-0.18254661560058594,0.19718313217163086,-0.11954887211322784,0.13826006650924683,0.054330531507730484,0.09314891695976257,-0.03367229551076889,-0.11994750052690506,-0.030907796695828438,0.17459909617900848,0.04982118681073189,-0.051006026566028595,0.040597930550575256,0.22271257638931274,0.18583956360816956,-0.06204480677843094,0.03318266198039055,0.11772336065769196,0.05874808877706528,0.034644730389118195,0.15596604347229004,0.08457283675670624,-0.08534514904022217,-0.12426887452602386,-0.030068155378103256,-0.008075994439423084,-0.011335210874676704,0.14301633834838867,0.1769142895936966,0.034347716718912125,-0.014350730925798416,0.19441401958465576,0.03648814186453819,-0.0054405746050179005,0.05435750260949135,0.08898935467004776,0.005936799570918083,-0.08593998104333878,0.07733537256717682,0.1739882230758667,-0.038218069821596146,-0.1089133694767952,0.0073204124346375465,-0.09132801741361618,0.06508459895849228,-0.12521085143089294,-0.17806851863861084,0.2009114921092987,0.08871251344680786,0.13618391752243042,0.12593477964401245,0.012329193763434887,0.21437378227710724,0.012383202090859413,0.10275395214557648,0.01714915782213211,-0.13107457756996155,-0.012931927107274532,0.1590912640094757,0.12219767272472382,0.07987375557422638,-0.05263790488243103,0.07602287828922272,-0.1774650663137436,0.0619075633585453,-0.17119134962558746,0.17196804285049438,0.25289663672447205,0.10213861614465714,0.1372935026884079,0.12042795121669769,-0.14634312689304352,-0.00753713957965374,-0.028001422062516212,-0.03654133155941963,0.07834611088037491,0.12290851026773453,0.053327396512031555,-0.09400241076946259,-0.12290184199810028,-0.0932723879814148,0.1579374074935913,0.0521315298974514,0.11862307786941528,0.08985529094934464,-0.09066849201917648,-0.12268521636724472,0.15903706848621368,-0.05258956924080849,0.19152884185314178,0.19822204113006592,-0.1367240995168686,0.04641661047935486,-0.004302735906094313,0.06822787970304489,0.008986885659396648,0.11833793669939041,-0.12345883995294571,-0.15635977685451508,0.06719745695590973,-0.03115929663181305,-0.08014875650405884,0.10401982814073563,-0.028692074120044708,-0.2026476263999939,0.17204393446445465,-0.11048129945993423,-0.17727728188037872,0.18908119201660156,-0.07130894809961319,0.03574162721633911,-0.18927451968193054,-0.21098966896533966,-0.19983534514904022,-0.026483207941055298,0.119569331407547,-0.1611320972442627,0.15585695207118988,-0.13375017046928406,-0.08111711591482162,-0.17684175074100494,0.163847416639328,-0.12588976323604584,-0.07961863279342651,0.08688288927078247,0.046336300671100616,0.015175124630331993,-0.06934288144111633,0.04471450299024582,0.10181127488613129,-0.043110378086566925,0.17821206152439117,0.038743603974580765,0.01794758439064026,-0.2625511586666107,-0.07563260197639465,0.20958761870861053,-0.15430966019630432,-0.054818637669086456,-0.135429248213768,0.061626944690942764,0.07389407604932785,0.07724720239639282,-0.061838001012802124,0.11319030821323395,-0.1276349425315857,-0.14320972561836243,-0.04879177734255791,0.16099752485752106,0.05087338387966156,0.004468590021133423,-0.038207679986953735,-0.09411880373954773,-0.15535055100917816,0.06298497319221497,0.15543179214000702,-0.03288577124476433,-0.028950976207852364,-0.18056581914424896,-0.11130359768867493,0.10655535012483597,-0.019372189417481422,-0.1679026186466217,-0.15304958820343018,0.06572642922401428,-0.1227102130651474,0.13868696987628937,-0.07677437365055084,-0.04568667337298393,-0.037646934390068054,0.019157759845256805,-0.1575947403907776,0.0630284920334816,-0.10398004204034805,0.09546808153390884,-0.06611106544733047,0.025969844311475754,-0.020171605050563812,-0.08130353689193726,0.021228719502687454,-0.20769771933555603,-0.03440912067890167,-0.13473695516586304,0.027331383898854256,-0.06645826250314713,0.030313802883028984,0.08847659081220627,0.19568553566932678,0.0900932103395462,-0.06857117265462875,0.045936957001686096,-0.0851961150765419,0.01661696843802929,-0.040631864219903946,0.12406610697507858,0.09412727504968643,0.12356717884540558,-0.014824462123215199,-0.18038970232009888,0.12055552005767822,-0.03206890821456909,-0.1371210813522339,-0.05293760448694229,-0.1124776303768158,0.16136354207992554,-0.21665112674236298,-0.036392468959093094,0.08720345795154572,0.10763848572969437,0.11779633164405823,0.05070222169160843,0.11024194955825806,0.02436806820333004,0.13971245288848877,-0.21899355947971344,0.13075540959835052,-0.09835457801818848,0.04632542282342911,-0.09398724883794785,-0.0831543579697609,-0.1709594428539276,0.05904652178287506,0.07536501437425613,-0.13546468317508698,-0.02536068484187126,0.03582863137125969,-0.021022120490670204,-0.0953957810997963,-0.038225043565034866,0.06392385065555573,0.025362849235534668,-0.1387583464384079,-0.24675197899341583,0.13629071414470673,0.16977901756763458,0.047369956970214844,-0.09317365288734436,-0.09564835578203201,-0.1624726951122284,-0.14945179224014282,-0.1784447580575943,-0.038715850561857224,0.12249808758497238,0.1744079887866974,0.038788631558418274,0.02170555479824543,-0.11853975802659988,-0.07353612035512924,0.09642785787582397,0.20396316051483154,0.07878773659467697,0.07094588130712509,0.09762115776538849,0.10001148283481598,-0.1171044185757637,-0.09617849439382553,-0.06350192427635193,0.012318221852183342,-0.10659729689359665,-0.07321792095899582,0.0646161139011383,0.16805726289749146,-0.16075406968593597,0.1502060741186142,0.003691440913826227,0.0663847029209137,0.08438079804182053,-0.051797185093164444,-0.02870853804051876,0.0927245020866394,-0.04748465120792389,0.028396831825375557,-0.0923275500535965,-0.058156032115221024,0.12132612615823746,0.07511275261640549,0.1546967476606369,-0.1767062395811081,0.1760166883468628,0.0820273905992508,-0.02664164826273918,-0.014999086037278175,-0.06013884022831917,0.230287104845047,0.09969861060380936,-0.007716020569205284,-0.008477525785565376,-0.20000819861888885,0.04569682851433754,0.12363334745168686,-0.17506499588489532,-0.0979660227894783,-0.07853314280509949,0.15171407163143158,0.14490236341953278,0.12743385136127472,-0.10843086987733841,0.10506867617368698,-0.0666106715798378,-0.15583284199237823,-0.15445177257061005,-0.11467905342578888,0.13112325966358185,-0.19471973180770874,-0.14544135332107544,-0.05704973265528679,-0.00031090338598005474,0.12285420298576355,-0.05379248782992363,0.019356148317456245,-0.12445308268070221,0.08080585300922394,-0.10371322929859161,-0.1574687361717224,0.17842379212379456,0.18815429508686066,-0.16789984703063965,-0.11954426020383835,-0.1335190236568451,-0.0366331972181797,-0.09217403084039688,-0.034935690462589264,0.001753616495989263,-0.07166045159101486,-0.06232794374227524,0.08754704147577286,-0.07101075351238251,-0.14771713316440582,-0.05781329795718193,-0.1285819709300995,-0.09841728210449219,0.07720193266868591,-0.006097378209233284,0.18002191185951233,0.021607905626296997,-0.07979687303304672,-0.06447464227676392,-0.1729971170425415,0.12628328800201416,-0.06198931485414505,-0.02852206490933895,-0.008618516847491264,0.1428826004266739,-0.08547947555780411,0.0811709463596344,-0.06456057727336884,-0.06088291108608246,-0.1187877207994461,0.14020676910877228,-0.0954774022102356,-0.016835268586874008,0.0579683817923069,0.011135684326291084,0.13730847835540771,-0.0652027353644371,0.1200585886836052,0.09865152835845947,-0.030477793887257576,-0.055539414286613464,0.10200788080692291,0.041956257075071335,-0.11979424953460693,-0.0016629556193947792,0.10253079235553741,-0.17470325529575348,-0.18639670312404633,0.14154884219169617,-0.1299450546503067,0.13232949376106262,0.004809979349374771,-0.12503179907798767,-0.02288382314145565,0.18684010207653046,-0.16096164286136627,-0.08021974563598633,0.15911468863487244,-0.08352810889482498,0.1690061092376709,0.022522293031215668,-0.12359484285116196,0.16409149765968323,-0.045130595564842224,-0.1801055371761322,0.032670676708221436,-0.01889502815902233,-0.06700362265110016,0.12294519692659378,-0.005430541932582855,-0.014826127327978611,-0.12561939656734467,0.09834858775138855,0.19209952652454376,0.14616264402866364,-0.12291666120290756,0.07613487541675568,0.1478819102048874,-0.00228694430552423,-0.11223302036523819,0.21078766882419586,-0.037195175886154175,0.21658514440059662,-0.12563323974609375,-0.03554614260792732,-0.06386002153158188,-0.030161868780851364,0.138040691614151,-0.08534279465675354,0.13943266868591309,-0.1227153018116951,-0.10296263545751572,-0.028706202283501625,0.16074547171592712,-0.04524452984333038,-0.1496412456035614,0.13316956162452698,0.08271294087171555,-0.2119966447353363,-0.10914309322834015,0.011946133337914944,-0.056194745004177094,0.04349341243505478,0.09416497498750687,-0.027411771938204765,0.06221814081072807,0.12332777678966522,-0.01778777688741684,0.10168377310037613,0.025270523503422737,-0.020258711650967598,-0.08471310138702393,-0.148936927318573,0.16401223838329315,0.05367019772529602,0.11680059134960175,-0.1413692981004715,-0.06857273727655411,0.055521272122859955,0.07334412634372711,-0.1507401019334793,-0.0681648775935173,-0.12478283047676086,0.14551080763339996,0.05514758452773094,-0.02948896586894989,-0.18604934215545654,-0.23107849061489105,0.036060649901628494,0.007588702719658613,0.211900994181633,-0.10433328151702881,-0.1060161367058754,-0.15574172139167786,-0.12356466799974442,0.21600030362606049,-0.16384880244731903,-0.017911050468683243,-0.0008164020837284625,-0.25398528575897217,-0.0320197194814682,-0.03864495828747749,0.09043955057859421,-0.22474965453147888,-0.11061073839664459,-0.09015750139951706,0.041152674704790115,0.1274213045835495,0.09723777323961258,-0.014362999238073826,-0.08491920679807663,-0.2312934398651123,-0.06364261358976364,-0.06452956795692444,-0.12991449236869812,-0.1710808277130127,0.09850683808326721,0.10607223957777023,-0.062456805258989334,0.17809459567070007,0.0983612984418869,-0.15935353934764862,-0.15009602904319763,-0.0008419020450673997,-0.055144865065813065,-0.04758865758776665,0.07341299951076508,-0.14804071187973022,0.07151799649000168,0.051342252641916275,-0.06252232193946838,-0.09331686794757843,0.0426737442612648,0.05401582643389702,-0.24055780470371246,-0.2171342968940735,-0.09006445109844208,-0.022658806294202805,-0.15460440516471863,-0.026479538530111313,0.1851922571659088,-0.21207840740680695,0.03643611818552017,-0.23902980983257294,0.16535517573356628,0.07606691867113113,-0.06733643263578415,-0.017497416585683823,0.10789641737937927,-0.03787348046898842,-0.1159072071313858,0.10689526796340942,-0.16230522096157074,0.07118360698223114,0.2042963206768036,-0.1346258819103241,-0.14487753808498383,0.044330473989248276,-0.02900291234254837,0.12847553193569183,0.12937912344932556,-0.0841316357254982,0.10170133411884308,-0.08903047442436218,0.022609300911426544,0.084385946393013,-0.03387065976858139,0.12396609783172607,0.10915878415107727,-0.1708858162164688,0.08684399724006653,-0.07667586952447891,-0.045385781675577164,-0.11926446110010147,-0.004045861307531595,-0.17774103581905365,-0.12838079035282135,0.0027475995011627674,-0.16430091857910156,0.11588989198207855,0.14008456468582153,0.16584181785583496,0.12664733827114105,-0.01759396865963936,-0.03095838613808155,-0.22877024114131927,-0.2802315056324005,0.031028250232338905,-0.1523863971233368,-0.01628435030579567,0.03632907569408417,-0.08831406384706497,-0.10744012147188187,-0.006973906885832548,0.07718636840581894,-0.2120676040649414,0.08624003082513809,-0.053294360637664795,0.13644647598266602,-0.03905339166522026,0.07910502701997757,0.02220526896417141,0.06379950046539307,0.04042160138487816,0.1610586941242218,-0.19352997839450836,0.09507793933153152,0.06980425119400024,0.19504739344120026,0.07875220477581024,-0.20820941030979156,0.06861970573663712,-0.12939390540122986,0.018558522686362267,-0.19213266670703888,-0.025714866816997528,-0.04025241732597351,0.16438040137290955,-0.09547031670808792,0.022438708692789078,-0.11277394741773605,0.07605734467506409,0.15094593167304993,-0.04493715241551399,-0.1984790712594986,-0.08780550211668015,-0.23083868622779846,-0.05398448929190636,-0.16854088008403778,0.041748180985450745,-0.16957585513591766,-0.026771342381834984,-0.1076371893286705,-0.041127659380435944,0.08898349106311798,-0.014835842885077,0.1294480264186859,-0.07579497992992401,-0.2618428170681,-0.13696108758449554,0.17032784223556519,-0.03291841968894005,0.06509710103273392,-0.013463138602674007,-0.02962593547999859,0.15873563289642334,-0.09892784059047699,-0.07823669910430908,-0.2463299036026001,-0.20558862388134003,0.08221396803855896,0.17764630913734436,-0.07093710452318192,0.038844816386699677,0.08559958636760712,-0.007707929238677025,0.10240250080823898,0.02068507671356201,-0.12332102656364441,-0.10682588815689087,0.2241480052471161,-0.131270632147789,-0.03972923383116722,-0.14906886219978333,-0.18684646487236023,0.16069912910461426,-0.02077317424118519,0.1612578183412552,0.10606088489294052,-0.06189820542931557,-0.22242780029773712,0.04855122044682503,-0.0912708044052124,0.12683264911174774,-0.12629128992557526,0.01781567372381687,-0.05227017030119896,-0.041260674595832825,-0.1512412428855896,0.09627319127321243,-0.058231085538864136,0.029852598905563354,-0.18227766454219818,-0.03298651799559593,-0.08963935077190399,-0.012499520555138588,-0.08668232709169388,0.21361154317855835,-0.19048866629600525,-0.11239393055438995,-0.08878020942211151,-0.12182057648897171,-0.17723925411701202,-0.11202260851860046,0.10040449351072311,-0.10414639860391617,-0.16833779215812683,-0.21269704401493073,0.07610879093408585,0.14192432165145874,0.05567815154790878,-0.053197700530290604,-0.1498643308877945,0.00022620098025072366,-0.07594982534646988,-0.19814999401569366,-0.012263969518244267,-0.06684514135122299,-0.0528409443795681,-0.0376146025955677,0.07562994956970215,0.08411922305822372,0.046755414456129074,-0.11338382214307785,-0.08258093148469925,0.10627365857362747,0.08409536629915237,-0.041549112647771835,-0.0541439987719059,-0.0628456398844719,-0.1429692655801773,-0.10898434370756149,0.013734634034335613,-0.02700169011950493,-0.05202392116189003,0.18405239284038544,-0.0889807716012001,-0.1265808641910553,0.04258255660533905,0.04380318522453308,0.003138079773634672,-0.17215584218502045,-0.02960788644850254,0.05983226001262665,-0.11509082466363907,-0.20764298737049103,0.01817159168422222,0.021403854712843895,-0.20116159319877625,0.12952788174152374,0.11208361387252808,0.034857235848903656,0.11123166978359222,0.03545757010579109,0.17638780176639557,0.12586498260498047,-0.005360158160328865,0.024067148566246033,0.09460187703371048,-0.05813102051615715,0.16428346931934357,0.08761453628540039,0.07545366883277893,-0.16219462454319,-0.1322450339794159,-0.014240693300962448,-0.14831793308258057,-0.15044716000556946,-0.17451049387454987,-0.05329287424683571,-0.11007782816886902,0.11362750083208084,